-0.214304 -0.252619 0.431589 -0.458171 0.279844 0.246835 -0.346321 0.284673 0.453026 0.595663 -0.486096 0.466489 -0.23755 0.258968 -0.282641 -0.221952 -0.562736 0.559554 -0.437597 0.451936 -0.458434 0.59605 0.393799 0.289514 0.391042 0.524992 -0.351808 -0.521949 -0.215939 0.221578 0.31037 -0.395526 0.318101 -0.467433 0.572806 0.473139 -0.218139 -0.435995 0.549911 -0.458764 0.210686 -0.418091 0.575237 0.551853 0.320957 0.289756 -0.216961 -0.504434 0.240362 0.29076 -0.491235 -0.444407 0.433087 -0.321312 0.205911 -0.523952 -0.363832 0.379092 -0.482083 0.330245 0.304376 -0.434367 0.305282 -0.456399 -0.510668 -0.358811 -0.511058 0.311276 -0.28362 0.527144 -0.412664 0.306128 0.593139 -0.315565 0.216164 0.478263 -0.26581 0.441877 -0.451431 0.516735 -0.245436 -0.564001 -0.278764 0.300639 -0.507864 -0.451914 -0.478879 0.297023 0.443261 0.347241 0.258398 -0.579965 -0.338133 -0.495299 0.520118 0.351662 0.48758 0.522047 -0.390939 0.328728 0.250468 0.419331 -0.538684 -0.401365 -0.328943 -0.241371 0.574109 0.511548 -0.443178 0.301805 0.218882 -0.32885 0.56913 0.472806 -0.273584 0.458873 0.582177 -0.253399 0.594558 0.302806 -0.40337 0.510842 0.365513 -0.48972 0.229238 -0.371988 0.444993 -0.554582 0.551736 -0.574193 0.428922 -0.349371 0.51127 -0.33196 0.257535 0.229329 0.578943 -0.238384 0.362561 0.353147 0.51963 -0.439918 0.425973 0.578747 0.221887 -0.403028 -0.386006 0.261908 -0.35517 -0.203103 0.228634 -0.27361 0.572603 -0.352033 -0.240098 -0.526962 -0.430314 -0.32435 -0.561379 0.433996 -0.256037 0.434076 0.589423 0.539318 0.289853 0.557299 -0.574853 0.326063 -0.342903 0.28262 -0.383275 0.342728 -0.376461 -0.269877 -0.570176 -0.321107 -0.540897 0.468255 0.451167 0.274914 0.349994 0.259506 -0.263122 -0.272303 -0.263665 0.589026 0.364504 0.46053 0.598833 0.278806 0.43428 -0.595222 -0.355096 -0.305497 0.27105 0.547283 0.412623 0.545891 0.392359 -0.28177 0.373116 0.302965 0.402549 0.478586 -0.493903 -0.370391 0.357305 0.50336 0.22909 0.518664 -0.389268 -0.521183 -0.472736 -0.477637 -0.485267 0.521119 0.230202 0.596004 -0.587579 -0.234133 -0.431982 -0.209665 -0.570137 0.501687 -0.521882 0.299366 -0.286298 0.313042 -0.487623 -0.22413 -0.550085 -0.431273 -0.569333 -0.413037 0.301866 -0.438394 -0.251694 0.523134 -0.361084 0.221057 0.245172 -0.394117 0.340972 -0.290504 0.497837 0.401484 -0.259883 -0.428208 -0.460034 -0.586128 -0.488415 0.495748 0.272582 -0.56194 0.243703 -0.516632 0.30342 0.420345 -0.217907 0.472986 -0.225483 -0.363666 0.307228 -0.314582 -0.233119 0.529161 -0.525233 0.461644 0.24379 0.431481 0.406581 0.376368 0.458862 -0.354393 0.507561 -0.392514 -0.30185 0.218409 -0.548054 0.376339 0.433701 0.502707 0.530409 -0.356749 0.587934 0.261693 -0.336343 -0.304517 0.434773 0.471975 -0.48629 0.275378 0.220669 0.397218 0.426778 -0.549896 -0.279057 0.419413 -0.216953 0.583666 0.564392 0.399403 -0.483419 0.295941 -0.36283 0.460525 -0.232406 -0.23726 -0.22969 0.221798 -0.408034 0.516947 0.424297 0.496557 -0.312522 0.446138 0.525581 0.37765 0.549461 -0.527192 0.441508 0.361411 0.32362 -0.52699 0.233149 -0.209777 -0.520482 0.328275 0.263083 -0.586028 0.505055 0.45252 0.477707 0.239637 0.503762 -0.539459 -0.354545 -0.219184 0.499542 -0.231475 0.494962 0.373874 0.567975 0.560222 0.526981 -0.406664 -0.378416 0.262673 -0.289355 -0.48329 -0.269138 -0.338387 0.523619 0.301849 -0.303745 -0.355852 -0.374576 0.414151 -0.431876 -0.37361 0.320623 -0.590893 -0.239459 -0.555162 -0.355876 -0.32193 0.261201 0.248697 0.217888 -0.407982 -0.48387 0.32034 0.49356 -0.400996 -0.308863 -0.484293 0.55488 -0.328525 -0.528752 -0.323152 0.52214 0.509641 0.305399 0.568162 -0.308885 0.444919 -0.339978 -0.2512 -0.499749 -0.358974 0.426802 -0.438098 0.518452 -0.376022 0.250311 -0.531832 0.344256 0.555792 -0.399812 -0.572942 0.300098 -0.501451 -0.38312 -0.473613 -0.404847 0.291481 -0.275854 0.413332 -0.496203 0.441511 0.488527 -0.518965 0.214816 -0.482439 -0.398711 0.323325 -0.273242 -0.338884 0.577427 -0.539231 -0.245085 0.413923 -0.560292 0.315245 0.216608 -0.403009 0.330099 0.537919 -0.596731 0.559544 -0.275738 -0.29425 0.307645 -0.205341 -0.445633 -0.467346 -0.575284 0.211657 0.308524 -0.392071 -0.283658 0.230267 -0.317054 -0.558672 0.388543 0.509227 -0.201086 0.21326 -0.436612 0.393803 -0.563173 0.572962 -0.342418 0.474033 -0.311521 0.576074 0.261185 -0.208935 0.574526 -0.492024 -0.485824 0.227349 0.404729 -0.595641 0.259209 0.323586 -0.450593 -0.560839 -0.281167 0.443953 0.500976 -0.587866 0.426368 -0.340401 0.564409 0.563962 -0.433676 -0.337144 0.231919 0.279746 0.522228 0.31351 -0.49988 -0.365833 0.509221 -0.373734 -0.429813 0.372359 0.358401 -0.457075 -0.545184 -0.573044 0.412347 -0.417266 0.442972 -0.535395 0.300343 -0.538022 -0.323255 -0.581269 -0.313641 0.442674 0.516603 -0.599635 -0.527792 0.397814 -0.277746 0.251837 -0.481046 0.33436 -0.366115 0.489219 -0.318661 0.466681 0.531096 -0.474391 0.202954 -0.588191 0.332098 0.594561 0.444536 0.532866 -0.563234 0.412376 0.453807 0.568299 0.216491 0.48638 -0.284759 -0.577067 0.201012 -0.260591 0.568523 -0.523523 -0.236608 -0.360511 0.31046 0.403426 0.278081 0.517974 0.562537 0.551809 0.343792 -0.31418 -0.591249 -0.444405 -0.542705 0.596227 0.553778 0.21185 0.437834 -0.471529 -0.465738 0.221988 -0.290756 0.475706 0.426236 0.232321 0.265703 -0.398579 0.437747 -0.249213 0.54798 -0.291681 0.56519 -0.492143 -0.475891 -0.351319 0.438626 -0.285447 -0.31327 0.582675 -0.388666 -0.509534 0.361496 0.511321 -0.351097 0.379696 0.205974 -0.200834 -0.574907 -0.374189 0.25665 0.592426 -0.298816 0.424658 -0.239024 -0.351592 -0.422328 -0.28206 0.369239 0.583067 -0.553914 -0.219412 0.23414 0.531052 0.513224 -0.459844 -0.230749 0.46515 -0.530142 0.541651 -0.49714 -0.396857 -0.354369 0.303292 0.472297 0.443944 -0.449123 0.386099 0.483603 -0.492309 0.422392 0.366701 0.204422 0.582707 0.321659 0.50373 0.2176 0.338268 -0.579503 -0.295578 0.52792 0.278011 -0.402878 0.260305 0.581261 0.483308 0.304766 0.256795 -0.281861 0.243752 0.563859 -0.422321 -0.248069 0.353429 -0.402149 -0.479373 -0.388529 -0.507112 -0.421494 -0.277889 -0.520031 0.206408 0.211207 0.333986 0.302704 -0.496589 -0.32522 -0.248022 -0.279498 0.400861 0.250458 -0.211717 0.237617 -0.430395 0.486247 0.261866 0.469481 -0.431076 0.331476 0.573757 0.3428 -0.500742 -0.589255 -0.241309 -0.350214 0.550402 0.522403 -0.239659 0.480948 -0.419132 -0.378338 0.573473 0.549271 0.528507 -0.369611 -0.514927 -0.37261 -0.380431 0.364433 0.430619 -0.263909 0.315319 0.343139 -0.546332 0.225032 -0.391282 0.246461 -0.451188 -0.569305 0.27648 0.281959 0.251327 -0.407077 0.216434 0.253498 0.486157 -0.228074 -0.303719 0.356454 0.3953 -0.415515 0.584856 -0.351337 -0.457709 -0.215739 -0.459558 -0.525597 0.552267 -0.342643 0.304183 -0.415754 0.513549 -0.591816 0.215041 0.267319 0.529757 0.396922 0.344811 0.350656 0.268902 0.536709 -0.464094 -0.439344 0.594979 0.385062 -0.378129 0.289503 0.444644 -0.308945 0.42959 -0.270026 0.259099 -0.273959 -0.415208 -0.406429 0.59101 -0.412569 -0.205443 -0.271465 -0.2339 -0.299584 -0.457344 -0.503707 0.470405 0.561673 0.388917 0.459341 -0.498647 -0.251924 0.357915 0.597964 0.20149 -0.20403 0.462445 -0.207354 0.532022 -0.308375 -0.496024 0.491354 0.224734 -0.466424 -0.484727 -0.261665 -0.259065 -0.497229 0.571943 0.565906 0.305726 -0.580366 0.24543 -0.464517 -0.294658 -0.366818 0.584973 -0.357111 0.5112 -0.423357 0.3493 0.579301 0.598613 0.225345 0.371724 -0.543988 0.561185 -0.445621 -0.512075 0.584068 0.28303 -0.597415 -0.409059 -0.27771 -0.37806 -0.516187 0.38609 0.335725 0.372019 0.355258 -0.352319 0.421192 0.223601 0.32012 0.376951 0.542408 0.455074 -0.527983 -0.294348 -0.384392 0.506761 -0.399768 -0.596067 0.477553 0.296562 -0.311828 -0.332057 -0.562386 -0.599833 -0.291333 -0.386694 -0.236764 0.573563 -0.305902 -0.570441 0.540318 0.590873 0.570052 -0.275579 0.355026 -0.480416 0.221022 0.399874 0.368131 0.265913 0.576491 0.493204 0.494376 -0.578002 -0.534676 -0.490572 0.425644 -0.215081 0.468385 0.243301 -0.462801 -0.490265 0.53619 -0.46723 0.489846 -0.563783 0.385751 -0.479593 -0.323753 0.280405 -0.406038 0.533425 -0.452422 -0.427379 -0.239166 0.344217 -0.394397 0.385791 0.324621 0.434907 -0.586165 0.480805 -0.255677 0.452043 -0.217993 0.43786 -0.503425 -0.455714 0.31979 0.476653 0.553772 0.260924 -0.255352 -0.478755 -0.499736 -0.39444 0.512352 0.257816 0.435643 0.347459 -0.442308 0.277667 -0.356603 -0.50158 0.216473 0.23535 0.399104 -0.318414 0.542989 0.234429 -0.310831 0.328625 0.504115 0.591212 -0.2963 0.593394 -0.32399 -0.284341 -0.204442 -0.356986 -0.364155 -0.59116 0.48861 -0.417715 0.306744 -0.274323 -0.281013 0.440758 0.589389 0.324886 -0.570642 -0.224296 0.389341 -0.575224 0.294559 -0.414698 -0.524546 0.421972 0.515433 0.244755 -0.491831 -0.439752 -0.522026 -0.557971 -0.512481 0.597103 0.401136 0.577754 0.330037 0.38426 0.285188 0.283309 -0.404816 -0.42289 0.544969 -0.342426 -0.586723 0.409642 -0.262689 -0.420164 -0.45047 -0.458293 0.438666 -0.242084 -0.389024 -0.393298 0.425302 -0.483947 0.381888 0.350368 -0.574483 -0.563656 -0.474973 0.469956 -0.540911 0.512832 0.507386 -0.442988 -0.207171 -0.314755 -0.311416 0.270408 0.384659 0.566837 -0.261193 0.293404 -0.209999 -0.596883 -0.430358 0.422634 -0.556958 -0.562651 0.50659 0.210397 0.29071 0.309956 0.233204 0.338844 -0.33472 0.384411 0.422885 -0.431589 0.534875 -0.317857 -0.29531 0.536502 -0.275957 0.516613 -0.304791 0.496308 0.252162 0.597627 -0.386629 -0.50323 0.442152 -0.317262 0.565456 -0.497922 0.377323 0.265564 -0.556269 0.524902 0.501219 0.214773 0.368525 0.401512 -0.517346 0.506054 0.53561 0.225324 -0.496925 0.442798 -0.291437 0.362712 -0.356498 -0.341394 -0.430342 -0.344993 -0.507811 -0.33757 0.270847 0.497024 0.338221 -0.292168 0.212361 -0.451592 -0.460077 -0.371666 -0.43511 0.420275 0.362654 -0.304375 0.227964 -0.324556 -0.209134 0.212113 -0.401208 0.268175 -0.312214 0.213259 -0.477834 -0.233861 0.559241 0.289426 0.339905 0.385958 -0.471369 0.495555 -0.339701 0.435109 -0.482236 0.428817 0.356359 0.222873 0.257335 -0.593148 -0.500983 -0.273081 0.432535 -0.254575 0.272207 0.475 0.330866 -0.44291 0.390665 0.219403 0.525241 0.356345 0.345212 0.550173 -0.415351 -0.337715 -0.570329 -0.576559 0.573303 0.375305 0.471667 -0.589087 -0.420859 0.4731 0.510016 0.284425 0.340723 -0.516858 0.219989 -0.288481 0.410351 0.551674 -0.236993 0.583544 0.559366 -0.255806 -0.409154 0.433565 -0.476889 -0.241537 0.599168 -0.222163 -0.566732 -0.225826 -0.406051 0.42206 0.540504 0.397082 0.301965 0.587793 0.539476 0.492363 0.288491 0.378643 -0.432593 0.352285 -0.546142 0.571652 0.313468 -0.499594 -0.311787 -0.535922 -0.495387 -0.229788 0.51363 0.258683 -0.261179 0.201735 -0.276974 0.315049 -0.200559 -0.341327 0.241782 -0.459575 -0.310459 -0.27477 -0.480822 0.474536 0.343695 -0.373561 0.521905 -0.51043 0.38329 -0.332753 -0.292543 0.369831 0.315137 -0.239803 -0.224138 0.512169 0.258546 0.556842 0.59763 -0.315577 -0.335702 0.398649 0.321383 0.240691 0.221243 -0.364938 -0.221247 0.406888 -0.445926 -0.493302 0.346068 0.204661 0.392408 -0.343982 0.39288 0.531362 -0.348698 0.586189 0.439089 -0.374755 0.400324 0.574118 0.474462 0.557954 0.227696 0.590452 0.256726 -0.578378 0.556615 -0.239172 -0.581919 -0.278078 0.300545 -0.200698 -0.291147 0.399966 0.315147 0.313042 -0.555089 -0.309997 -0.522251 -0.356549 0.295562 0.428112 -0.457286 0.401673 0.437818 0.569822 0.544018 0.477997 -0.345974 -0.526635 0.452046 0.450729 0.310672 0.389921 -0.261175 -0.211901 0.281397 0.408915 0.307296 -0.377888 0.49034 0.483478 0.31823 0.469522 0.439438 -0.325324 0.435834 0.49862 -0.53678 0.579431 0.235011 -0.354692 -0.431344 0.25509 0.574197 -0.483756 -0.580687 0.298894 -0.528709 -0.563121 -0.364574 -0.459632 0.264499 -0.546915 0.446794 -0.599233 0.517677 -0.598212 0.317533 -0.287662 0.48628 0.556267 -0.338651 -0.565885 -0.223577 -0.435507 -0.217451 -0.388559 0.453392 0.283228 -0.261819 -0.581991 0.436386 0.328517 0.233505 0.245649 0.387596 0.386753 0.257077 0.593607 0.281643 0.468805 -0.524254 -0.381042 -0.392838 0.477832 -0.546731 -0.434152 -0.440025 -0.337036 -0.378847 0.393315 -0.384601 0.492689 0.332705 0.522332 0.31541 0.513441 0.448502 -0.41731 0.558753 -0.495996 0.554964 -0.2886 0.292817 -0.268519 0.208321 -0.438106 0.441901 -0.2346 0.217092 -0.388953 0.34807 0.372166 -0.396877 0.23791 0.284618 -0.261113 0.264055 -0.43457 0.575349 -0.228535 -0.364922 0.376593 0.597437 0.581429 -0.368125 -0.347032 0.472776 -0.512766 0.508674 -0.425283 -0.484583 0.232873 0.236109 -0.305509 0.370531 -0.595129 -0.200686 -0.542277 -0.582915 0.212653 0.294089 -0.267235 0.278882 0.236518 0.530677 0.580848 0.348197 0.363897 0.481163 0.395765 -0.20345 0.587149 -0.562616 -0.202259 0.453132 0.296571 -0.374596 0.514087 -0.343806 0.441034 -0.412407 0.489743 -0.435603 0.34491 -0.523046 -0.368461 0.331569 0.530632 0.285035 -0.239716 0.547802 0.485389 0.500092 -0.575876 0.350082 -0.318381 -0.238792 0.523092 0.261763 -0.591161 -0.208677 0.511305 0.515231 0.434431 -0.374827 -0.538434 0.210433 -0.445027 -0.223299 0.554423 -0.237813 0.335869 0.280927 -0.551 -0.326963 0.327499 0.301782 0.475887 -0.48074 -0.217279 0.584465 0.378196 -0.379536 -0.505423 0.444125 -0.576217 0.53265 -0.558543 -0.371048 -0.356267 -0.451703 0.233652 0.52257 0.570498 -0.219857 -0.458876 0.54349 -0.59922 0.260295 -0.525862 0.364489 0.386358 -0.214165 -0.310715 0.254444 0.283224 0.350748 -0.459632 0.226414 -0.476627 0.417908 0.250593 -0.372576 0.484425 -0.554455 -0.33729 0.312366 0.416082 -0.26855 -0.511744 0.39378 -0.229141 -0.311844 -0.217846 -0.318904 -0.384529 0.229977 0.29821 0.484935 0.235423 -0.392922 -0.558334 -0.296362 -0.231819 -0.301214 0.487905 -0.538532 0.439523 -0.405819 0.388634 -0.351842 0.461534 -0.408285 0.584372 -0.542378 -0.53261 -0.392508 0.240588 0.265361 0.253781 0.21597 -0.26157 0.458731 0.204878 -0.358461 0.589272 -0.366674 -0.292123 0.41055 0.268179 -0.296291 0.488228 0.491734 0.37767 0.201222 0.323671 0.373137 -0.571694 -0.286333 0.296418 -0.370083 -0.355099 0.536497 -0.511716 0.523718 0.499974 -0.580685 0.508808 -0.317017 0.429513 0.517928 -0.335431 0.338424 -0.322933 0.283698 0.269552 -0.505042 -0.390538 -0.271873 0.588585 0.28215 -0.215599 -0.276762 0.535253 0.210885 0.512017 0.31795 -0.219879 -0.354574 0.281132 0.562164 -0.292053 -0.575335 -0.308745 -0.584845 0.242798 0.58589 0.32983 0.582805 0.45643 -0.429848 -0.522504 -0.415896 0.404172 -0.285195 -0.408743 0.235989 0.514565 -0.383386 -0.258531 -0.32064 -0.435226 0.359728 0.369182 0.230138 -0.336224 0.39406 -0.407785 -0.201111 -0.580427 -0.497262 0.333666 -0.289965 0.544574 0.271542 -0.241582 -0.304435 0.498712 0.441865 0.206696 -0.293506 0.331989 0.401648 0.497522 0.551731 0.489066 0.267117 0.382243 -0.270964 0.230433 -0.329921 0.534688 -0.548823 0.298519 0.501294 0.262691 0.448134 -0.482366 -0.334454 0.452541 -0.257836 0.535178 -0.36434 -0.482035 0.444238 -0.577809 -0.584482 0.408516 -0.345897 0.323994 0.212249 -0.241992 0.581365 0.510166 -0.304246 0.402005 -0.504315 0.487035 0.454605 0.503959 0.281537 -0.273002 0.394265 0.599325 -0.388552 0.587354 0.510004 -0.261185 -0.553704 -0.207188 -0.334058 0.420031 -0.546376 0.307028 -0.476135 -0.499824 -0.492756 0.223691 0.454344 0.227184 -0.346335 0.443698 -0.243883 0.547707 0.476234 0.255536 -0.364088 0.248666 -0.582632 0.511445 -0.366681 0.416439 0.384095 0.346458 -0.463145 -0.281335 -0.388179 -0.265818 0.429916 0.429648 -0.56842 -0.316443 -0.360751 0.442971 0.520803 0.202151 0.565686 -0.34692 -0.258719 -0.38822 0.267019 0.531344 -0.394588 0.287259 -0.210688 -0.330654 -0.402092 0.311615 0.212206 0.306227 -0.309003 -0.220492 -0.526966 0.424469 0.260791 -0.507549 0.482244 0.583008 0.436056 -0.301337 0.587175 0.425851 -0.279088 -0.352111 -0.492052 0.224303 0.566715 0.275744 -0.412208 0.479366 0.512903 0.200809 0.225809 -0.47198 0.254085 -0.308609 -0.405307 0.430527 0.471927 0.57569 -0.440975 0.365034 -0.244788 0.301371 -0.340991 -0.329996 -0.367653 -0.449041 -0.314623 -0.255327 -0.294337 0.409968 0.298397 -0.38404 -0.223133 -0.334303 0.359724 -0.271798 -0.340115 -0.261509 -0.353907 0.535 0.52231 -0.315022 0.505062 -0.40564 0.534286 0.499044 -0.256103 0.203006 -0.442815 -0.543344 0.236645 -0.40705 -0.388312 -0.257866 -0.260064 0.463778 -0.376908 0.219307 -0.349149 -0.281369 -0.440554 0.316117 -0.263496 -0.575892 0.456431 0.508849 0.534379 -0.269837 -0.584459 -0.264909 0.32057 -0.226897 0.507487 -0.579447 0.47115 0.34007 0.241228 0.20836 -0.575309 0.211035 0.503489 0.324817 -0.235783 -0.560559 0.522358 0.264764 -0.554155 0.540405 0.337864 0.518278 0.580668 0.320717 -0.514534 0.32662 -0.31333 0.321583 -0.257538 0.454687 -0.241055 0.313563 0.440713 -0.206341 -0.469988 -0.256511 -0.466598 -0.216865 -0.233137 -0.469162 -0.466659 -0.437513 -0.333436 -0.596807 -0.405498 -0.484295 -0.266739 0.409966 -0.376185 0.302321 -0.363053 -0.254025 -0.333621 -0.476916 0.408472 -0.314428 0.341859 -0.255119 -0.511038 0.266269 -0.503421 0.563089 -0.548422 -0.477612 0.589361 -0.370781 0.338765 -0.382064 -0.495696 0.239144 -0.405059 0.379298 -0.305514 -0.422213 -0.486344 0.333088 0.439046 -0.359925 0.469231 0.512076 -0.21747 0.211006 -0.507663 0.228622 0.452051 -0.507526 0.421339 0.204028 0.521241 0.543405 0.314723 -0.59735 -0.37267 0.341238 -0.394812 0.500493 -0.336172 -0.568517 -0.30457 0.447193 -0.264906 0.213731 0.441543 -0.413098 0.444001 -0.570369 -0.432997 0.512493 -0.324994 0.247567 -0.307046 0.332087 0.45956 -0.487053 0.297744 -0.520751 0.488966 -0.248896 -0.552241 0.493292 -0.218497 0.354966 0.43138 -0.45716 -0.321191 0.476179 0.452788 0.271455 -0.30887 -0.276478 -0.292754 -0.569265 0.531711 0.312228 0.480154 -0.280194 0.469182 -0.350145 0.50262 0.256936 -0.512033 -0.452048 -0.541381 0.47717 -0.482012 0.456865 0.550876 -0.556486 -0.44429 0.366539 0.274235 0.223096 0.281894 -0.24398 0.380547 -0.208325 0.23403 -0.457402 0.383876 -0.225661 -0.28822 0.240654 0.308657 -0.521684 -0.265855 0.277392 0.534957 0.283508 0.47373 -0.201364 -0.428403 0.346858 -0.470062 0.437844 0.338832 -0.319826 -0.346032 0.466149 -0.357621 -0.407636 -0.476055 -0.563566 0.585517 -0.427862 0.374562 -0.513523 -0.438916 -0.465399 0.264641 0.362915 -0.566749 0.230526 -0.243222 -0.56747 0.284507 0.224318 0.260135 0.371574 -0.234959 -0.504898 -0.428663 -0.412486 -0.478802 0.376556 -0.381128 0.346918 0.422213 0.460657 0.274118 -0.266276 -0.203234 -0.319187 0.278479 -0.30902 0.490196 -0.522958 -0.432339 0.386438 0.413328 0.254585 -0.502465 -0.342332 0.578947 0.590112 0.431117 -0.41169 0.346983 -0.497719 -0.421637 0.538898 -0.220658 -0.430693 0.5973 0.564138 0.580124 -0.405084 0.420227 0.207267 -0.550406 -0.452238 -0.253766 0.215874 -0.594805 -0.22621 0.520332 0.528277 0.426964 -0.393987 0.376101 -0.234892 0.376849 -0.238814 0.387393 -0.396249 -0.243459 0.519322 -0.312416 -0.497975 -0.448788 0.523664 -0.489293 -0.310111 -0.210911 -0.540521 0.262223 0.543236 -0.415388 0.436148 -0.228131 -0.34058 0.280885 -0.368815 -0.595097 -0.500523 0.590975 -0.213006 0.276128 0.596525 -0.227215 -0.47405 0.512458 0.52851 0.399336 0.330627 0.397055 0.499057 -0.531109 -0.271242 -0.334662 0.370092 -0.395951 0.205904 0.506216 -0.559117 -0.539474 -0.222868 0.250453 0.579778 0.316035 0.277255 -0.581613 0.391031 0.244185 -0.438929 -0.434037 0.504484 0.392119 0.502067 0.512817 0.231765 -0.294351 0.304223 0.20601 0.594592 0.394407 0.235136 -0.24816 0.288743 -0.288438 -0.471192 0.536692 -0.552463 0.286064 0.427146 0.315714 0.451172 -0.513544 -0.554869 0.239398 0.2416 0.221309 0.209826 -0.502902 -0.361814 0.226239 -0.513816 -0.408682 0.291743 -0.320808 0.493627 -0.377801 -0.246587 -0.300195 -0.2109 0.550918 0.573398 0.329237 0.241697 0.281792 -0.22348 -0.436518 -0.270963 -0.403574 0.539946 -0.281596 0.360904 -0.578372 -0.550743 -0.408948 -0.418161 0.214144 -0.332093 -0.374783 0.37552 -0.577301 -0.564606 0.336295 -0.459019 0.398274 -0.464251 0.232537 0.339267 0.432648 -0.289477 0.251653 0.401462 0.299196 0.409178 0.307346 0.330553 0.383697 0.498466 -0.330727 -0.459862 -0.55645 -0.408872 0.349269 -0.599896 -0.238149 -0.223513 0.59701 -0.355599 0.358531 0.570185 0.549475 0.550524 -0.395897 -0.253164 -0.206476 -0.455626 0.23714 -0.551912 0.212637 -0.368326 -0.241181 0.340588 -0.216814 0.334398 0.460964 0.241221 -0.405322 0.54361 0.440735 -0.527844 0.509801 0.410136 -0.447969 -0.333349 0.313857 0.511391 -0.293513 -0.39323 -0.548165 0.485671 -0.232212 0.219567 0.518637 -0.438754 0.559952 -0.206584 -0.55007 -0.416693 -0.578769 -0.258644 0.451717 -0.447664 -0.222013 0.255557 -0.568523 -0.379308 0.468121 -0.43827 0.362052 0.546131 0.443623 -0.591756 -0.369435 -0.59173 0.358491 0.44083 -0.220409 0.555437 -0.329389 0.212601 0.552223 -0.298647 0.590784 0.207102 0.21394 -0.47484 -0.505948 0.251255 0.275045 0.423588 0.29336 0.443743 0.352913 0.356191 0.410174 0.580213 0.560701 0.582741 -0.215776 -0.304322 0.543077 -0.48728 0.445758 -0.524409 -0.581521 0.354338 -0.412414 0.38865 -0.397261 -0.447628 -0.313633 0.369833 0.506702 0.22582 -0.342418 0.552195 -0.309304 -0.53452 -0.37801 -0.475864 -0.206925 -0.434413 -0.228284 0.384666 0.567904 0.43298 0.460136 0.355872 0.355387 -0.289316 -0.511834 -0.5833 -0.480986 -0.576199 -0.376748 0.418527 -0.482266 -0.203012 0.276004 -0.336095 -0.419971 -0.325445 -0.571888 0.446944 0.263009 -0.22508 -0.57777 0.59598 -0.526199 0.517752 0.424242 0.48662 -0.38922 -0.217057 0.277308 0.509131 0.322227 -0.577386 0.515894 -0.42139 0.36059 0.553746 -0.45485 0.597116 -0.521904 0.483996 -0.251147 -0.452654 -0.260247 0.30559 -0.222863 0.234835 -0.249297 0.439205 0.436551 -0.544094 -0.507065 -0.335501 -0.447566 -0.542964 0.247485 -0.515616 0.597576 -0.538998 -0.237981 0.395378 -0.259309 -0.405933 -0.442435 -0.273797 0.305733 -0.276127 0.515731 -0.374713 0.544245 -0.532767 0.544637 -0.290361 0.216653 0.200036 0.273947 0.315477 -0.225627 -0.441862 -0.566548 -0.547048 -0.53355 0.285078 -0.434804 -0.212579 0.577468 -0.37078 -0.393729 -0.464317 0.490501 -0.465015 -0.259767 0.297703 0.501902 -0.553456 0.455224 -0.540731 -0.52368 -0.238057 0.485601 -0.537534 0.595982 -0.385173 0.569455 -0.200093 -0.513844 0.424403 -0.445601 -0.259005 0.461672 0.215953 0.512966 0.505671 -0.582493 0.595131 -0.594364 0.331163 0.240979 0.380056 -0.565827 -0.470389 0.245258 0.453281 0.216898 -0.238361 -0.524748 -0.595466 -0.210998 0.27436 -0.444865 0.461585 0.202156 -0.429574 -0.509084 0.253568 0.38978 0.354581 -0.218749 0.325896 0.520148 0.514217 -0.418571 0.28261 -0.41082 0.42306 -0.426462 0.494915 0.277393 -0.471753 0.33412 -0.461387 0.449279 -0.358938 0.22383 -0.503675 0.24909 0.388875 0.327575 -0.29723 -0.228455 -0.594081 0.204934 0.283535 0.213484 0.268803 0.48061 0.271504 -0.546159 -0.597917 0.315275 0.513968 -0.319483 0.232027 0.574326 0.385452 0.249546 -0.457698 0.268528 -0.336806 -0.496521 0.429617 0.3358 -0.50702 0.331563 -0.251948 -0.406528 -0.211204 -0.268758 -0.373069 0.372487 -0.245865 0.338055 0.476512 0.444796 0.488595 0.418929 -0.518447 0.219333 -0.236688 -0.330404 -0.597734 -0.254551 0.462944 0.252168 0.366393 0.594535 0.246688 0.315821 0.539172 -0.536519 -0.301933 0.54598 -0.310177 -0.445848 -0.316208 -0.435501 -0.513185 0.322879 -0.213361 0.412143 -0.599702 0.592012 0.539268 -0.569591 0.26845 0.306208 -0.261558 0.390764 -0.2175 0.518599 0.212865 0.447651 0.244152 -0.30218 -0.345577 0.437268 0.321001 -0.39167 -0.537114 -0.538709 0.267371 -0.375947 0.297105 -0.500663 -0.203324 -0.448314 -0.573363 -0.542239 -0.266495 0.275028 -0.558742 0.557351 0.341576 0.340013 -0.510282 -0.284253 0.32364 0.306581 0.426912 -0.53535 0.426508 -0.446424 -0.479629 0.417385 0.433082 0.358196 0.40471 -0.471568 -0.464569 0.224975 0.290303 -0.352503 0.569428 -0.234688 0.466329 0.226575 -0.353703 0.492707 0.261662 0.579456 -0.202507 -0.286568 0.4532 0.353501 0.569717 -0.492619 0.487704 -0.473964 -0.504206 -0.253471 0.478689 -0.463373 -0.553046 0.265724 0.466173 -0.509452 0.382833 0.275896 0.554157 -0.353801 0.207873 -0.583895 0.291542 -0.352709 -0.36651 0.366284 -0.486226 -0.277591 -0.385736 -0.45398 0.388496 0.520589 0.359453 -0.207361 0.425882 -0.237484 -0.407582 0.329332 0.479237 -0.494872 -0.288221 -0.290946 -0.290812 0.413719 0.511852 0.528458 -0.431131 0.271676 0.445532 -0.304194 0.4402 0.505169 0.363057 0.546905 0.516542 -0.288041 -0.502933 0.57921 -0.547524 -0.470294 -0.460628 -0.559724 -0.247798 -0.282343 -0.310438 -0.564744 -0.528217 0.598419 -0.504414 -0.333569 0.387102 -0.425718 0.200597 -0.28378 0.597856 0.407497 -0.352825 0.550243 -0.398621 -0.293953 0.419124 -0.459696 -0.528609 0.438615 -0.403439 0.253978 -0.393793 0.280576 0.284625 -0.342511 -0.318428 0.540965 -0.317229 0.271876 -0.523794 0.42491 -0.424525 0.490259 0.542721 0.586157 -0.301057 -0.336701 -0.519832 -0.28924 -0.581632 0.286938 0.381759 0.571313 0.519111 -0.414839 -0.409017 0.585823 0.324355 0.386676 0.204956 -0.413235 -0.412968 -0.200862 0.367213 -0.337256 -0.521853 0.448905 0.452097 0.202602 -0.463406 0.214112 0.45719 -0.305965 0.476017 0.24862 0.265474 -0.586984 0.411792 -0.211241 -0.277949 -0.32785 -0.572691 -0.303415 0.396973 0.595994 0.523458 -0.332802 -0.210041 0.362193 0.331409 0.367029 -0.272669 0.275324 0.341861 -0.463466 -0.435061 -0.419612 0.568071 0.23254 -0.229045 -0.425423 -0.23864 -0.333151 -0.396993 -0.534738 -0.306157 0.325284 -0.455781 0.263286 0.487172 0.417452 0.518067 0.529985 -0.560092 -0.251181 -0.591059 -0.541639 0.434829 0.27838 -0.570133 -0.560223 -0.314885 0.455115 -0.486115 -0.568309 0.445152 -0.49552 0.422825 -0.249357 0.38803 -0.372053 0.577142 0.408788 0.388482 -0.443793 -0.500285 -0.434905 -0.489523 -0.585836 0.208421 0.548925 0.339905 -0.216792 -0.269949 0.345647 -0.366687 -0.237068 0.231392 -0.555801 -0.333023 0.578488 -0.20361 0.248477 -0.503413 0.268771 0.588458 0.365406 0.46214 0.291094 0.448347 0.390068 0.35444 -0.358864 0.272992 0.205705 -0.514258 -0.439322 0.397587 0.411001 -0.522113 -0.212833 0.497468 -0.238936 -0.560438 -0.291697 0.56677 -0.42382 0.308902 0.507042 0.297348 -0.587909 -0.496941 -0.529474 -0.315031 0.395527 -0.220247 -0.547716 0.586599 0.277323 0.316681 -0.355822 -0.250785 0.404661 0.562325 -0.54158 0.22445 0.27128 0.35672 0.215918 0.341229 0.508895 -0.219804 -0.279191 0.443263 0.55344 0.525533 0.243395 -0.288903 -0.336004 0.55976 0.310903 -0.207073 0.5056 0.382937 0.235543 0.332962 0.285642 0.401049 0.35917 0.521346 -0.204257 0.421872 0.423196 0.495709 -0.562004 -0.236784 0.439678 -0.455089 0.407648 -0.266796 0.562191 -0.387629 0.552525 -0.412665 0.232991 -0.424305 -0.580889 0.284901 0.556952 0.363285 -0.436079 0.591862 -0.443925 0.421035 -0.484977 0.494765 -0.28759 -0.495001 -0.271073 0.351811 -0.441676 -0.341312 0.222293 -0.226651 0.406823 0.4982 0.590005 -0.318659 0.337013 -0.485503 0.427525 -0.469157 -0.462661 -0.555231 -0.471823 0.237798 0.283158 0.536066 -0.205324 0.284694 0.352653 0.455049 -0.472956 -0.576587 0.513402 -0.231958 -0.242357 0.256042 0.265274 -0.438752 0.318314 0.250597 0.255661 0.506922 -0.549379 0.473132 -0.57451 -0.444689 0.30189 0.457435 0.283365 0.356218 0.39051 -0.23074 0.423532 0.39288 -0.346043 -0.343317 -0.43014 -0.462689 0.241855 0.481551 -0.464003 0.463832 0.547516 0.581184 0.210661 -0.356604 -0.549661 -0.256954 -0.256837 -0.315038 -0.293312 -0.204584 0.508595 -0.302971 0.203094 0.566816 0.310763 -0.43299 -0.551915 -0.28916 0.551575 0.363747 0.233108 0.274428 0.270534 0.492825 0.247821 0.287298 0.364682 0.506866 0.374792 0.234873 0.304329 -0.543833 0.282036 -0.21882 0.478757 -0.534847 0.203267 -0.201811 -0.39874 -0.437648 -0.392045 -0.402976 0.315215 0.324504 0.583523 -0.375561 -0.22724 0.344097 -0.352387 0.342887 0.545484 -0.54301 -0.287008 0.222553 -0.439458 -0.332309 -0.385146 0.588231 -0.245127 0.390367 0.472111 0.316503 -0.285321 0.208627 -0.223516 0.468852 0.429249 -0.517751 -0.356684 -0.402005 -0.400504 0.227645 0.4696 -0.486011 0.32861 -0.543378 0.242306 -0.500072 0.52048 -0.565335 0.260213 -0.512996 -0.24605 -0.405719 0.371052 0.398876 0.542039 -0.557206 -0.442397 0.326366 0.519596 0.571728 -0.329624 -0.289529 0.380499 0.5941 -0.489051 -0.330174 0.337844 -0.337835 -0.543617 0.480452 -0.363232 0.297294 -0.280876 0.576636 -0.493403 0.562373 -0.420164 -0.273131 -0.306766 -0.441374 0.574328 0.530918 -0.50744 0.221067 -0.205464 -0.336712 0.339177 -0.374326 -0.257666 -0.420524 0.299326 0.574097 -0.4348 0.520151 0.31446 -0.537382 0.333073 -0.400959 -0.537053 -0.491571 0.323546 -0.311214 0.462289 0.282775 -0.236502 -0.471025 0.286197 -0.255317 0.492351 0.462562 0.336994 0.295599 -0.268244 0.51058 -0.318585 0.547815 0.430434 0.304853 -0.54457 -0.212679 -0.290928 -0.316899 -0.328826 -0.298122 0.347684 -0.227989 0.360629 -0.354745 -0.220146 -0.434171 0.467476 0.580862 -0.441016 0.390633 0.473344 0.366657 -0.287015 -0.341397 -0.255773 -0.437019 -0.400205 0.288135 -0.588596 -0.389707 0.508204 0.347474 0.405864 0.473589 -0.414051 -0.432465 -0.467533 -0.251667 0.482679 0.37039 0.232584 -0.341908 -0.472417 0.393623 -0.272922 -0.469755 0.207209 -0.356805 0.345565 0.459953 -0.294616 0.247011 0.291541 0.516697 -0.491743 0.512671 -0.294496 0.357116 -0.484622 0.427926 0.53407 -0.538669 -0.31491 -0.354352 -0.325868 0.420091 -0.306724 0.382632 0.565781 0.372485 0.386416 -0.381851 -0.339736 -0.447825 -0.489707 0.581901 -0.373433 0.365055 -0.216043 0.348818 0.533713 0.562395 0.436012 -0.438703 0.444355 0.259317 -0.296344 -0.511683 0.380135 -0.460437 -0.435259 0.493619 0.362908 0.497035 -0.578082 -0.520862 -0.214762 -0.552232 -0.228283 0.252567 -0.402123 -0.50341 0.553052 -0.334547 0.574599 -0.403029 0.437322 -0.418549 0.355322 0.379181 -0.361437 0.245199 -0.5833 0.226974 0.388366 0.484222 -0.391425 0.488957 0.202723 0.477664 -0.218488 0.387181 -0.37734 0.45604 0.321314 0.266066 -0.335264 -0.25895 -0.308696 -0.330147 0.365465 -0.487551 0.402 0.301368 0.400011 -0.382046 0.259724 -0.274309 -0.574957 -0.369726 -0.565569 -0.579023 -0.547057 -0.419396 0.323897 0.552815 -0.563911 -0.446253 0.216874 0.570634 0.526652 0.235385 0.321907 -0.42344 0.240042 -0.393136 0.428958 -0.306444 -0.410131 -0.431767 0.475384 -0.423391 -0.224948 -0.205206 -0.217265 0.458708 0.328521 -0.530292 -0.203786 0.547292 0.346898 0.249441 -0.512587 0.351871 0.281726 -0.256747 -0.36822 0.396404 0.549781 -0.434991 0.377451 -0.510962 -0.587791 0.3564 0.594987 -0.235407 -0.444121 0.317741 -0.440732 -0.479426 0.45325 -0.479567 -0.41631 -0.414639 0.477582 0.333137 0.343329 0.561005 0.485354 0.322698 -0.421097 0.222225 -0.442952 0.421926 0.209577 -0.206142 0.237524 0.484297 0.56168 0.219926 0.348565 -0.494296 -0.397163 -0.223014 -0.572706 0.562859 -0.503817 -0.459021 0.32505 -0.430452 -0.382298 0.597454 0.322303 -0.273657 0.580687 -0.523246 -0.446646 -0.221146 -0.272842 -0.326328 0.389873 0.439351 0.27427 0.440458 -0.379318 0.533947 -0.507504 0.381439 -0.413152 -0.313791 -0.548679 0.523091 0.454579 -0.439135 0.588397 -0.572969 0.254649 -0.471959 -0.510692 -0.528239 0.383327 -0.251626 0.393587 0.320638 -0.28816 -0.400577 0.471466 0.432164 -0.267905 -0.253466 0.236762 -0.434571 0.438755 -0.420329 0.418946 0.439457 -0.210754 -0.293104 -0.324148 0.41108 -0.248171 0.449148 -0.335325 0.245682 -0.352611 -0.459531 0.325583 0.480783 0.400633 -0.313785 -0.449681 -0.221852 0.444326 0.264777 0.528698 0.380782 0.487515 -0.496506 -0.311242 -0.42607 0.241335 0.253226 0.379704 0.331256 -0.235122 -0.599916 0.398284 0.345239 0.336724 -0.211083 -0.285873 0.242291 0.421795 0.596228 0.480983 0.396889 -0.507899 -0.289236 0.384124 0.26794 -0.265533 -0.304049 0.289623 -0.506426 0.259303 -0.491769 0.309375 -0.318563 0.472856 0.464206 -0.537089 0.276157 0.511211 0.53259 -0.585884 -0.51458 0.268386 0.515234 -0.467916 -0.584356 0.339169 0.272395 -0.410185 -0.379714 -0.505749 -0.43688 -0.305016 0.287825 -0.27843 -0.311561 -0.220946 0.315731 0.244769 -0.44734 0.452625 0.439904 0.307822 -0.440339 -0.303257 0.201048 0.263973 0.451844 -0.350965 -0.385216 0.560085 0.493709 -0.522918 0.270363 -0.240406 0.480373 0.3494 -0.484825 0.232576 0.375229 0.345216 0.34484 0.214204 0.578178 0.536354 -0.594563 -0.260171 0.47747 0.497713 0.550776 -0.465536 0.431149 0.551426 0.472158 0.441138 0.319836 0.423662 -0.395543 -0.46136 0.203034 -0.537116 0.294154 -0.485869 -0.580376 0.519457 0.3217 0.362302 0.399929 -0.268824 -0.29773 0.319473 0.496315 -0.282242 0.381002 -0.46558 0.341317 0.381633 -0.399983 -0.407095 0.451085 -0.311512 0.511545 0.525635 0.587541 0.383561 -0.504419 0.502838 0.44617 -0.492593 0.528683 -0.411208 -0.560868 0.50547 0.260344 0.54121 -0.439116 0.484214 -0.526535 -0.462136 -0.404307 0.599348 -0.548732 -0.50946 -0.487266 -0.422075 -0.560226 -0.485948 -0.226124 0.281945 0.503982 -0.597897 -0.275876 -0.49376 -0.291959 -0.516487 -0.401593 0.204992 -0.41802 -0.545228 -0.316505 0.521234 -0.400585 0.597825 0.5986 0.513177 0.302924 -0.24568 -0.393185 0.381211 -0.295336 0.38141 -0.213533 -0.247254 -0.300853 0.536839 0.359784 -0.49409 0.265256 0.387078 0.571685 0.566437 -0.21133 0.45341 -0.551558 -0.289659 -0.332319 -0.543823 -0.25747 -0.577404 0.583558 -0.575681 0.372317 -0.30371 -0.361686 -0.501429 -0.591044 0.40798 -0.479984 0.406888 -0.29601 -0.478436 -0.367615 -0.57418 -0.413335 -0.583408 0.465828 -0.540235 0.42886 0.475718 -0.534733 -0.323916 -0.245013 0.528151 0.593285 -0.356539 0.231586 0.517623 0.457234 -0.224286 -0.443387 -0.467462 -0.566783 -0.34736 0.451642 -0.386189 -0.400225 -0.312152 0.442001 -0.370234 -0.375342 0.524581 0.561748 0.206129 -0.334008 0.48955 -0.238109 0.28661 -0.56471 0.400535 -0.457048 0.202727 0.496828 -0.50251 0.355182 -0.574116 0.599517 -0.337452 -0.340902 -0.380246 0.373995 -0.452305 -0.42681 0.416996 0.372885 -0.207872 0.204254 -0.287206 0.325479 -0.239911 -0.262461 0.411186 0.512724 0.223243 -0.292217 0.528536 0.473286 -0.278317 0.319756 0.491615 0.512844 -0.522574 -0.510086 -0.41818 0.599496 0.516227 -0.472119 -0.323936 0.276049 0.438469 0.550668 0.23448 0.547846 0.524051 0.20811 -0.560243 -0.315153 -0.438052 0.492598 0.260805 0.514324 0.554052 -0.304444 0.571285 0.425166 0.548761 0.576758 -0.599789 -0.296037 -0.592206 0.339506 -0.225101 -0.435267 0.479899 0.519385 0.219959 -0.517736 -0.220152 0.251998 0.402675 -0.40119 -0.252999 0.334676 0.302552 0.576628 0.53486 -0.247206 0.570793 0.423113 0.210338 0.391396 -0.576208 -0.204308 -0.331313 -0.587796 -0.533469 0.285423 0.566934 -0.239256 -0.250811 -0.364243 -0.332017 -0.545631 -0.293922 -0.553503 -0.511243 -0.334557 0.454032 -0.48381 -0.39517 0.519333 -0.260591 0.315107 -0.424855 -0.29701 0.370246 0.461338 -0.272702 -0.205074 0.575714 -0.470885 -0.303477 -0.374408 -0.344306 0.542854 -0.529823 0.268115 -0.466944 0.21794 0.537585 0.567467 0.576203 -0.210095 0.235774 -0.41553 -0.573747 0.498445 -0.291856 -0.234732 0.33107 -0.375638 0.439774 0.251308 0.226975 0.398519 -0.384198 0.272391 -0.59479 -0.409307 -0.297655 -0.242051 -0.311251 -0.348625 -0.213348 0.23927 0.360944 -0.405312 -0.25866 0.307437 0.525868 0.250194 -0.271941 -0.470468 -0.40507 -0.297295 0.304612 0.574126 0.279843 -0.218971 0.506108 -0.43761 -0.473148 -0.26777 0.499542 0.217442 0.281163 0.535477 -0.39022 -0.419835 -0.48572 -0.498014 0.256477 -0.406195 -0.594892 -0.429511 0.483407 0.568052 -0.310042 0.288362 -0.411029 -0.434995 -0.373439 0.245296 0.576417 0.558948 -0.382261 -0.452469 -0.329103 -0.575058 0.483831 0.224994 0.471688 -0.523792 0.228868 0.591314 0.317958 -0.332089 -0.596781 -0.455055 -0.242515 -0.435335 -0.270967 -0.263514 0.346469 -0.524064 0.44314 0.397538 0.542105 0.296559 0.333484 0.41087 0.514182 -0.342838 0.320343 0.484161 0.411897 0.587635 0.4073 0.282934 -0.289721 -0.584069 -0.556057 0.24769 0.502937 0.469134 0.432123 -0.487862 0.222963 -0.257268 -0.228594 0.506165 0.260925 -0.323355 0.544949 -0.421994 -0.413287 -0.567532 0.58767 0.267505 -0.359471 -0.527027 -0.216643 0.337899 0.445589 0.382913 0.336596 -0.314673 0.582878 -0.265745 -0.244317 0.562498 -0.293802 0.226946 0.545252 -0.572078 -0.23109 0.296317 0.313993 -0.28734 0.229383 -0.433764 -0.559332 0.563499 0.386465 0.470038 0.516983 -0.288385 -0.362566 0.292257 -0.409782 0.412542 0.56344 0.488605 0.343076 0.237015 -0.446199 -0.538437 0.419216 -0.347741 -0.531179 -0.436463 0.450315 0.458947 -0.240179 -0.3207 -0.215539 -0.290833 0.442101 0.256412 -0.555384 -0.357635 -0.564207 0.207114 0.598007 0.389105 0.372634 0.377348 -0.550416 0.23583 0.587498 -0.440556 0.289772 -0.582016 -0.510828 -0.51705 -0.331856 0.267796 -0.370758 -0.479487 -0.429766 0.297951 -0.29416 0.225349 0.511592 -0.235171 -0.417709 -0.502128 0.407118 0.439355 -0.522573 -0.584159 0.431091 0.350493 -0.326866 0.370613 -0.298572 -0.559032 0.343862 0.437309 -0.24556 0.554545 0.348208 0.370751 -0.340817 0.273272 0.36651 0.31782 0.309386 0.59945 -0.498293 -0.392883 -0.238627 0.389598 0.336295 0.437943 -0.499387 0.245124 -0.249161 0.20292 -0.42598 0.453369 0.333622 0.590091 0.439501 0.279259 0.359604 0.334659 0.224056 -0.58072 0.551164 -0.542206 -0.211152 -0.498145 0.403205 0.450291 0.577258 0.221675 0.274849 0.553888 0.201308 -0.252144 0.50529 -0.559143 0.31106 -0.289697 -0.358527 -0.512774 0.219234 0.429992 0.311985 -0.451624 0.383943 0.400122 0.485066 0.373142 -0.387158 0.247286 -0.212088 -0.221794 -0.546293 -0.385372 -0.343394 0.474499 0.509065 -0.585068 0.384774 0.310292 0.309991 0.427509 -0.264426 -0.481431 -0.425936 -0.544031 -0.535146 -0.561173 -0.277316 0.586259 0.444691 0.583339 0.565249 -0.374806 0.405098 0.31874 0.395514 -0.510146 0.546899 -0.311523 -0.320294 -0.210859 0.221379 -0.536879 0.318576 -0.519404 0.383896 0.317023 -0.471149 -0.499167 -0.376928 0.591336 0.564155 0.432381 -0.29306 -0.283889 -0.599457 0.468794 0.26678 -0.31953 -0.328811 0.348623 0.541677 -0.261852 0.357476 -0.489073 0.578925 0.506846 -0.381892 0.454134 -0.283131 0.288306 -0.232771 -0.303424 -0.362774 -0.484907 -0.461888 -0.404292 -0.499177 -0.21639 0.427162 0.591058 0.385872 0.349168 0.237132 -0.442716 -0.541326 -0.40285 -0.488123 -0.273649 0.329227 -0.542481 -0.592086 -0.394679 0.212917 0.547918 0.316532 0.246167 -0.43688 -0.470167 0.398638 -0.594274 -0.243905 -0.314061 -0.303397 0.582924 0.346266 -0.423738 0.272179 -0.229616 0.429486 0.525175 0.516509 -0.448421 0.366677 0.227402 0.431472 -0.305279 0.418799 -0.407405 0.20705 -0.35482 0.315735 -0.491667 0.596976 -0.473009 0.498817 0.372479 -0.369527 -0.568716 0.339488 -0.501519 -0.217793 0.446338 0.426137 0.358788 0.444073 0.586502 -0.492167 0.347722 0.399452 -0.315604 -0.418915 0.513595 0.508982 0.524646 0.478428 -0.219431 0.432962 0.332813 0.519512 -0.492286 0.405209 0.323392 -0.356958 -0.586519 0.491845 -0.254679 -0.590205 -0.299202 0.450585 -0.547658 -0.450012 0.225233 -0.432858 -0.342074 0.249646 -0.515954 0.513149 0.552232 -0.510459 -0.226516 -0.240873 0.513064 0.249469 -0.530265 0.236114 0.229066 -0.445012 0.569101 -0.412345 -0.430239 -0.345536 0.316847 -0.385538 0.32879 0.20783 -0.498302 0.436501 -0.279781 0.423633 0.386024 -0.487969 0.345874 0.469389 -0.410851 -0.426151 -0.543726 -0.387283 -0.23037 0.329652 -0.268819 0.514467 0.386184 -0.378487 0.236939 0.476011 0.461868 0.238053 -0.496961 -0.322717 0.589177 -0.348901 -0.520554 -0.593475 0.509005 -0.310085 0.460608 0.544945 -0.375521 -0.512757 -0.325552 -0.235422 0.552747 0.595161 -0.580918 0.557519 -0.266746 0.502996 -0.242604 -0.538225 -0.219597 0.529432 -0.272862 -0.526997 0.597808 -0.260842 0.228521 -0.31078 -0.36974 0.430974 0.42382 0.320752 0.494913 -0.477866 0.520219 0.489125 -0.464401 0.420021 0.292933 0.385647 -0.586771 -0.414101 -0.542753 0.596559 0.230823 -0.463151 -0.216026 0.345209 0.20765 0.448456 0.439167 -0.467685 0.556136 0.240832 0.434724 -0.33981 0.272968 -0.436787 -0.478793 0.328215 -0.26088 -0.36426 0.575268 -0.587846 -0.532545 0.510788 -0.573881 -0.475281 0.466179 -0.579086 -0.342593 0.522399 -0.272808 -0.431282 0.592533 -0.461217 0.550862 0.330319 -0.534946 -0.509048 0.554466 0.239204 -0.598309 0.458365 0.430599 0.565391 -0.556347 -0.388752 -0.246977 -0.580756 -0.57953 0.292923 -0.46745 -0.456522 0.541407 -0.269888 0.585405 0.42422 0.223577 0.448202 -0.520036 -0.427367 0.301384 0.505538 0.236153 0.38787 0.328268 0.546075 0.304035 0.398114 0.568166 -0.541314 0.577094 -0.537286 -0.448118 0.454847 0.599081 0.244537 0.298334 0.448825 0.43637 0.35017 0.517488 -0.560355 0.498842 0.266964 0.226472 -0.42058 0.373812 0.204236 -0.543354 -0.390084 0.541298 0.2429 -0.384697 0.374118 0.52842 -0.585705 -0.220534 0.467431 0.30453 0.386385 0.542672 -0.334567 -0.364831 -0.338414 0.597887 -0.250621 -0.36312 0.578816 -0.585246 0.568885 -0.277223 -0.359574 -0.500651 0.217133 -0.561399 0.336182 0.410482 0.220555 0.209553 -0.283499 0.287466 -0.546625 -0.427641 -0.398403 0.278375 -0.326553 -0.321878 0.453354 -0.513131 0.227709 -0.274004 0.378602 0.234641 -0.459799 -0.558125 -0.251635 -0.277418 -0.496177 -0.523701 0.317945 0.461868 0.357674 -0.330624 0.206274 -0.481515 -0.518286 0.397874 -0.440005 0.496044 -0.47671 -0.243103 -0.49976 0.526605 -0.22558 -0.490518 0.452382 -0.588023 0.336132 0.221084 -0.362403 0.376389 -0.458119 -0.377578 0.406778 -0.397929 -0.527791 0.211832 -0.561553 -0.223489 0.388742 -0.330658 -0.266394 0.25118 -0.437329 0.544932 0.574864 0.280422 -0.295583 -0.531107 -0.531621 -0.585849 -0.570068 -0.286963 -0.536117 0.518754 0.22446 0.365984 0.368093 -0.49338 0.489428 -0.205155 -0.559633 0.297276 0.543576 0.557578 0.357419 -0.334609 0.541107 -0.259108 -0.532026 0.202084 0.227274 -0.24734 -0.585232 -0.40079 -0.379033 0.338953 -0.491521 -0.393882 0.464612 0.310294 -0.294887 -0.349519 -0.266476 0.513219 -0.386489 0.554988 0.283371 0.209131 -0.543048 -0.543263 0.215865 0.460747 0.518444 -0.342482 0.40609 0.405087 0.29768 -0.536971 -0.363232 0.362658 -0.365493 -0.363484 -0.319974 0.517467 -0.582535 0.385103 -0.542945 0.505786 -0.30048 -0.244444 -0.501045 0.407546 0.404136 0.362881 -0.594707 -0.517089 -0.243185 -0.209064 0.453188 -0.426181 0.387261 0.434123 0.257135 0.591594 0.388178 0.264185 0.485568 0.287947 -0.216248 -0.257072 0.376368 -0.371155 -0.254734 0.582712 -0.306751 0.343646 0.420178 -0.224217 0.317679 0.234927 -0.251849 -0.595079 0.570843 0.227122 -0.533855 -0.598046 0.258355 -0.529776 -0.549421 0.221012 0.321381 -0.550184 0.342427 -0.418871 0.590213 0.365962 -0.552911 0.57948 0.444067 0.510845 0.290795 0.488144 0.278092 0.46224 0.330407 -0.283686 -0.247911 -0.393347 0.208271 -0.250445 0.466017 -0.240546 0.577448 0.342681 -0.226627 -0.599436 0.562417 -0.466574 -0.305499 0.268022 0.212067 0.287694 -0.385578 0.450316 -0.493259 -0.392333 0.317168 -0.578203 -0.452906 0.51613 0.37441 0.596956 0.403146 -0.377335 -0.592344 -0.344552 -0.597065 -0.264389 0.313287 0.576492 0.415466 -0.365822 -0.201706 0.227249 -0.464908 -0.334145 -0.458945 0.376145 -0.594631 -0.570737 0.398837 -0.591386 -0.547534 0.578546 0.57048 -0.267367 0.323864 -0.318581 -0.577213 0.580181 0.289209 0.48144 0.445427 0.210246 -0.211064 -0.427034 0.296271 -0.205805 0.474195 -0.304626 -0.539389 -0.230622 0.205182 -0.388823 -0.495033 0.424516 0.48333 -0.532397 0.363541 0.568816 -0.523625 -0.584507 0.214269 0.263701 -0.574662 -0.33314 -0.54032 0.577305 -0.512965 0.527896 0.535131 0.39224 -0.458369 0.547219 -0.26728 -0.396515 0.311884 -0.210801 0.371334 -0.214618 -0.442829 -0.260048 0.511521 0.32865 0.40348 0.232484 -0.408958 0.557073 0.549361 -0.289237 -0.420326 -0.207546 0.266774 0.258362 -0.29285 -0.584105 -0.420738 -0.318827 0.281505 -0.556745 0.504022 -0.223597 0.413954 -0.380307 -0.484962 -0.379956 -0.355295 0.237497 0.40585 0.260177 -0.36884 0.434378 0.288435 -0.321836 -0.400681 0.254926 -0.267811 0.417683 -0.259193 0.24508 -0.467533 -0.249443 0.212539 0.444898 -0.3828 0.317089 -0.549357 0.541217 0.504672 -0.407732 0.341635 0.410057 0.541181 -0.29121 -0.22573 0.544529 0.561325 -0.516091 0.280913 -0.392253 -0.266064 -0.415352 0.460808 -0.253213 -0.419623 0.470833 -0.323602 -0.370704 -0.30863 -0.265157 -0.598204 0.227622 -0.203658 0.533393 -0.304701 -0.548284 0.234987 -0.386186 0.520206 0.261275 0.300344 -0.301088 -0.212998 -0.488729 0.333706 0.455987 0.563571 0.291439 -0.427321 0.251801 -0.350478 -0.302788 0.363722 -0.28126 -0.328373 0.423757 -0.274643 -0.252663 -0.396638 0.409269 0.495277 0.262254 0.548864 -0.426078 -0.378526 0.308208 0.477964 -0.314469 -0.299971 0.325613 -0.538265 0.257061 0.474216 -0.300549 -0.251115 -0.201198 -0.575073 0.40524 0.417146 -0.300122 0.509196 -0.524677 0.219327 0.428845 0.434876 0.547642 0.503828 -0.386048 -0.314426 0.448898 0.396414 -0.311932 0.513548 -0.295424 -0.548489 -0.326366 -0.203877 -0.244845 0.290189 -0.342502 -0.428147 -0.298205 -0.294846 0.510019 -0.370849 0.574813 -0.209013 0.33875 -0.203917 0.253255 0.229721 -0.410091 -0.430664 -0.256802 -0.328625 -0.445917 -0.489448 -0.288747 -0.428375 0.393566 -0.357683 0.566487 -0.455124 0.289257 0.539411 0.411447 0.522132 -0.202729 -0.476473 -0.273649 0.458836 0.56187 -0.463689 -0.332578 -0.249384 0.291287 -0.294523 -0.573763 -0.36301 0.408687 -0.405531 -0.271552 -0.241671 -0.48046 -0.333812 0.523243 0.473675 -0.340931 -0.53573 -0.429428 0.399654 -0.392181 -0.578488 -0.443824 -0.428964 0.443918 -0.272645 0.362158 0.589751 0.232461 -0.596726 0.31621 0.440816 -0.207766 0.33065 0.361661 0.357908 -0.424481 -0.319786 0.477894 -0.320816 0.583245 -0.237283 0.507777 -0.38802 0.350596 0.495941 0.255148 -0.323946 -0.513304 -0.500108 -0.3849 0.228807 -0.394413 0.277687 -0.297342 -0.39412 -0.591964 0.42599 -0.458436 -0.439979 0.398757 -0.475836 -0.472678 -0.516819 0.454378 0.460947 -0.474944 -0.248661 0.238346 0.341664 0.524851 -0.416275 0.367186 0.416555 0.256275 0.234653 0.392454 -0.308937 0.510271 0.451114 -0.442683 0.403928 0.201814 -0.386984 -0.578936 0.375848 0.464431 -0.420601 -0.234389 0.257238 -0.293691 0.545696 0.20238 -0.551277 -0.280388 -0.2773 -0.514451 -0.240699 0.333817 0.556425 -0.356332 -0.21654 -0.324397 -0.25238 -0.474299 0.44945 0.40151 0.454135 -0.449778 -0.31654 0.207802 0.453238 -0.275069 0.438518 0.32162 -0.52164 0.527216 -0.498715 0.375322 -0.410399 0.260713 0.21761 0.454994 -0.266113 -0.277156 0.234938 -0.576494 0.207211 0.382112 -0.460449 -0.240672 -0.381684 -0.32027 0.219502 -0.231493 -0.545213 0.489749 0.55443 0.434568 0.449515 0.403195 -0.596683 -0.372628 -0.431252 -0.449623 -0.458472 0.473791 0.458184 -0.320554 -0.489653 -0.307586 0.444253 0.397689 0.342079 0.419225 -0.543981 -0.476046 0.402109 0.544558 -0.203413 -0.325062 0.284477 0.50204 -0.592914 -0.420347 -0.374641 -0.317433 0.525269 0.417578 0.547378 -0.258941 0.259223 0.432023 0.583661 0.494694 0.570761 -0.44896 0.21861 0.597899 0.373594 0.494091 0.346179 0.56713 0.526645 -0.338796 0.42151 0.365382 -0.332724 0.342066 -0.373985 -0.30346 0.256517 -0.399984 -0.30342 0.28665 -0.216129 0.425249 -0.592264 -0.433757 -0.577086 0.392931 0.37029 0.27933 -0.555718 -0.2194 -0.458157 -0.474449 0.275279 0.589799 0.472317 0.255713 0.257189 0.250754 0.27334 0.568361 0.457064 -0.449022 0.319605 0.530369 0.349748 0.405026 0.272629 0.522578 0.353909 -0.526607 0.588826 -0.514672 -0.463281 -0.295469 0.449938 -0.587048 -0.425122 -0.334357 0.364422 0.220051 -0.214495 -0.522075 0.504553 0.435032 0.357031 0.284688 -0.343959 -0.391872 0.564786 0.543862 0.551171 -0.521726 0.36698 0.321021 0.320809 0.445572 -0.566149 -0.422427 -0.212301 -0.529165 0.419098 -0.515188 0.213213 0.570296 -0.594402 -0.392724 0.445068 -0.321866 -0.370533 -0.543449 0.583959 -0.226645 -0.556669 -0.42081 -0.50653 -0.338302 0.363828 -0.288684 -0.360551 -0.35504 0.573139 0.300526 -0.262213 -0.430254 0.265278 0.324087 -0.562724 -0.599345 0.599804 -0.488364 -0.57013 0.231962 -0.280156 -0.510998 -0.379627 -0.595659 -0.213802 -0.570972 0.518577 0.508761 0.574929 0.233092 -0.383581 -0.457047 -0.452591 -0.289719 -0.372076 -0.556679 -0.442328 -0.292938 0.533715 -0.374722 0.384782 -0.223532 -0.54692 0.287213 -0.565142 0.459502 -0.352742 -0.532107 0.461959 -0.428054 0.343507 0.486266 0.252409 -0.207791 0.267801 0.533641 -0.528207 0.555942 0.489466 0.396976 0.36346 -0.20333 0.373027 -0.521535 -0.557263 0.269021 -0.534321 -0.286606 0.53449 -0.572855 -0.47691 -0.454873 -0.463669 -0.280244 -0.45397 0.207743 -0.533698 0.533632 0.54651 -0.341711 -0.204755 -0.204543 0.366017 0.525807 0.385547 0.302798 -0.405158 0.467574 -0.368486 0.421963 0.425037 0.239885 0.440778 -0.465459 -0.428683 -0.291061 0.417901 0.372514 0.386753 0.284426 0.596984 -0.234757 0.344894 0.470969 0.450147 -0.535836 0.522637 0.433918 0.549238 0.550703 0.306547 -0.211359 -0.337368 0.508366 -0.482195 -0.496421 0.380014 -0.281321 0.433508 -0.438289 -0.245222 -0.358839 -0.349845 0.331274 0.292135 -0.477005 0.323742 0.323129 -0.272238 0.385232 0.224286 -0.433612 0.212831 0.329209 -0.467223 0.529995 -0.341622 0.480304 0.281592 0.59055 0.293556 -0.572408 -0.355919 0.278408 0.327032 0.38259 0.545293 0.555618 0.531135 0.404463 -0.252325 0.310803 0.423292 0.285414 0.202685 0.278611 -0.543519 -0.513539 -0.346556 0.527594 -0.455587 -0.224905 -0.326387 0.359004 -0.26535 -0.455881 -0.297925 0.511622 -0.557791 -0.426101 -0.272999 -0.256717 0.555731 0.315956 -0.562204 0.575874 0.353735 -0.218672 0.581302 -0.537643 0.341143 -0.364328 -0.360208 -0.360286 -0.272985 -0.278475 -0.491099 -0.362502 0.305449 0.549116 0.522007 -0.485445 -0.525769 -0.555863 0.281792 0.553724 -0.287031 -0.262004 0.394002 -0.565237 -0.408677 0.21297 -0.378905 -0.546606 0.253929 0.552008 -0.420712 -0.251678 0.341569 -0.253553 -0.501048 0.246296 0.325329 0.435318 0.53059 -0.386317 0.444267 -0.439043 0.574759 -0.507527 -0.281372 0.204625 -0.296987 0.248565 0.263845 -0.261916 0.309396 -0.552973 0.416512 0.354056 -0.588845 -0.486368 -0.339661 -0.456285 0.511061 -0.343109 -0.223345 -0.494517 0.404038 -0.558887 0.245201 0.432777 -0.329015 0.589322 -0.57404 -0.292628 -0.283752 0.395997 0.304408 0.537834 -0.416093 -0.207902 0.428678 -0.55977 -0.445501 0.500599 -0.53946 -0.245298 0.519126 -0.214001 -0.377998 0.45605 0.285626 -0.285162 0.304328 0.405504 0.303939 -0.359858 -0.315824 0.565332 -0.238285 -0.452027 -0.599308 0.246219 -0.531945 0.411598 -0.36685 0.571692 0.319695 -0.242511 0.27985 0.344443 0.26142 0.316406 0.22393 -0.33857 0.547669 0.239959 0.487923 0.46541 -0.346399 -0.529811 0.344657 -0.365726 -0.558358 0.288374 -0.256252 -0.421997 0.337119 0.494917 -0.22014 0.423263 -0.224084 -0.514786 -0.5494 0.331875 -0.457204 -0.209049 -0.56319 -0.466212 -0.583013 0.559755 0.387403 0.356937 -0.320155 -0.285571 0.285341 0.308104 0.372056 -0.221433 0.403085 -0.417256 -0.414995 0.26215 -0.201081 0.299732 0.482948 0.223359 0.44124 0.594874 -0.43215 -0.301689 -0.589279 0.226917 0.432683 0.482792 -0.401657 -0.296058 0.526353 0.394836 0.28657 -0.511527 -0.554056 -0.239869 0.315182 0.356691 -0.315187 0.464823 -0.268174 -0.465801 0.540089 -0.536625 0.44864 -0.358398 -0.39089 -0.302427 -0.447803 0.446977 0.54884 -0.597156 -0.521589 -0.211354 -0.212227 0.341242 -0.367917 0.581257 0.355636 0.449752 0.550565 -0.379269 0.561384 -0.218915 -0.49565 0.211046 0.352739 -0.508511 -0.362049 -0.311103 -0.396042 -0.454677 0.459388 0.271965 0.353816 -0.2193 0.529867 0.445836 0.280266 0.300438 0.330644 0.420406 -0.319687 0.55771 -0.248782 -0.256013 -0.521159 -0.408784 -0.346624 0.395571 -0.402466 0.204821 -0.213442 0.223584 -0.315408 -0.269624 -0.435507 -0.329436 -0.218947 -0.436931 -0.355959 -0.512554 0.403633 -0.457665 -0.202087 0.450696 0.468107 0.536885 0.306174 -0.575257 0.284492 0.267635 -0.53491 0.475193 -0.484216 -0.221588 -0.205067 0.317293 0.25548 0.358956 -0.228194 -0.462119 -0.465168 -0.37785 -0.359474 -0.392924 0.397987 0.363965 0.25763 0.286755 0.351283 0.582022 -0.242485 -0.56505 0.274273 0.355531 0.333657 0.598768 -0.416655 0.570168 0.529724 -0.420096 -0.223651 0.460609 -0.22322 -0.223127 0.255708 -0.530853 -0.304463 -0.396157 -0.219908 0.481203 0.569339 0.35239 -0.256588 0.362124 -0.48565 0.314023 0.566281 0.590582 -0.521997 -0.364004 0.218858 0.275897 0.59076 0.502058 -0.423743 0.364233 0.26323 -0.579076 0.239181 -0.30613 -0.32342 0.434132 -0.394786 -0.279203 0.438423 -0.294488 -0.538065 -0.580603 0.242439 0.539493 -0.26592 -0.259264 0.220348 0.448969 0.37954 -0.58436 0.375253 0.592662 -0.243205 -0.286822 -0.515073 0.338909 -0.551696 0.381963 0.202172 -0.460317 0.425181 0.397244 -0.557921 0.505059 0.201312 0.240422 0.30791 -0.346604 -0.304949 0.232743 0.214737 0.47316 0.491164 0.560567 -0.376579 0.561429 -0.340465 0.447291 0.404885 0.435847 -0.241768 -0.582761 -0.509352 0.500792 0.562791 0.234324 -0.305187 -0.543959 0.562607 -0.489687 0.325411 -0.340947 0.209788 -0.564263 -0.340587 -0.220869 0.276379 -0.532033 -0.332995 0.200033 -0.36636 0.273313 -0.541841 -0.467898 -0.521799 -0.243635 -0.2087 0.513087 0.37282 0.43316 -0.27746 -0.295763 0.457658 -0.339571 -0.460621 0.286438 -0.373961 0.498528 0.377023 0.22025 -0.52401 -0.346032 0.448468 0.551197 -0.53647 0.534695 0.238385 0.367769 0.258254 -0.486697 0.246943 0.545856 0.332886 -0.536706 -0.21081 0.208731 -0.220841 -0.46753 0.413883 -0.490597 0.203084 -0.364282 -0.455751 -0.537513 -0.439392 0.432879 -0.397345 -0.307239 -0.223119 0.44014 0.2009 -0.568749 -0.203634 0.491051 0.255007 -0.567869 -0.20694 -0.299561 0.264203 -0.376696 0.461285 0.38993 0.38831 0.588861 0.541114 -0.445359 0.277872 -0.563756 -0.250388 -0.499023 -0.236454 -0.363486 -0.599044 0.506085 0.500122 0.566842 0.292356 -0.420037 0.253942 -0.292095 0.237898 -0.537069 0.351562 0.397276 0.355631 0.507344 -0.563191 -0.435479 -0.533878 -0.225482 0.424345 -0.595407 0.349097 0.397366 -0.224341 -0.398094 -0.426915 0.37801 0.235988 -0.380427 -0.271586 0.583704 -0.358602 -0.597012 -0.560747 -0.52648 0.214818 0.301793 0.337331 0.566953 -0.38862 -0.423912 -0.50021 0.594013 -0.577208 -0.327816 0.462211 -0.283571 -0.530703 0.313292 0.303077 -0.276543 0.56166 0.48181 0.277494 -0.460662 -0.213811 0.48165 0.286495 -0.450217 -0.250103 0.312497 0.289554 0.533126 -0.476651 -0.511707 0.286191 0.297623 0.366585 0.346841 -0.428197 -0.310195 -0.292077 0.356028 0.467508 -0.442276 0.584279 -0.429925 0.350841 -0.294089 0.409471 0.20722 0.594046 -0.543513 -0.284276 0.204712 0.297857 -0.354481 0.306752 -0.568507 -0.516753 0.491871 -0.365557 -0.574865 -0.484849 0.54389 0.27475 -0.589981 -0.255952 -0.429428 0.223848 -0.252701 0.549047 -0.51164 -0.31769 -0.230058 -0.29093 -0.535476 -0.243726 0.372885 0.579294 -0.222895 -0.267884 -0.322841 -0.54637 -0.464065 0.38641 -0.291923 0.323948 -0.391255 0.48371 0.476082 0.343242 0.431127 0.321898 -0.315544 0.320786 -0.355237 -0.351315 -0.512506 -0.430349 0.267903 -0.293337 -0.352215 -0.36339 -0.258923 0.364783 -0.22174 0.346563 0.294994 -0.456878 -0.569654 0.548976 0.366334 -0.20297 -0.397976 -0.455411 -0.450078 -0.225706 0.366034 0.545763 -0.436195 -0.359962 0.218571 0.310802 0.374987 0.524103 -0.545343 0.469532 -0.573371 0.390517 0.305821 0.237226 0.594677 -0.558191 -0.452027 0.585668 -0.2145 0.546157 -0.252156 0.346637 0.224638 0.571783 0.543819 -0.281659 -0.313816 -0.288537 -0.518104 -0.375535 0.388694 0.273492 -0.23768 -0.328943 0.40479 0.285251 0.332059 0.284088 0.502628 -0.326679 -0.497185 -0.363637 0.280514 0.430638 0.577937 -0.511399 0.339898 -0.407351 0.244051 0.429758 0.211394 -0.305788 0.346898 0.50015 0.445747 0.495973 0.435166 0.353934 -0.511785 -0.514298 -0.590744 0.256352 -0.410588 -0.50822 0.399997 0.303481 -0.252987 0.554843 -0.599145 -0.44941 0.481821 0.587825 0.404993 0.232667 0.32633 -0.206499 0.372662 -0.447715 0.526553 -0.43789 -0.493912 -0.53794 0.35064 -0.346783 0.347776 0.594677 -0.341576 0.346585 -0.32426 -0.263348 -0.326218 0.567663 0.332697 -0.482131 0.571311 -0.3858 -0.261392 0.412122 -0.216524 -0.561818 0.555099 -0.393898 -0.538997 -0.243245 -0.319736 0.513846 0.376439 -0.344834 0.296886 -0.568387 -0.346985 -0.533421 0.477928 0.22041 -0.304448 -0.258752 0.538722 0.356222 0.393133 -0.540976 -0.506059 -0.358823 0.336331 -0.591635 0.530621 0.501415 -0.314209 0.485983 -0.580378 -0.48659 0.48862 -0.344372 0.397992 -0.305061 -0.30006 0.503995 -0.500859 -0.288618 -0.566473 0.470407 0.240274 -0.5747 0.206657 -0.346621 0.367076 0.271861 -0.578553 -0.483038 0.316828 0.367671 -0.234136 0.423008 0.334483 0.572184 -0.591878 -0.59805 0.214412 -0.386636 0.433433 -0.208105 -0.566468 -0.256205 -0.4962 0.321566 0.527343 -0.429917 0.560903 0.496474 -0.56455 0.396342 0.311249 0.588579 0.367142 0.346731 0.308472 -0.201084 0.434802 0.21996 0.596533 -0.344031 0.230764 -0.485354 0.226871 -0.287052 0.250486 -0.547849 0.277786 -0.487396 0.311643 0.445504 0.388962 0.495053 0.503877 -0.354766 0.25654 -0.424285 -0.472744 0.27897 0.491468 0.491037 0.249417 0.303688 -0.375313 0.572131 -0.225211 0.30707 -0.264222 -0.437937 0.517137 0.468509 0.4915 0.26098 0.402434 0.26386 0.505973 0.235856 0.393782 -0.282592 0.330628 -0.456051 -0.472358 0.570011 -0.565244 0.504679 -0.400651 -0.456057 0.465984 -0.456395 -0.256988 0.36232 0.475151 0.518351 0.537721 -0.238028 -0.255666 -0.424188 -0.4572 -0.464604 0.202147 -0.304824 0.542472 0.494949 -0.477919 0.476874 -0.271598 0.497868 0.437371 -0.215682 0.417161 0.44344 -0.54779 -0.400851 0.461827 -0.227434 -0.434738 -0.266772 -0.29314 0.585666 -0.313064 -0.505966 -0.501734 -0.331411 0.220052 0.514196 0.400804 -0.310041 -0.425264 0.553584 0.576348 -0.551065 -0.313276 0.588297 0.579558 -0.377474 -0.436503 -0.477283 0.487273 -0.477343 0.355788 -0.344538 0.549175 0.305187 0.365472 -0.461531 -0.239788 -0.552905 -0.430433 -0.559479 0.515165 0.502612 0.420393 -0.489905 -0.38859 0.214991 0.558787 0.500971 0.214108 -0.282402 0.264928 0.521399 -0.356528 -0.457781 -0.415507 0.396951 0.554213 0.48234 0.479458 0.482271 -0.539493 -0.212426 -0.256791 -0.406243 -0.519555 0.45048 0.432577 0.2892 0.246184 -0.576066 0.36424 0.592363 0.47258 0.493059 -0.246948 -0.420087 0.272592 -0.484722 0.34591 -0.400283 0.579609 -0.249948 -0.422642 0.40129 -0.286129 -0.330518 -0.550373 -0.568822 0.597584 0.574991 -0.23721 0.230974 0.227591 0.439186 -0.206661 -0.438966 0.290232 0.398456 0.228062 0.381702 0.377102 -0.564559 -0.235101 0.550428 -0.395261 0.277217 0.320496 -0.542273 0.223888 0.521588 0.420929 -0.21682 0.249467 -0.424036 0.415023 0.391719 -0.517957 -0.319601 0.289659 -0.585742 0.595448 0.317391 0.371151 -0.464031 -0.441123 -0.425588 0.546172 -0.573213 0.257685 -0.273168 0.402986 0.464834 0.221165 -0.274 0.254464 0.595744 -0.322701 0.365856 -0.372798 -0.288891 -0.415505 0.275974 0.356888 0.357316 0.446435 0.287281 0.29537 -0.370364 -0.53655 -0.427359 0.504106 -0.240926 -0.536238 0.520659 0.436668 -0.322958 -0.524029 -0.413851 0.448118 0.495489 0.40165 -0.343974 -0.534886 -0.213556 -0.358701 0.46245 -0.264018 -0.289614 0.310158 0.309292 0.219822 -0.598999 0.231181 -0.224767 0.384016 0.573852 -0.503027 -0.482687 0.232164 -0.309349 0.337157 0.453672 -0.475175 -0.401431 -0.553558 0.532159 -0.342973 -0.517231 0.344008 -0.253454 -0.462255 0.513691 -0.345132 -0.203194 -0.29262 0.568161 0.284342 0.230953 -0.365118 0.544851 -0.343107 0.292056 0.408167 0.260234 0.551286 0.480199 -0.340994 -0.578822 0.590267 0.263422 -0.29456 -0.512664 0.453415 0.33842 -0.376 -0.337208 -0.56028 -0.405187 0.438552 0.320622 0.57911 0.203378 0.394711 -0.20623 0.564217 0.467864 0.301234 0.437679 0.324145 -0.573181 0.259369 0.419252 -0.539654 0.388096 0.489862 -0.568044 -0.509539 0.589075 -0.553623 0.489227 -0.264957 0.576618 0.537619 0.320839 0.390396 0.561909 0.40441 -0.469414 -0.405601 0.522271 -0.566228 -0.564434 0.461737 0.580016 -0.548815 -0.333201 -0.226335 0.379962 0.524115 0.225718 -0.594822 -0.564276 0.368788 -0.543297 -0.4912 0.269851 0.355883 0.333194 -0.587795 -0.432981 -0.582454 -0.550382 0.276 -0.572742 -0.231145 0.314626 -0.586087 -0.425199 0.512592 0.329264 0.234064 -0.26122 0.433401 0.407568 -0.507625 0.357806 0.206731 0.498867 -0.438531 0.282846 -0.470069 0.495644 -0.476375 0.21103 -0.489339 -0.59276 -0.539409 0.313351 -0.448394 -0.594005 -0.561469 -0.246097 -0.459999 0.25093 0.416572 0.568206 -0.531249 0.542796 -0.584693 0.596591 0.294119 0.397436 0.243331 -0.406337 0.431707 0.247742 -0.552153 0.361374 0.238802 0.510682 -0.546081 -0.542014 0.342738 -0.284953 -0.438635 -0.201463 0.270896 0.566283 -0.309686 0.20595 -0.572962 0.334568 0.347532 0.337267 -0.308247 0.241707 0.526837 0.531657 0.468531 -0.397006 0.298155 0.239921 0.597368 -0.483278 0.378823 0.248446 0.542921 0.2769 -0.278957 -0.476786 0.462115 0.441531 -0.502215 0.458526 0.389799 0.477911 0.454 -0.257006 -0.524036 0.558422 0.429512 0.454644 -0.389882 -0.462886 -0.34571 0.256043 -0.258165 0.396776 0.270763 0.331125 0.310833 -0.348516 -0.526869 -0.416201 -0.345806 -0.553763 -0.381491 0.347751 -0.339951 0.440212 -0.350308 0.493485 0.393829 0.368854 0.345562 -0.325154 -0.509016 -0.421228 -0.279193 -0.286789 -0.412052 0.400317 -0.44896 -0.564915 0.558704 0.474571 0.301382 -0.517485 0.458316 -0.359804 -0.586318 0.460273 -0.358628 0.331218 -0.31893 -0.26282 0.458561 -0.524524 0.411204 -0.296432 -0.294566 -0.478919 -0.339059 0.29116 -0.482743 -0.201253 0.335922 -0.364395 -0.543027 0.332372 -0.313621 -0.592939 -0.258329 -0.279703 0.406902 0.239441 0.347137 -0.297417 -0.314765 0.483571 0.239541 -0.466569 -0.34635 -0.270014 0.526577 0.351334 -0.597579 0.212381 -0.261736 -0.525441 0.468218 -0.370107 -0.483243 0.501551 -0.256101 -0.595517 0.269945 0.471106 -0.49305 -0.505672 -0.343507 0.459826 -0.40128 0.396994 0.56429 0.331655 -0.287318 0.447864 -0.369285 0.568569 -0.534537 -0.521029 0.426171 0.420777 -0.333256 0.538849 0.383456 0.217848 0.270882 0.447751 0.537277 0.467681 -0.481168 0.595156 -0.464961 0.475839 0.52781 -0.40398 -0.589003 -0.473203 0.351207 -0.599022 -0.210727 0.519397 0.431712 0.316782 0.346555 0.393584 -0.300009 -0.278175 -0.352464 -0.364468 -0.350883 -0.434255 0.593205 -0.462146 -0.51951 0.279075 -0.478038 -0.211847 -0.365621 0.478739 0.313094 -0.539898 0.461062 0.378073 0.572089 0.2938 -0.510989 -0.462859 -0.235513 0.248606 0.586172 0.48526 -0.326153 0.57396 -0.225737 -0.40395 0.525021 -0.551934 -0.361921 0.39961 -0.272547 0.456982 0.421465 0.48773 0.444845 0.412001 -0.264017 -0.295227 -0.594369 0.281944 0.521885 0.358937 0.229741 0.23299 0.440877 0.525673 -0.32601 0.49696 -0.502495 0.404453 -0.321026 0.578358 -0.313715 0.575214 0.342772 -0.32819 -0.543052 -0.511563 0.597997 0.364456 0.377154 0.352297 0.472783 -0.45064 -0.433946 0.522619 0.271547 0.340015 0.574561 0.493346 0.372387 -0.381989 0.508662 -0.288233 0.238106 0.345532 0.542818 -0.318425 0.547085 -0.59088 0.224157 0.336003 -0.414475 0.480966 -0.591248 0.506368 -0.395848 -0.479075 0.38191 -0.21117 -0.419997 0.235276 0.254531 0.578417 0.322765 0.382647 0.482795 -0.442626 0.394668 0.486305 -0.497904 -0.549551 0.48103 -0.398263 -0.395933 0.482956 0.566134 0.378745 -0.271933 -0.222281 0.326459 -0.54162 -0.323577 0.306524 0.507837 -0.30416 -0.385502 0.499493 0.482337 -0.329472 0.507188 0.2942 -0.53066 0.493987 -0.230107 0.397291 0.321195 -0.36582 0.523156 -0.363017 0.465173 -0.236733 0.520888 0.317208 -0.233981 0.481494 0.459108 -0.414492 -0.448639 0.392361 -0.224747 -0.235311 0.328562 -0.590714 -0.273474 0.482711 0.220908 -0.589324 -0.45567 0.345021 -0.553212 -0.430821 0.202209 -0.202088 -0.353792 0.329593 -0.384101 0.524482 0.566034 -0.564382 -0.268926 -0.578156 -0.366537 -0.23163 -0.274011 0.511858 0.403166 0.439544 -0.387992 0.256223 0.236081 -0.320323 -0.550719 -0.332846 0.560001 -0.556261 0.54432 0.318761 0.501897 -0.333064 0.527043 0.203132 0.387601 -0.535585 -0.284308 -0.517377 -0.377623 -0.540572 -0.282505 -0.245095 0.370646 0.271433 -0.535774 -0.425823 -0.540586 -0.41358 -0.203809 -0.597838 0.259388 0.367002 0.52523 -0.464085 0.322079 0.431195 0.478074 -0.44709 0.477646 -0.363686 0.308718 0.251092 -0.548396 0.516933 0.281383 0.343614 -0.448194 0.484466 -0.594995 -0.476277 0.553207 -0.521658 -0.583762 0.480002 -0.287271 0.274829 0.233197 -0.445293 0.590592 -0.533798 0.276997 -0.412746 0.588028 -0.298614 -0.445762 -0.300097 0.282363 -0.230251 -0.390503 0.527533 0.553941 0.273764 0.328283 -0.568732 -0.281282 -0.39085 -0.579943 -0.283469 0.300807 -0.550994 -0.356974 -0.345539 -0.272846 0.505462 -0.286042 -0.341124 0.435358 -0.227121 0.333944 0.282515 0.498383 -0.573505 0.47696 -0.446297 -0.439057 -0.524336 -0.448382 0.435368 -0.445664 -0.384578 -0.573825 -0.571689 -0.340588 -0.372823 0.594662 -0.289758 0.328703 -0.371371 0.320237 0.58343 0.414959 -0.555325 -0.577641 0.58457 0.531523 -0.355011 -0.294848 0.31453 0.32551 -0.309969 0.342691 0.213218 0.46299 -0.477057 -0.402256 -0.54252 -0.368253 0.280556 -0.288538 -0.569199 -0.434273 0.525408 -0.45091 0.364558 -0.527291 0.296593 0.274254 -0.541377 0.494399 0.52047 0.278922 0.31387 -0.360836 0.593069 -0.459552 0.469435 -0.286478 -0.222946 0.434781 0.513809 0.262031 0.432055 0.320213 -0.273529 0.591867 0.311267 0.45699 0.517963 0.219563 0.4672 -0.473301 0.57294 -0.531477 -0.497168 0.383389 -0.528331 -0.421379 0.581705 -0.533819 0.556203 -0.249233 0.596474 0.492608 -0.524048 0.42547 -0.391286 0.527882 0.25855 0.360111 0.225618 0.366695 0.388921 -0.314335 0.529666 0.42586 0.573839 0.55334 0.381316 -0.48475 0.358118 -0.496612 -0.408991 -0.31363 0.283854 0.423259 -0.417242 0.263421 -0.578028 0.37679 -0.425909 -0.393563 0.477742 -0.370061 -0.59285 0.364422 0.365031 0.300372 0.485528 -0.441563 -0.287743 0.278854 0.254775 0.511149 -0.52003 0.540496 -0.290588 -0.545687 0.480961 0.227388 0.370559 0.224779 -0.452844 -0.509613 0.539152 -0.307755 0.415997 -0.531881 0.528884 -0.503574 0.530969 0.594853 0.578129 0.589887 -0.256289 -0.332901 0.409086 -0.362439 -0.48283 0.400303 0.423228 0.448878 -0.294667 0.509996 0.22379 0.472464 0.257641 -0.576315 0.407859 0.49486 0.583478 0.290997 0.38544 0.454494 -0.525488 -0.490253 0.562855 0.38794 0.519891 0.281072 -0.511507 -0.498439 0.420854 -0.204918 -0.440957 0.492861 0.527539 0.216999 -0.437293 0.38125 0.52629 0.511497 -0.410635 0.546665 -0.397374 0.274206 -0.581273 0.278029 -0.4474 0.430839 -0.582726 -0.512791 -0.307557 0.223245 -0.401283 -0.307632 -0.475999 -0.216716 -0.318566 0.417159 0.591119 -0.224821 0.464011 -0.374518 0.385798 -0.399768 -0.329057 -0.27879 -0.242349 -0.381465 -0.506531 -0.571204 -0.508226 -0.469163 0.551302 -0.542732 -0.577688 -0.514812 -0.270402 -0.553111 -0.294687 -0.224724 0.465439 -0.260358 -0.405549 -0.35142 0.33092 0.49461 0.310545 0.265938 0.450095 0.204267 -0.576222 0.269483 0.208409 -0.502824 0.375474 -0.526839 0.231063 -0.5487 -0.42902 -0.548692 0.422744 -0.599086 -0.207074 -0.595136 0.273694 0.284953 0.518482 -0.29654 -0.37703 0.229987 -0.526913 0.593416 0.544024 -0.394587 0.242237 0.332984 0.58658 0.39827 0.397094 0.450823 -0.392809 -0.520703 0.290212 0.238182 -0.216608 -0.419746 0.224996 -0.501496 0.355279 -0.342063 -0.439362 -0.262497 -0.207117 -0.419596 -0.254173 0.274998 -0.206195 0.558273 0.212944 -0.56365 0.264625 -0.573073 0.596558 0.25864 -0.570653 -0.549353 -0.275751 -0.235958 0.472616 -0.487078 0.525973 -0.373771 -0.557777 -0.228575 -0.328499 0.200273 -0.375621 0.482745 -0.447916 0.524017 0.342089 0.228584 -0.485219 -0.500708 -0.520096 0.284624 0.349861 -0.378236 -0.590439 0.278359 -0.399037 -0.512062 -0.251978 0.346837 0.336192 -0.318463 -0.544223 0.296122 0.41159 0.587277 -0.384615 0.577754 0.530296 -0.242113 -0.562802 -0.239673 0.399104 -0.336496 -0.346541 0.350977 -0.554187 -0.361015 0.216487 0.327852 -0.453966 -0.559763 -0.38703 0.573056 -0.293506 -0.23806 0.335642 -0.418146 0.229467 0.385828 -0.437976 0.258742 0.406245 0.290574 0.276894 0.25081 -0.533555 0.569441 -0.548088 -0.437911 -0.557667 -0.297903 -0.553703 0.228055 0.470691 0.359179 -0.350688 -0.50083 -0.237679 0.379666 -0.409831 -0.245434 0.441047 0.463971 0.557372 -0.430731 -0.577852 0.208348 0.444682 0.514726 -0.450286 -0.42404 0.491827 -0.557908 -0.316275 -0.24408 0.568049 -0.269491 0.30439 -0.598232 0.235344 -0.576801 -0.357596 -0.544751 -0.221553 0.317651 0.533382 0.472814 0.266563 0.354715 -0.568296 0.308943 0.48831 -0.345442 0.311897 -0.254462 -0.572637 -0.360436 -0.216412 -0.332511 0.564664 -0.509804 -0.391854 0.323255 0.21334 0.241255 0.276765 -0.517982 -0.528633 0.557775 -0.407097 -0.38777 0.243499 0.509967 0.253393 -0.297877 -0.492641 0.516103 0.390299 -0.542912 0.517327 0.385275 0.334365 0.559168 -0.36668 0.303527 -0.52918 0.353511 -0.439503 -0.232591 0.305956 -0.510953 -0.338148 -0.283092 -0.466413 0.332086 -0.210171 0.377833 -0.220618 -0.407534 -0.253945 -0.361075 -0.402358 0.555803 0.578065 -0.534757 0.318862 -0.282618 -0.272766 0.385457 0.391715 -0.322919 0.434904 -0.546422 0.237754 0.24282 -0.265017 0.274823 0.318483 -0.509236 -0.21902 0.380568 0.289703 0.594892 -0.228897 -0.301648 -0.297893 -0.222498 0.325319 -0.388319 -0.322877 0.454771 0.235035 -0.255268 0.56022 -0.450065 -0.408497 -0.317123 -0.49382 -0.260669 0.492365 0.34333 -0.586884 0.523054 0.334749 0.475276 -0.542513 0.245519 0.259642 0.331066 -0.265292 0.599102 0.211766 0.371989 0.42824 0.428304 -0.594975 -0.310862 0.337461 -0.294061 0.345289 0.329836 0.299384 -0.265351 -0.476143 -0.378888 -0.377549 -0.415223 0.494215 -0.294901 0.41987 -0.443059 0.494838 0.396703 -0.587836 -0.504509 -0.460101 -0.420928 -0.409699 -0.318511 0.282696 -0.227276 -0.275388 -0.24956 -0.429711 0.292058 -0.267665 0.464425 0.489037 -0.594801 0.551891 -0.209999 0.533654 0.371477 -0.317206 0.429195 0.387386 -0.260147 -0.298971 -0.432377 0.454168 -0.578263 -0.459552 -0.484335 0.503815 0.225462 -0.378446 0.267698 -0.466389 0.455453 -0.329163 0.383498 -0.54112 -0.379324 -0.553352 0.568774 0.536136 0.329352 -0.389724 0.544276 0.492823 0.549246 -0.2052 0.383369 0.45612 0.455185 -0.32347 0.501832 -0.482328 -0.304682 -0.292857 -0.2432 -0.220492 -0.424681 0.38624 0.503756 0.338696 0.350332 -0.469947 -0.215485 -0.572522 0.311351 0.509352 0.360583 -0.294339 0.22736 -0.53872 -0.416189 0.443112 -0.369428 0.409826 0.308414 0.526187 0.292418 -0.392446 -0.522202 -0.578573 -0.46096 0.246735 0.279606 -0.486808 -0.528269 0.377525 -0.38474 -0.385327 0.249989 0.227352 0.543675 -0.21715 0.349673 -0.343996 -0.574564 0.305427 -0.210495 0.457067 0.493236 -0.397066 -0.569402 -0.565962 0.595229 0.30831 0.346442 0.403621 -0.289201 0.32621 0.230367 0.510749 0.592776 -0.440456 -0.368338 0.293371 0.441398 0.483078 0.465029 -0.564942 -0.200329 -0.505475 -0.408914 -0.436889 -0.529867 -0.336989 -0.433305 0.565166 0.263914 -0.429352 -0.503144 -0.493825 -0.413161 -0.555342 0.225943 0.538447 -0.593537 -0.373044 -0.553018 -0.300566 0.573032 -0.44312 0.485293 -0.232418 0.213906 0.381459 -0.384494 -0.261592 -0.452187 0.275843 -0.537219 -0.504403 0.458211 -0.333206 0.287381 -0.294115 0.271326 0.46675 -0.34552 -0.505826 -0.360939 -0.276476 0.362568 -0.543087 0.355003 -0.492885 0.23322 0.222977 -0.474736 -0.302661 0.589955 0.22253 0.33401 -0.2179 -0.388449 -0.238956 -0.211011 0.49482 0.4535 -0.388334 0.456837 0.300725 0.478508 -0.381488 -0.479885 -0.315361 -0.280924 0.531121 -0.227171 -0.294464 -0.472747 0.365007 0.448851 0.257336 -0.497734 0.310854 -0.52689 -0.244628 0.535281 -0.558642 -0.310265 0.285006 0.411894 -0.206123 0.565147 0.254685 0.434006 0.321652 0.47952 0.385208 -0.224658 0.531826 -0.307641 -0.356946 0.402569 0.458088 0.389592 -0.304023 0.55922 0.440552 -0.410732 0.362262 0.31493 0.327594 0.262902 -0.371704 -0.408864 -0.239108 0.279983 -0.559428 -0.511642 -0.395386 -0.36061 0.30272 -0.209554 0.244198 -0.438508 -0.465024 0.290373 -0.547888 0.505421 -0.440834 -0.423122 0.23079 0.275997 0.385658 0.407733 -0.288873 0.480452 -0.288173 0.334864 -0.310293 -0.53883 -0.52681 0.567935 -0.382478 -0.59429 0.58764 0.503255 0.320517 0.208648 0.56689 -0.487219 0.384725 -0.447356 -0.257677 0.205268 -0.555593 -0.343286 0.573301 0.357101 0.584577 -0.379091 0.568803 -0.590647 -0.261597 -0.595496 -0.415677 0.28425 0.250385 0.4733 -0.513826 -0.476032 -0.422666 0.351821 -0.33054 0.551746 0.260314 0.287333 0.413183 0.318438 0.277276 0.503266 0.596648 -0.493354 -0.519122 -0.355095 0.245222 0.302366 0.250445 -0.263856 -0.363109 0.496101 -0.346439 -0.45254 -0.261415 -0.434401 -0.284912 -0.231643 -0.325184 0.328592 -0.291651 -0.477253 -0.514813 -0.204761 0.433806 0.346244 -0.284219 0.420339 -0.22578 0.39028 -0.243857 0.425884 -0.362349 0.410328 -0.382524 -0.531838 -0.422606 0.211048 -0.38871 -0.302678 -0.284425 -0.219431 -0.491267 -0.599301 -0.512649 -0.204241 0.414262 0.285274 0.287652 0.464143 0.434522 -0.344351 0.205072 -0.394548 0.371208 -0.416298 -0.346148 0.224276 -0.275499 -0.554463 0.413159 0.544653 -0.388829 0.204032 0.52553 0.346658 -0.264156 -0.41718 -0.246409 -0.463009 0.508954 -0.273249 0.515035 -0.292518 0.321103 0.578682 0.205684 0.561683 0.553263 0.270995 0.43389 0.238844 0.308663 0.567273 -0.467752 0.572688 0.509588 0.431808 0.343463 0.415157 0.571306 0.398828 0.317174 0.371504 -0.326226 0.549229 -0.260152 0.458162 -0.444098 0.523887 -0.255716 -0.488556 0.542513 0.389926 0.24469 -0.550542 -0.398922 -0.592986 0.509881 -0.586532 -0.206989 0.596224 -0.523836 -0.435956 0.27982 0.479784 0.256418 -0.300839 0.488705 0.284907 -0.495848 -0.549391 -0.384819 0.210865 -0.306867 -0.330807 -0.53316 -0.380997 -0.581416 -0.224929 0.376796 -0.396771 -0.273054 0.432145 -0.388375 -0.495154 0.552501 -0.378993 -0.386923 -0.43202 0.387256 -0.207646 0.289857 0.577411 0.405596 -0.332508 0.507054 -0.415605 0.42689 -0.541867 0.564803 -0.299489 -0.281567 0.254624 -0.268341 0.36228 0.449471 0.576013 -0.558569 -0.2106 -0.555764 -0.346556 0.272389 0.442926 0.209912 -0.514545 0.221815 -0.492019 0.492516 -0.571872 -0.433287 0.416454 0.504078 -0.222085 -0.34589 0.226812 -0.375794 -0.564471 0.335529 0.347462 0.59219 0.320155 -0.27604 0.317387 0.558818 0.529414 -0.42341 -0.474863 0.538334 0.590136 -0.529634 0.385878 0.390315 -0.553611 0.557745 0.271284 -0.363079 0.563939 0.403614 -0.407676 0.370585 0.554537 -0.482957 -0.321483 -0.326349 0.505515 0.328567 0.361412 0.441741 0.444726 0.416096 0.349421 0.30745 0.418295 -0.394687 -0.273496 -0.363061 -0.559266 0.457434 -0.467309 -0.392369 -0.239766 -0.464217 -0.439818 0.516201 0.505445 -0.200554 0.311474 0.368228 -0.219068 -0.55574 -0.528186 0.320597 -0.36482 0.568202 0.561814 -0.404954 -0.281507 0.402759 -0.37513 0.205869 -0.451258 0.335442 -0.314426 0.492501 0.466584 -0.426058 0.567042 -0.282222 -0.524687 0.363991 0.410996 -0.488082 0.238116 0.413828 0.409801 -0.493821 -0.426119 -0.223791 0.532932 -0.274039 -0.364533 -0.594285 -0.446753 0.463437 -0.326932 -0.257941 0.596372 -0.43043 0.236864 0.447733 -0.463954 0.507724 0.370816 -0.230618 -0.447807 0.503264 -0.204755 -0.343915 -0.574057 0.222948 0.234779 0.238916 -0.226912 0.265639 0.513604 -0.510442 -0.254926 -0.467632 -0.349681 0.52949 0.202907 0.209828 0.330304 0.459169 0.361094 0.405349 -0.563006 0.427024 -0.313611 -0.253695 -0.406035 0.404774 -0.382302 -0.286703 -0.570656 0.529472 0.448948 0.581225 -0.293042 -0.283612 -0.322512 0.25001 0.333226 0.275436 0.369697 -0.474053 -0.293267 0.436694 -0.351234 -0.407552 -0.539591 -0.295453 0.276324 0.367791 -0.517073 -0.223503 -0.340364 -0.325103 -0.550546 0.320428 0.529669 0.295976 -0.273309 0.498504 0.456067 -0.546433 0.443081 -0.584197 0.318565 0.288771 -0.20339 0.275223 -0.385785 -0.217345 -0.200865 -0.456574 -0.332254 -0.55347 -0.48522 0.230106 0.558031 -0.536945 0.218424 -0.320516 -0.27313 0.372628 0.52156 0.420274 -0.248177 0.443676 -0.575392 0.579577 0.252801 0.513209 0.385022 0.279308 0.519854 0.544165 -0.537396 0.275267 0.473967 -0.287045 0.295746 -0.502872 -0.344939 0.392965 -0.446799 0.427976 -0.305589 0.43762 -0.284501 -0.233663 0.533182 -0.542632 -0.242509 -0.481103 0.465794 -0.312003 0.475469 0.305463 -0.361424 0.340737 -0.27097 0.507821 -0.309899 0.26717 0.26237 -0.398754 0.278661 0.46613 0.359286 -0.237646 0.315383 0.586621 0.364524 0.211258 0.590512 -0.53417 0.320709 0.438042 0.587433 0.225009 -0.206045 -0.245355 0.56515 0.405876 -0.258719 0.349517 0.59317 -0.364952 -0.428221 -0.283642 -0.528206 -0.480215 -0.459804 0.479524 0.223469 0.49704 0.328296 0.314219 -0.45388 0.417882 -0.363616 -0.2867 0.303536 0.514481 0.227863 -0.350489 -0.215936 0.204985 0.348962 -0.322976 -0.389041 0.401944 -0.56241 -0.210783 -0.436258 0.328889 -0.396063 0.35666 -0.267242 0.431355 0.269264 -0.251174 0.212549 0.560939 -0.540667 0.533941 -0.303931 0.247046 -0.252047 0.482631 -0.486494 -0.488179 -0.427109 0.582156 -0.31598 0.589456 0.395356 -0.470444 0.296788 0.569415 -0.515299 -0.367164 -0.23924 0.28557 -0.472039 0.579592 0.579721 0.441091 0.512609 -0.301181 -0.236758 -0.413833 0.331266 -0.240019 0.515661 -0.46551 0.51279 -0.450189 0.446884 -0.243318 -0.503961 -0.477457 -0.49068 0.290512 0.541795 -0.431879 -0.48233 -0.410668 -0.329989 -0.44165 0.460121 0.47661 -0.339834 -0.324942 0.262559 0.305642 0.391169 0.450203 0.301647 0.485139 0.332409 -0.221996 -0.36273 -0.228334 -0.28335 0.538369 -0.577144 0.316383 0.541779 -0.303697 0.209585 0.570858 0.392439 -0.482604 -0.361777 -0.537528 0.484761 0.508924 -0.392187 -0.540209 0.407243 0.419009 0.293557 -0.501366 -0.376717 0.239673 -0.414402 0.587055 -0.431593 -0.500927 -0.237402 -0.487556 -0.397979 0.569653 -0.333738 -0.465704 -0.38844 0.325367 0.220105 -0.517333 -0.231796 -0.583122 0.567538 -0.453039 0.439836 -0.392501 -0.592422 -0.399401 0.476537 -0.380568 0.278916 0.551255 0.330985 -0.349353 -0.303355 0.547911 0.223692 0.581349 0.501211 0.390361 -0.588354 0.218286 0.26292 0.371176 0.58674 -0.549731 0.598016 -0.533011 -0.577607 0.48009 -0.34905 0.416112 -0.359034 0.363971 -0.231849 0.401292 -0.537195 0.200978 0.237264 0.539571 -0.323899 0.28966 -0.390287 -0.450915 0.305036 -0.448856 0.559006 -0.226827 0.462429 -0.378286 0.34513 0.514481 0.399156 -0.28244 0.287614 -0.460424 0.511313 -0.533427 -0.572755 0.469495 -0.515347 -0.531876 0.383319 -0.592394 0.349501 0.540026 0.350258 0.576957 -0.369966 -0.385834 0.281408 -0.269093 -0.596342 0.294322 0.386862 -0.246888 -0.282167 0.576563 -0.537468 0.511234 -0.339638 -0.5816 0.305767 0.43931 0.217953 -0.333314 -0.271401 -0.292083 -0.404927 -0.23684 -0.350221 0.293999 -0.262493 -0.297873 -0.239521 -0.286929 -0.460367 -0.269054 0.227086 -0.441867 0.533508 -0.3444 -0.377588 0.272652 -0.222888 0.574304 0.393221 0.205496 -0.338867 -0.455676 -0.312477 0.557546 0.211134 0.538977 -0.534965 -0.283259 0.356025 -0.473381 0.264142 0.516127 -0.255527 -0.460138 0.558736 0.304463 0.569005 0.47599 -0.502744 0.254326 -0.460137 0.552098 0.374147 0.263574 -0.463017 0.463785 -0.482989 0.214189 0.270344 -0.387264 0.339962 -0.326683 0.451865 0.390449 0.436209 -0.268487 0.438077 0.491447 0.255943 0.542397 0.491976 0.446118 -0.586094 0.31348 -0.334635 0.285518 -0.39247 -0.583564 -0.414873 -0.398944 -0.218787 -0.347427 -0.488016 -0.469089 -0.593895 0.462918 -0.217667 0.260835 0.569343 0.260199 0.275059 0.578575 0.557917 0.511865 -0.336151 0.423873 0.578239 -0.211803 0.210174 -0.410214 -0.292377 0.489939 0.382168 -0.313805 0.325089 0.455489 -0.51972 -0.267677 0.396203 0.250428 0.290351 -0.287293 0.445601 0.534846 0.579986 -0.459843 0.418191 -0.382407 -0.300555 -0.35187 -0.270215 0.225792 -0.441423 0.467572 0.273012 0.56998 0.392301 -0.431952 -0.356368 -0.493676 0.511858 0.408717 -0.503301 -0.330407 0.487335 0.429501 -0.489636 0.547485 0.548762 -0.368684 0.333057 -0.385136 0.395937 0.56326 0.383887 0.288658 0.210454 0.425793 -0.488499 0.517612 0.438477 -0.333384 -0.202405 0.459172 0.495926 -0.572941 0.366521 0.554342 0.375166 -0.514761 -0.374537 -0.254796 -0.500795 -0.298747 -0.436789 0.565128 0.363471 0.40338 -0.379382 0.317043 0.290409 0.304292 -0.448061 -0.419387 -0.576235 -0.582279 0.337567 0.535763 0.517664 -0.427656 -0.250868 0.42972 -0.491296 -0.580214 0.295653 -0.345985 0.387241 -0.242991 0.50891 0.258529 0.596525 0.235917 0.277883 0.372454 -0.206189 0.350001 -0.392893 -0.471395 0.212822 0.354867 0.548866 0.494535 -0.35113 -0.371409 -0.399903 0.545185 -0.470746 -0.530521 0.552781 0.544177 -0.303085 -0.216027 0.273899 0.580168 0.339032 0.395195 0.235888 -0.424005 0.227257 0.447057 0.425353 0.223589 -0.373344 -0.244729 0.257085 -0.285095 0.283084 0.256148 0.588545 0.443705 -0.371351 0.415475 -0.328631 0.594256 0.234895 -0.583048 0.233555 0.556348 -0.560746 -0.533023 -0.589984 -0.378 -0.319241 0.430052 -0.470465 0.435364 -0.312657 -0.449055 0.290319 -0.597176 -0.284624 -0.585462 0.58686 -0.525077 -0.542888 -0.565437 -0.476219 0.20594 -0.577586 -0.303247 0.509749 -0.489867 0.58945 -0.463694 0.582233 -0.404983 -0.441094 -0.385036 0.332256 -0.37556 -0.568213 0.208015 0.484434 0.439892 0.449946 -0.31007 0.48175 0.382101 -0.33886 -0.550968 -0.506665 0.38795 0.546396 0.575713 -0.283099 -0.353795 -0.492269 -0.495743 0.375764 0.238722 -0.278774 -0.385406 0.34873 0.431723 0.213302 0.208683 -0.538642 -0.267726 0.369619 0.563689 0.394711 0.504029 -0.479294 0.463682 0.535406 -0.280769 0.251196 -0.574703 -0.433681 -0.287515 0.589117 0.36695 -0.492831 -0.412796 -0.478115 -0.515167 -0.493969 -0.359806 0.218968 -0.428321 0.525892 -0.568554 -0.375265 0.377014 0.349684 -0.45593 0.560727 0.266559 -0.457556 -0.516008 0.25584 -0.408496 0.250372 -0.323072 0.59179 0.223714 -0.460484 0.494771 -0.535526 -0.244696 -0.536315 0.424011 0.523505 0.3506 -0.369925 -0.516732 -0.497783 -0.375573 -0.29353 0.217494 -0.450039 -0.203002 -0.233477 0.346272 -0.569557 0.254213 0.291593 -0.402914 0.368794 -0.396159 -0.220121 -0.364484 0.438119 0.466058 0.438703 0.216968 -0.524761 -0.399264 0.517742 -0.527241 -0.336503 -0.393171 0.459679 -0.443193 0.549598 0.567193 0.352244 0.487622 -0.271734 0.522012 0.237233 -0.599177 0.55895 0.520233 -0.343977 0.363991 -0.428929 0.308575 0.553245 -0.317081 0.591121 0.472562 -0.41595 -0.333727 0.513865 0.39812 -0.594718 0.513092 -0.595738 0.430359 -0.280799 0.220194 -0.551511 -0.598335 0.280536 0.4076 -0.39969 0.415022 0.440345 -0.503323 0.204487 0.305308 -0.49874 0.552874 0.451725 0.234193 0.377583 -0.442251 -0.383155 0.233851 0.556002 -0.535349 0.521612 0.371332 0.299119 0.516167 0.376098 -0.302812 -0.239875 0.569315 0.438919 0.424125 0.257894 -0.345596 -0.506962 -0.304741 0.220898 0.218657 0.390459 -0.304468 -0.464643 0.593184 -0.242111 0.315578 -0.351681 0.573587 -0.288401 0.207102 -0.464088 -0.587345 -0.532146 -0.234015 0.332175 -0.495555 0.44266 -0.412212 0.220658 0.348045 -0.501391 0.344756 0.548516 0.243673 -0.516054 -0.383213 -0.403473 -0.551191 0.462643 -0.288663 0.237878 0.517452 0.58424 -0.587841 -0.535059 0.267668 -0.599509 -0.489523 -0.530766 -0.584943 -0.583971 0.226962 -0.538714 0.523063 0.563359 -0.396175 -0.595943 -0.481775 0.44329 0.585083 -0.205502 -0.2148 -0.465175 0.553036 0.437519 0.242761 0.306134 0.208934 0.247876 0.446205 -0.543723 -0.212472 0.356007 0.51985 -0.363863 0.377646 -0.557684 -0.374375 0.296768 -0.218799 0.265389 -0.355777 -0.331283 -0.416372 0.296709 0.390394 0.304958 0.580098 -0.297113 0.460262 -0.404881 -0.23034 0.430353 -0.585423 -0.532126 0.461408 -0.265782 0.36904 0.381897 -0.576223 0.247989 0.519038 0.569484 0.213912 -0.399083 0.527573 0.512081 -0.366528 -0.362628 -0.269554 -0.356172 0.29227 -0.548148 0.219019 0.446722 0.208652 -0.36186 -0.247658 -0.426825 0.397941 0.535742 -0.229872 0.283427 -0.590256 -0.548351 0.54081 -0.590773 -0.526477 0.49439 0.268967 -0.540738 -0.235822 -0.205308 -0.433942 -0.345049 -0.45804 -0.357396 0.528614 -0.284312 -0.286878 -0.578681 -0.337186 -0.260768 0.508376 -0.209159 0.296269 -0.254962 0.252496 -0.415572 0.492402 0.51832 0.241412 -0.238355 -0.516539 0.488897 -0.35533 -0.231105 -0.437033 0.556179 -0.247031 -0.322752 0.515235 0.475392 0.437984 -0.454168 0.251584 -0.480829 -0.448204 -0.263023 0.241851 0.36816 0.419498 -0.289696 -0.491137 0.40194 -0.211212 0.281468 0.302406 0.494179 0.247823 -0.270777 -0.520835 0.392403 0.47079 0.533781 0.407346 0.309822 -0.501205 -0.283375 -0.445392 0.33051 0.410007 0.383052 -0.368837 -0.452804 -0.425578 -0.516066 -0.475187 0.515451 -0.563895 0.258618 0.551172 -0.398084 -0.567957 -0.24472 -0.366774 -0.269954 0.587206 0.489196 -0.530237 0.572702 0.265581 -0.502227 -0.597238 0.286744 0.26691 0.332373 0.513802 0.47046 0.411917 -0.295109 -0.290408 -0.555473 -0.21807 -0.433657 -0.586668 -0.304122 -0.295128 0.593016 -0.424027 -0.253499 0.425124 0.509019 0.31633 -0.220686 -0.294658 0.506939 -0.480858 -0.462681 -0.30708 -0.447236 0.502698 0.345997 0.557707 0.290192 0.418775 -0.272671 0.529563 0.382824 -0.361169 -0.574141 -0.519304 -0.240892 -0.343491 -0.299091 -0.599911 -0.544319 0.497684 -0.500434 -0.429331 -0.237126 -0.334317 -0.292004 -0.291488 -0.309773 0.278337 -0.308483 0.564993 0.397804 -0.252949 -0.559055 -0.443222 -0.555468 -0.593691 -0.596297 -0.446528 -0.471127 -0.343221 0.244725 -0.437958 -0.287366 0.438413 0.513937 0.545224 -0.51189 -0.208636 -0.251032 -0.374319 -0.592764 0.462403 0.591032 -0.222484 -0.289776 -0.425289 0.200414 -0.489001 -0.579542 -0.483629 -0.530819 0.20522 -0.427026 -0.313654 0.465713 0.484559 -0.255984 0.447538 -0.455893 -0.509174 -0.235727 0.280171 -0.397711 -0.323921 -0.296585 0.270731 -0.436403 -0.470113 -0.289806 -0.541487 -0.471741 -0.413997 -0.573007 -0.57474 -0.531556 -0.374569 -0.218378 -0.203425 -0.423912 0.593341 -0.334897 0.547901 0.340023 -0.234728 0.401781 0.38535 0.402261 -0.201246 0.26088 0.204168 -0.4599 0.559721 0.233478 0.294367 0.290493 -0.377886 -0.351781 0.396689 0.543801 0.321634 -0.407632 -0.419104 -0.50633 -0.385161 -0.396336 0.559647 0.568067 0.534514 0.482514 0.458935 0.316589 0.398396 0.362608 -0.360174 -0.426501 -0.451991 -0.388791 0.244026 -0.491444 -0.262332 0.218517 0.344015 0.541346 0.588129 0.30741 -0.396867 0.483885 -0.292369 -0.590347 0.352902 0.334351 -0.450982 0.275987 -0.218264 0.324195 0.255209 0.302574 0.329296 -0.477754 -0.46778 -0.564488 -0.409164 0.259909 -0.494866 0.354077 0.467105 0.25266 0.41157 0.213095 -0.296077 0.510429 0.480002 0.550511 -0.256923 -0.326722 0.413429 -0.58935 0.539584 -0.524127 0.299516 0.482217 0.566631 0.284709 0.263524 -0.208035 -0.435095 0.510888 0.531467 0.324395 -0.289664 -0.513094 -0.542328 0.525686 -0.551704 -0.316361 0.528016 -0.217843 -0.533456 0.272847 0.400356 0.356581 0.599346 0.350548 -0.528867 -0.519204 -0.326061 -0.521624 0.334743 -0.5503 0.297123 0.337668 0.265239 0.519785 -0.458063 0.595675 -0.273515 0.293871 -0.419724 0.203674 -0.319362 -0.367122 0.355177 -0.513811 0.536056 -0.576367 -0.530772 -0.258318 -0.469546 -0.594706 -0.570735 -0.386029 0.342636 0.317111 -0.324318 -0.310952 -0.243664 -0.289104 -0.566821 0.28876 -0.467026 -0.536056 -0.379163 -0.393809 0.572476 0.376319 0.378895 0.587462 0.442247 -0.483892 0.425358 0.410246 -0.472918 0.267863 0.502265 -0.342616 0.421751 -0.56709 -0.273045 0.249624 -0.549413 0.588733 0.38829 -0.249839 -0.280768 -0.597102 0.528575 -0.375149 -0.306699 -0.241232 0.599636 0.378256 -0.462519 0.422301 -0.506244 0.581086 0.297867 -0.583965 -0.546015 -0.516694 0.567536 -0.53291 0.321145 0.297603 0.551072 0.436808 0.522683 -0.372095 -0.360409 0.320767 0.46632 -0.52231 -0.271673 -0.450343 -0.54008 0.244471 -0.280833 0.403727 0.285441 0.229822 -0.240165 -0.587221 0.481693 -0.348051 0.353711 -0.308755 -0.570671 -0.584217 -0.53734 0.260032 0.201597 -0.385036 0.281885 0.484408 -0.490093 -0.40384 0.38086 -0.493107 -0.550376 -0.304656 -0.509976 0.324118 -0.444476 -0.522992 -0.542895 0.259236 0.287528 -0.226923 0.433035 -0.53674 0.425561 -0.253387 -0.531641 -0.268975 -0.587652 0.586104 -0.587041 -0.378276 -0.418557 -0.213333 -0.284293 0.305945 0.516841 0.541234 0.244199 -0.473005 -0.218555 -0.476182 0.472887 0.432213 0.318787 0.358168 -0.52854 -0.537345 0.237712 -0.508549 0.223246 -0.493826 0.347362 0.289964 0.313035 -0.261321 -0.489361 0.281786 0.482659 -0.222787 -0.332316 0.307274 -0.317399 0.407952 0.595296 -0.477116 0.330996 -0.55863 -0.206003 -0.269919 -0.211563 0.450628 0.268742 0.263172 -0.446412 0.552847 -0.466914 0.239583 0.304739 0.339424 0.564037 -0.318578 -0.387483 -0.573391 -0.325802 -0.512523 0.374549 -0.238289 0.295563 0.394692 -0.387421 0.520703 0.407659 -0.238648 0.407822 -0.212434 0.394613 -0.466891 0.40822 -0.375581 -0.483591 0.271388 0.451254 0.501431 0.411139 0.488793 0.443661 -0.252895 0.369782 0.563718 0.469616 0.349462 -0.307163 0.246326 -0.456636 -0.449407 0.510011 0.398366 0.230472 0.308084 0.395919 0.44017 0.406373 0.2909 0.584608 0.553758 0.23077 0.518453 0.319574 -0.253317 0.386686 0.316436 -0.423518 0.457963 -0.2146 -0.2956 -0.562923 -0.450099 -0.428835 -0.34545 0.595618 -0.267667 0.402428 -0.364322 0.550899 0.498211 0.320363 0.434282 0.52945 0.397871 -0.258291 -0.354569 0.429242 0.390509 0.545668 -0.47152 -0.235167 0.567675 0.525307 -0.359597 0.549635 -0.213792 -0.272456 0.213879 0.54032 0.545956 -0.305221 0.219825 0.305193 0.59254 -0.346293 -0.592148 0.403247 -0.219056 0.291819 -0.204762 0.436462 -0.311453 -0.466629 0.510824 -0.537082 -0.40556 -0.557305 -0.576767 -0.235719 -0.31336 -0.433367 -0.563472 0.265331 -0.365169 -0.361181 -0.398604 0.388485 0.50656 0.235389 0.462062 0.274165 -0.214774 0.493006 -0.293969 0.560847 0.310737 -0.512837 0.430829 -0.256736 0.335317 0.365929 -0.415559 -0.443979 -0.209527 -0.539504 -0.451838 -0.539211 0.245138 -0.458153 -0.360942 0.546436 0.213214 0.545888 -0.43744 0.440041 -0.420541 0.506678 -0.560384 -0.35822 -0.230024 0.441501 -0.311392 0.348474 0.21293 -0.495638 -0.425626 -0.245551 -0.301345 0.282884 -0.594063 -0.511542 0.528896 0.450705 -0.568876 0.459192 -0.306648 -0.480763 0.481405 0.574571 -0.235863 0.268208 -0.312282 -0.300331 0.305198 -0.352412 -0.30614 0.513865 0.482174 -0.524315 0.373494 0.449951 0.4842 0.298183 -0.35995 -0.25994 0.542963 0.257303 0.441907 0.468873 -0.540849 0.246366 -0.28524 0.282024 0.324801 -0.418463 -0.389846 0.378438 0.399127 0.439651 -0.549375 -0.354891 0.227739 -0.547584 -0.569828 0.416752 -0.437743 0.557665 0.42335 0.490396 -0.246028 0.446446 0.377273 0.50992 0.501504 0.535477 -0.249162 -0.343219 -0.502562 -0.546547 -0.50726 0.383066 0.226418 -0.267986 -0.380421 0.397918 0.26724 -0.262324 0.269247 -0.420914 -0.321814 -0.421631 0.446759 -0.447877 0.255653 -0.22171 -0.557723 -0.307916 0.545508 0.433908 0.334283 0.552378 0.27619 -0.246037 0.586945 0.316189 -0.223341 -0.479735 0.502669 -0.219421 0.522036 0.521235 0.445907 -0.4639 0.405053 -0.517344 -0.329635 0.34086 0.484423 -0.551263 -0.253847 -0.580127 0.205272 0.547288 0.587475 -0.466263 -0.20784 0.38927 -0.416649 -0.245162 -0.350979 -0.561038 0.432228 -0.286439 -0.488794 -0.588018 -0.305155 -0.219829 -0.428008 0.218367 0.533826 0.324993 -0.272128 -0.395413 0.567433 -0.510478 -0.403081 0.599025 -0.573413 -0.35196 0.323167 -0.404847 -0.308123 -0.538748 -0.391793 -0.351613 -0.441745 0.267285 0.390868 0.402649 0.303273 -0.476713 -0.584643 -0.541663 -0.561203 -0.420262 -0.4336 0.512692 0.449786 -0.477853 0.408556 0.367198 0.506071 0.564173 0.297181 0.455241 0.479949 0.306808 -0.207692 0.422647 0.342094 -0.253265 0.268019 -0.517417 -0.417397 0.559384 -0.424736 -0.276254 0.561065 -0.427747 -0.407249 -0.458699 -0.414942 -0.55179 0.213977 0.391528 -0.417347 -0.331765 0.41075 -0.403171 0.444452 -0.2541 0.489136 -0.399996 -0.37078 -0.508446 0.310732 0.265228 -0.332651 -0.348307 -0.391456 0.502699 0.384628 0.494169 0.283645 0.223526 -0.459894 0.597285 0.407979 0.59923 -0.425024 -0.55679 -0.27482 0.461429 -0.239036 -0.554099 0.549572 0.439295 -0.49126 -0.329578 0.430804 0.503002 -0.43073 -0.439729 -0.297568 0.217469 0.346635 0.458347 0.596276 -0.228926 0.329512 -0.465805 0.439822 -0.413284 -0.438565 0.305987 -0.295966 -0.360068 0.509276 -0.565405 -0.438756 0.529435 0.557132 0.406846 0.507558 0.588721 -0.418796 -0.316154 -0.559627 0.389699 0.472299 0.467561 -0.504676 0.494961 -0.227426 -0.420795 0.443239 -0.451572 -0.538013 -0.353779 0.494189 0.482641 0.597026 -0.371602 -0.528232 0.354844 0.456988 -0.368796 -0.250034 0.575616 -0.524122 0.543641 -0.546642 0.567731 0.45363 0.330225 0.46401 0.460804 0.21166 0.417688 0.593708 -0.340423 -0.594937 -0.21236 0.572976 -0.32243 0.384387 0.264458 -0.461284 0.215683 -0.353699 0.462733 -0.358773 0.478744 -0.355943 0.310325 -0.268964 -0.200346 0.359967 0.308871 -0.200682 -0.230041 -0.497373 -0.516097 0.326688 -0.473571 -0.277687 -0.498096 0.45984 -0.206893 -0.473273 -0.365433 0.567965 0.206138 0.378485 0.460876 -0.546311 -0.564235 -0.585415 0.202341 -0.412112 0.592491 0.212215 -0.326258 0.267428 0.487839 -0.450368 -0.482938 0.419051 0.546266 -0.204086 0.376703 0.298059 -0.394081 -0.221271 0.395578 0.272333 0.323181 0.278656 -0.556603 0.58259 -0.286785 -0.497714 0.251292 -0.4588 -0.314301 -0.4047 0.413283 0.231943 -0.586233 -0.403786 -0.486597 -0.569879 -0.560667 0.459218 0.394619 0.361712 0.274766 -0.451128 0.37619 -0.323616 0.572815 -0.381496 0.431074 -0.393463 -0.466654 0.599117 0.473368 0.363029 0.217532 0.351305 -0.464055 0.293555 -0.572442 0.264879 0.254611 0.239124 -0.31681 0.413524 -0.234059 0.365191 -0.204235 0.253964 -0.333305 -0.311638 -0.439241 0.562988 -0.37596 0.242117 -0.201226 -0.497034 -0.495491 0.283263 -0.356777 0.560186 -0.503774 0.29155 0.489686 -0.385612 0.562507 -0.373828 0.360193 0.505043 0.393359 0.284555 0.254156 -0.450423 -0.517747 -0.561948 0.430473 -0.465361 0.24751 0.242257 -0.302424 0.560187 0.325119 0.466678 -0.470831 -0.421466 0.318882 -0.458775 -0.487609 -0.322685 -0.242884 -0.47988 -0.206766 -0.207604 -0.302151 0.591473 -0.47773 -0.469505 0.285675 -0.488162 0.507904 -0.220697 0.215648 -0.399824 0.58867 -0.308613 -0.207141 -0.50491 0.333734 0.268183 -0.562376 -0.240459 -0.211316 -0.442955 -0.246147 -0.253498 -0.440743 0.580837 0.553667 0.359648 -0.303169 0.57389 0.456754 -0.324216 -0.391315 -0.426372 0.452055 -0.593797 0.376795 -0.560362 -0.567867 -0.376993 -0.288054 -0.265002 0.53849 0.584058 0.29291 -0.351969 -0.436749 -0.540152 0.268585 -0.381756 -0.233356 -0.384011 0.212304 0.233093 0.358232 -0.388782 -0.567916 -0.488008 -0.278433 -0.548066 0.430014 -0.321007 -0.576219 0.294828 -0.427684 -0.565444 -0.252136 -0.271191 -0.493827 -0.244611 0.514371 -0.498345 -0.287176 -0.388694 0.258419 -0.536952 -0.436793 -0.555196 0.319118 -0.457817 -0.526607 -0.407842 0.572716 0.243183 -0.583317 -0.518601 -0.521187 -0.379975 -0.203299 -0.373972 0.305428 0.55015 0.368883 -0.355235 -0.55537 -0.434804 0.436313 0.460721 0.521678 -0.275572 -0.591698 0.402683 -0.41112 0.521248 -0.551327 -0.476136 0.406145 -0.598977 -0.331633 0.463029 -0.367263 0.568981 -0.340478 -0.412605 0.333606 0.567151 0.48235 -0.23819 0.352492 -0.507888 -0.254658 -0.360574 -0.210311 -0.435831 0.513761 -0.428947 0.396693 -0.2846 0.227631 0.599327 0.385382 -0.486542 0.336311 0.361201 0.48417 0.592622 -0.453114 -0.399631 0.512747 0.205369 -0.334322 0.507532 -0.232245 0.468186 0.489338 0.421113 0.43399 -0.342451 0.232387 -0.459105 0.572741 -0.455385 -0.204923 -0.289279 -0.290478 0.344178 -0.528964 0.355816 -0.243843 -0.221084 -0.491514 0.2079 -0.549852 -0.295805 -0.254003 -0.498796 0.406637 0.452599 -0.409197 0.329231 -0.236526 0.324476 0.52512 0.526699 -0.504293 -0.502144 -0.389981 -0.521311 -0.260395 -0.322072 0.572026 0.341142 0.375048 -0.590224 0.535618 -0.48392 0.592864 -0.537635 -0.488687 -0.486947 0.412117 0.588786 0.299136 -0.34193 -0.527213 -0.473929 0.48487 0.277903 0.208811 -0.244162 -0.387582 -0.516573 -0.536478 -0.298431 -0.318541 -0.218145 0.37447 -0.532755 0.517028 -0.233137 -0.538687 -0.343481 0.522136 0.483474 0.489511 0.475375 -0.455719 0.45754 -0.246156 -0.217362 -0.541349 0.295355 0.242438 0.589424 -0.302795 0.403708 0.529626 0.465039 0.368573 -0.382708 0.27615 0.335177 -0.450031 0.324066 -0.548687 -0.260883 -0.376934 0.205854 0.384347 0.378839 -0.217839 0.528624 -0.529737 -0.399227 -0.542177 -0.356393 0.240017 0.550196 0.484286 -0.386234 -0.415689 0.323009 0.203355 0.411996 0.324141 0.274844 0.573383 0.289445 -0.397132 0.201429 -0.470606 -0.357636 0.249391 0.400672 0.382093 0.36665 -0.434023 -0.590405 -0.218521 0.225081 0.393237 0.484643 -0.303394 0.26974 -0.46276 -0.239835 0.428991 0.24399 -0.505302 -0.412059 -0.431568 -0.285177 0.468367 0.502969 0.477983 0.229552 -0.227976 0.437841 0.488283 -0.231896 -0.578749 -0.48441 0.469202 0.286122 0.373062 0.461899 0.47689 -0.27022 0.222658 -0.232146 0.50124 0.571862 -0.575892 -0.260585 -0.317283 0.215218 0.364212 0.503772 -0.428027 -0.407919 -0.488075 0.205718 -0.216894 0.510223 0.249128 0.540193 0.204067 -0.479584 0.321758 0.444134 0.23265 0.535073 0.358978 0.430277 0.428739 -0.588094 0.308013 0.48178 0.26975 0.364459 0.334372 -0.269247 -0.216708 0.318398 0.489 -0.577506 -0.421882 0.318512 -0.351423 -0.567866 -0.586984 0.296977 0.549772 -0.419904 -0.370761 -0.338401 0.289016 -0.243571 0.356478 -0.444188 0.3245 0.567128 -0.334272 -0.527243 0.234429 -0.465858 -0.45107 0.316411 -0.541593 -0.420364 -0.520678 -0.217486 0.366412 -0.315417 -0.423026 0.568367 0.3813 0.493909 0.221135 -0.401268 0.316261 -0.276978 -0.229961 0.368172 -0.329704 -0.283908 0.5473 0.260076 0.362452 0.236601 -0.335099 0.533004 0.540464 0.431971 -0.248064 0.217164 -0.300364 0.331656 -0.487531 -0.30188 0.488364 -0.267617 -0.487183 -0.549376 -0.503186 -0.235113 0.590946 0.554683 -0.395029 -0.493009 0.419892 0.207419 -0.204315 0.250582 -0.238904 0.50908 0.538251 0.362933 0.304389 0.475069 0.298286 0.24586 -0.478298 -0.220642 0.387197 0.51642 -0.423824 0.527346 -0.262914 0.319984 0.330391 0.229087 -0.205761 -0.494076 -0.504328 0.317725 0.279326 0.291847 0.364128 0.230951 -0.226141 0.558414 -0.47121 -0.278104 0.463688 -0.235943 -0.427152 -0.26272 0.457049 -0.543063 0.325941 0.363992 0.424374 0.362892 0.568329 0.539827 -0.341213 0.444434 0.384001 0.546547 0.320626 0.241767 0.247519 -0.380692 0.261284 0.265946 -0.384544 -0.592493 -0.285777 0.59742 -0.549227 0.248575 0.435488 0.302863 -0.415547 0.267177 -0.2319 0.483953 0.413431 -0.583988 -0.3884 0.26194 0.479871 0.581862 0.409817 0.219754 0.516529 0.449484 0.561339 0.371506 0.201756 0.31306 0.547627 0.313076 -0.261657 0.235774 -0.346998 0.423001 0.352147 -0.592518 0.384146 -0.321008 -0.280601 0.452693 0.522838 0.418826 0.462882 -0.558251 0.528898 -0.571568 -0.368391 -0.440611 0.305056 0.542258 0.468476 0.419168 0.547048 0.353298 0.510667 0.269589 0.230189 -0.3581 0.4203 -0.303581 0.387678 -0.339753 -0.282492 0.471458 -0.243977 -0.244752 0.348492 0.565076 0.404095 -0.323188 -0.324364 -0.548268 -0.281192 0.247625 0.422719 -0.250691 -0.426356 0.566467 0.370807 -0.296397 0.251642 0.327238 -0.205068 -0.495673 -0.410687 -0.523926 0.411639 -0.289605 0.578562 -0.394324 -0.488436 0.411679 -0.235458 -0.22364 0.216072 0.221049 0.461185 0.467848 0.4406 0.275416 0.382382 -0.586338 -0.471535 -0.486852 -0.413173 -0.251379 -0.52619 -0.416401 0.241204 -0.367913 -0.560078 -0.324991 -0.537249 -0.287516 -0.356359 -0.429136 -0.362274 0.532763 0.491418 -0.483906 0.500791 0.406199 0.398343 0.388628 0.462641 0.496824 0.345503 0.243982 -0.214653 -0.460601 -0.494431 0.309754 -0.505212 -0.290513 0.462132 -0.50122 -0.509705 -0.589903 -0.330019 -0.547596 -0.335072 0.415379 -0.466235 -0.563326 0.59086 -0.2519 -0.513663 0.541995 0.404171 -0.215505 -0.206928 0.429225 -0.224144 -0.224682 -0.597659 0.346822 0.416697 -0.213305 -0.421562 0.563819 -0.400557 -0.297713 -0.377374 0.533095 0.272216 -0.247847 0.465324 0.595778 -0.2962 0.243631 0.592737 -0.426589 0.352654 0.492366 -0.416525 0.386638 0.471905 0.331301 -0.524058 -0.230823 -0.212996 -0.275419 0.555743 -0.367788 0.291657 0.345802 -0.201872 -0.493829 0.412285 0.328742 -0.242381 -0.245892 -0.39973 0.563565 -0.441589 0.320062 0.273059 0.332905 -0.466679 0.280745 -0.312113 0.24273 0.398937 -0.46851 0.322754 -0.240033 -0.512631 -0.279421 -0.463118 -0.436149 -0.237374 0.559293 0.351693 0.339235 -0.592892 -0.576708 -0.246526 -0.418989 0.555998 -0.456686 -0.284751 0.443886 0.582644 -0.309743 -0.566293 -0.55047 -0.502103 -0.3141 -0.201961 -0.272168 -0.273313 0.299857 0.268315 0.565302 0.206345 -0.303064 0.318707 0.288478 -0.470258 0.547114 -0.344113 0.440217 -0.407348 0.300012 -0.407651 0.404162 0.421056 -0.200803 -0.422865 0.513684 0.388093 -0.520305 -0.563698 -0.208151 -0.407004 0.270506 0.45285 -0.597332 -0.46504 0.469507 -0.469524 -0.553655 0.577688 0.579952 -0.520564 0.229762 0.510383 0.215456 0.55885 -0.308036 0.578873 0.31697 -0.289266 -0.491921 -0.411646 -0.226997 0.435097 0.371751 -0.535111 -0.213337 -0.245338 -0.564331 0.593166 0.429801 -0.203395 -0.317871 0.31638 0.413992 0.549144 -0.359952 -0.467341 0.44196 0.367602 0.515222 0.365413 0.558388 -0.571658 0.36647 -0.502507 -0.516842 -0.534109 -0.488171 -0.469554 0.456134 -0.408075 0.579487 -0.403035 0.377854 0.435157 0.27335 -0.221635 0.41132 0.554458 0.558118 -0.574062 -0.362868 -0.509673 0.558659 -0.3532 -0.597924 -0.430879 -0.236691 0.398858 -0.20455 -0.507621 -0.234586 0.309639 -0.522549 -0.423696 0.521062 0.355628 -0.305929 -0.334968 -0.444527 -0.479381 0.449443 -0.419863 0.344173 0.300678 0.252737 0.426624 0.537554 -0.533229 0.20036 -0.340771 -0.554683 0.205352 0.5617 0.325199 -0.228487 -0.248679 -0.314839 -0.364063 0.487264 0.207736 -0.47304 0.227325 0.370623 -0.270698 0.317478 0.292405 0.307868 -0.332773 0.438076 0.475795 -0.462552 0.344493 0.393017 0.436404 -0.373298 -0.220282 0.2785 0.456932 -0.20816 0.220106 0.3391 0.3978 -0.410267 0.516536 -0.388546 0.514907 0.316806 0.228489 -0.567957 -0.590104 -0.309033 0.387593 0.257993 -0.236656 0.572156 0.391793 0.369272 0.558224 