-0.425611 -0.200838 -0.418927 0.520368 0.591219 -0.322311 0.360328 -0.410006 0.415523 0.516638 -0.554455 -0.587164 -0.514968 -0.209904 0.214805 -0.252656 0.309424 -0.502447 -0.403112 0.534776 -0.461913 0.239277 -0.219049 -0.595903 -0.541753 -0.346362 -0.5191 0.438946 -0.377915 -0.503885 0.475385 0.233136 -0.210036 0.513159 -0.358397 -0.207479 0.505022 -0.24255 0.496039 0.358644 0.550993 0.334002 0.238532 -0.304161 -0.421798 0.209166 -0.564588 0.281991 0.577884 0.387771 0.443085 -0.35659 0.442007 -0.272178 0.437593 0.575839 -0.335827 0.258679 -0.282788 0.590805 0.370886 0.201769 -0.242274 -0.310097 0.278909 0.356439 0.293119 -0.2701 -0.31217 -0.273172 -0.573099 0.338349 0.358852 0.483285 -0.559867 -0.346227 -0.474062 -0.466227 0.431755 -0.536494 0.474193 -0.432657 0.205962 -0.502438 0.245035 0.267895 -0.224621 -0.32706 0.203271 0.225113 0.484435 0.293892 0.519335 -0.274832 0.536443 -0.261754 -0.304258 0.377947 -0.397168 0.428353 -0.255995 0.460337 -0.302492 -0.464088 -0.597742 0.268902 0.260541 0.240673 0.322912 -0.330966 -0.326831 0.46999 0.287131 -0.541311 0.328323 -0.326502 0.265912 -0.464933 0.574236 -0.474168 -0.218223 -0.454155 0.305863 -0.258641 -0.210334 -0.48813 0.582327 -0.568255 -0.406057 -0.553757 0.279229 -0.318697 0.267099 -0.513546 0.312652 0.213313 0.330783 0.40964 0.362297 -0.265421 0.257887 0.509797 -0.31167 0.309672 -0.387617 -0.452107 -0.343688 -0.211988 -0.554435 0.452121 -0.313247 -0.397962 -0.332904 0.280676 0.475882 -0.267832 0.299647 -0.573984 0.455681 -0.329045 0.347084 -0.510145 0.551956 0.301558 0.447667 -0.573477 -0.419115 -0.404944 -0.379041 0.447219 0.231717 -0.588693 -0.49268 0.542682 0.246333 0.391659 -0.252878 -0.284189 0.223937 0.511224 -0.339427 0.432517 -0.256139 -0.51056 0.523081 -0.490103 -0.272831 -0.286162 -0.441473 -0.313872 0.300571 -0.281222 0.207335 0.358282 -0.551159 -0.502875 0.554206 -0.249128 0.372852 -0.445525 -0.317468 -0.25073 -0.214424 0.35581 0.365736 0.343702 0.375213 -0.219755 -0.590335 -0.413819 0.447543 -0.232079 0.452086 0.412095 0.240895 -0.320871 0.393249 0.548662 -0.508494 -0.263569 -0.574154 0.540537 -0.232194 0.531915 -0.33833 -0.564023 0.462429 -0.387623 0.27731 0.339453 -0.257338 0.476568 0.231925 0.258259 -0.529702 0.214649 -0.529099 0.253224 0.515478 0.583823 -0.330874 0.239682 0.543948 -0.307818 -0.427022 -0.339463 0.307594 -0.334948 -0.441262 -0.279937 0.515036 -0.27482 0.249772 -0.405428 -0.313183 -0.219059 0.337097 0.43736 -0.486045 -0.302304 0.392448 0.597428 -0.457798 -0.23956 0.525583 -0.470024 -0.414084 0.284753 -0.272889 0.429106 0.279432 0.230129 -0.506905 -0.497575 0.412666 0.506018 0.441645 0.505155 -0.235822 0.398504 0.264212 -0.402024 -0.213372 -0.342152 -0.376959 0.472333 0.419423 -0.272921 -0.36995 -0.519279 -0.570374 -0.58773 -0.328743 -0.511463 0.437599 -0.32597 0.378494 0.380108 -0.414771 -0.478128 0.493518 0.44812 -0.252922 0.439271 0.491536 -0.405489 -0.583847 0.27393 -0.286102 -0.477154 0.29536 0.425513 0.531118 -0.265721 0.527881 -0.337618 -0.294309 0.534342 -0.506779 0.570103 0.532162 0.260225 -0.56881 -0.228598 0.319548 -0.578614 -0.508876 -0.288762 -0.409749 0.585882 -0.298331 0.55903 0.309237 0.53987 -0.266984 -0.414331 -0.285565 -0.515154 0.208712 0.309288 -0.449504 0.543168 -0.492029 0.598374 0.386412 0.439408 0.307755 -0.277382 -0.29181 0.433009 -0.527226 -0.35794 0.521897 0.267167 -0.216847 0.258869 -0.464356 -0.224731 -0.233967 -0.458163 -0.207361 0.305122 0.49601 0.53211 0.399757 -0.346615 -0.412459 -0.339775 -0.57765 -0.264966 -0.583396 -0.460848 -0.325872 -0.204138 -0.508685 0.580218 0.559872 -0.231163 -0.467844 -0.443702 0.328391 0.394585 -0.494872 -0.275207 0.341302 -0.467018 -0.464008 0.572451 -0.213445 -0.349719 0.43889 0.438175 0.415276 -0.254644 0.43261 -0.350722 -0.488664 0.501852 -0.479666 -0.256058 0.317231 -0.345666 -0.250942 0.571119 0.294706 0.586516 0.450774 0.332358 -0.29403 0.349171 0.285349 0.487641 0.445199 0.357548 -0.366552 -0.345834 0.336682 -0.465022 -0.209617 0.45201 0.556979 0.237918 0.263217 -0.473804 0.557278 -0.283887 0.522869 0.216639 -0.361022 0.492934 0.587793 0.411357 -0.530267 0.512098 0.51252 -0.244207 -0.202634 0.277251 0.452401 -0.423098 0.574031 -0.452304 -0.478513 -0.264967 0.24313 0.567108 0.596668 -0.355398 -0.454844 -0.466818 0.431604 -0.236861 0.59315 0.500089 -0.265168 -0.255228 -0.230171 0.536097 0.376476 0.548218 0.558965 -0.450529 -0.293791 -0.482567 0.273423 0.315998 -0.260411 -0.339265 0.466972 0.49911 -0.36254 -0.571337 0.461871 -0.301395 -0.508499 -0.457953 -0.564939 0.423097 -0.31441 -0.207365 0.45505 0.29286 0.476222 -0.569021 0.471478 -0.275332 -0.42247 0.426729 -0.554104 0.322688 0.577737 0.330068 0.289123 -0.201406 -0.258829 -0.591366 -0.332134 -0.42934 0.516351 -0.351549 -0.266492 -0.421847 -0.473551 -0.573303 0.5767 -0.290259 -0.276631 -0.497113 0.373491 0.569288 -0.50729 -0.3462 0.24488 -0.247779 0.373902 0.34906 -0.226209 0.329356 -0.219484 -0.327414 -0.398649 -0.55062 -0.237999 -0.241035 -0.346252 -0.243811 -0.570976 -0.292966 0.365551 -0.577087 -0.540073 0.379847 -0.297054 0.466041 0.211861 0.312721 -0.411128 -0.285789 0.511075 -0.260618 -0.337146 -0.310869 -0.49444 0.323978 -0.544581 0.599444 -0.427212 0.450937 0.288494 -0.240804 0.310433 -0.510864 0.416867 0.370689 0.323478 -0.385269 0.535735 -0.568746 -0.299974 0.490166 -0.39379 0.529209 0.268901 -0.545268 -0.497124 -0.45775 -0.339597 0.529118 -0.365268 0.284406 0.531114 0.34937 -0.365813 -0.297024 0.410841 -0.510341 0.4768 -0.225633 0.219697 0.303096 -0.556973 0.524377 0.32946 0.253035 -0.553303 0.383474 -0.207115 0.351266 -0.25096 0.238715 0.43548 -0.466432 -0.388607 -0.257981 -0.462966 0.325124 -0.321924 0.516509 0.502998 -0.346113 0.306984 0.340717 -0.462431 -0.487028 0.340272 0.375192 -0.474799 -0.288032 0.53369 -0.471709 0.507091 -0.216594 -0.246336 0.480399 0.502647 -0.405634 -0.556099 -0.323731 0.438333 -0.33192 0.536502 -0.554358 -0.548737 -0.474706 0.388403 0.279082 -0.343249 -0.324509 0.228781 -0.338918 0.23142 -0.541059 0.490903 0.406048 -0.27555 -0.307842 -0.445082 0.423352 0.30459 -0.276246 -0.444473 -0.588488 0.451005 0.377308 0.317906 0.411213 -0.460778 0.336845 0.417063 0.480918 0.480862 -0.504665 -0.25096 0.519763 -0.426075 -0.248544 -0.351337 -0.258271 -0.350029 -0.482128 0.351805 0.217261 0.445614 0.364265 0.296998 -0.555291 -0.233942 -0.303805 0.587973 -0.440452 -0.219576 -0.484595 -0.526028 -0.373255 0.378445 0.543993 -0.348724 -0.542833 0.315359 0.257016 0.35228 -0.390218 0.472262 0.471124 0.51759 0.274282 -0.200572 0.308079 0.501743 -0.202659 -0.536717 -0.210438 -0.507905 0.279779 0.260368 -0.435621 0.349101 -0.59887 -0.519861 0.481598 -0.58157 -0.374617 0.514757 -0.508744 -0.36403 -0.496688 -0.458054 -0.386187 0.460396 -0.389222 -0.20276 0.333413 -0.250682 -0.373224 0.202277 0.407993 -0.210701 0.565991 -0.465306 0.341958 -0.386137 0.330082 -0.545772 0.41015 0.382235 0.326933 0.224216 -0.536856 -0.592629 0.24544 -0.364901 0.578754 0.436043 -0.301061 0.419479 -0.330685 0.481666 0.249807 -0.377035 -0.233607 0.45933 0.344264 0.220886 -0.558443 0.391199 -0.208422 -0.457316 -0.331703 0.531922 -0.394709 0.275783 -0.357017 0.38616 0.384887 0.266781 0.522464 -0.579034 0.409656 -0.347848 0.213436 -0.371981 -0.495149 -0.209035 0.322657 0.459616 -0.292358 -0.442759 -0.492848 0.256199 0.592114 -0.496229 0.249091 0.581307 -0.475183 0.226846 -0.268203 0.510478 0.428125 0.590203 -0.46047 -0.468147 0.385218 -0.402203 0.339825 0.355801 0.581381 0.246517 0.527292 -0.489219 0.356979 -0.291094 -0.314892 0.388533 -0.521085 -0.493798 0.228555 0.334384 0.472852 -0.491839 0.394988 -0.344616 0.299669 -0.406842 0.418957 0.429436 0.212125 0.401117 -0.522102 0.270033 -0.368385 0.224743 -0.325776 0.210713 0.295714 -0.211305 0.550191 -0.267072 0.547054 -0.276821 -0.569973 -0.341947 -0.426787 -0.309115 0.532714 0.592076 -0.342979 0.49804 0.375946 -0.467383 0.411304 -0.362362 0.234608 0.411355 -0.303347 0.347674 -0.394432 0.255419 -0.432685 0.370107 0.543682 0.466499 0.379003 0.555416 -0.273291 -0.426609 -0.301486 -0.24609 -0.418405 -0.317757 0.345621 -0.595072 0.355052 -0.561272 -0.415025 0.353137 -0.493563 -0.445368 -0.384175 0.227514 -0.223582 0.342061 0.443095 0.461162 0.245597 0.583252 0.44435 0.331271 -0.228816 0.587139 -0.423922 0.202548 -0.359913 0.39005 0.2487 -0.401553 0.271687 0.39735 -0.331766 0.576283 0.237431 0.56858 0.53786 -0.481182 -0.392394 0.410517 -0.208598 -0.3338 -0.260981 -0.312598 0.341413 -0.381964 -0.457766 -0.327883 -0.237826 0.366895 0.263702 0.557036 -0.435326 0.568238 -0.306539 -0.244035 0.59182 -0.483647 0.301684 -0.362483 0.510396 -0.256198 -0.52376 0.357694 0.488248 0.236842 0.260064 -0.553511 -0.432096 0.523111 0.300503 -0.253772 0.344981 0.345124 0.533664 -0.289763 -0.452053 0.212221 -0.530043 -0.337399 0.294503 0.37024 -0.368119 0.249958 -0.2455 -0.538851 0.540215 -0.438325 -0.530042 -0.531861 -0.491056 0.307765 -0.367585 -0.518921 0.4899 0.515919 -0.43056 -0.338971 0.40991 0.598895 0.361998 -0.201412 -0.530369 -0.387409 0.423187 0.324116 -0.340895 -0.457351 -0.551867 -0.206108 0.432591 0.426171 0.208185 -0.261831 -0.354071 0.273504 0.598472 0.218283 0.514654 -0.389251 0.524963 -0.452083 -0.345248 0.574337 -0.485706 0.538882 -0.502471 -0.381449 0.330194 0.328751 0.504006 -0.400336 0.477171 -0.431317 -0.224311 0.529666 -0.533936 -0.215132 -0.491183 0.376299 -0.569915 0.495186 0.480233 0.383043 -0.519914 0.494693 -0.314049 0.326397 0.513648 -0.383045 -0.578283 0.487234 0.49446 0.591402 -0.491836 0.562531 -0.482882 0.334136 -0.534352 0.373542 0.428973 -0.278186 -0.363263 -0.534241 -0.362298 -0.21487 0.429998 0.2528 -0.404469 0.5101 -0.411904 0.558055 -0.330349 0.4579 -0.20937 0.518967 0.299676 -0.381364 0.401736 0.53985 0.432893 0.304615 -0.456823 -0.387348 -0.401618 0.357597 0.57008 -0.308306 -0.407844 -0.365129 -0.597647 0.255557 0.281248 0.560262 -0.552527 0.447018 0.454832 0.44831 0.309049 0.372947 0.333106 0.524188 -0.246197 -0.403614 0.5987 -0.271254 -0.252839 0.29367 0.563732 -0.217071 0.554044 0.301678 -0.415723 -0.520531 -0.585645 0.435439 0.224023 -0.421937 -0.392121 0.524259 0.594294 0.387168 0.322324 0.38122 0.53477 -0.202315 -0.26238 0.297691 0.253982 -0.402876 0.311701 0.358378 0.397942 -0.405943 -0.205866 -0.380884 -0.325716 0.247292 0.44889 0.534097 -0.226802 0.272475 -0.240406 -0.567286 -0.388389 0.334015 -0.408477 0.235813 -0.472708 -0.596482 -0.571959 -0.478733 -0.345417 -0.545715 -0.354537 0.377968 -0.416224 -0.470521 0.220609 0.551018 0.20797 -0.309087 0.577425 0.422866 -0.586656 -0.328707 -0.596713 0.256289 -0.533465 -0.336437 -0.481817 -0.46934 0.364847 0.554671 -0.577669 0.594454 -0.590721 0.402085 -0.448442 -0.418279 -0.444298 0.393712 -0.554425 0.58314 -0.452006 -0.575891 -0.233982 0.431864 -0.585092 -0.584286 0.292223 0.548399 -0.282282 -0.251089 -0.375435 0.365821 0.416354 0.460744 0.409536 0.25867 0.563461 0.395365 0.479792 -0.396273 -0.413763 0.427645 0.3593 -0.588929 0.52653 -0.372306 -0.509387 0.321698 -0.497661 -0.49652 -0.426325 0.368739 -0.589751 -0.38723 -0.591333 -0.334427 -0.364063 0.311082 -0.338117 0.364945 -0.34003 0.366612 0.475377 0.375158 -0.470751 0.480235 -0.226868 0.486863 -0.213078 0.486162 0.257596 0.409507 -0.582661 0.345022 -0.2206 -0.385426 -0.447216 0.410046 -0.440347 0.495632 0.256882 0.408173 0.42484 -0.300369 0.369129 -0.442329 0.207119 -0.248384 0.572424 0.310559 -0.303372 -0.353654 0.448022 -0.273182 -0.548905 -0.399465 -0.344681 0.289537 -0.302675 -0.407439 0.376436 -0.298529 0.301604 -0.373336 -0.540319 -0.267053 -0.379879 0.59428 -0.384408 0.316268 0.236275 0.339099 0.523372 -0.350477 0.218542 -0.497851 0.207685 0.578534 -0.343293 0.383317 0.235764 -0.327304 -0.271076 -0.443543 -0.389045 0.588796 0.475545 -0.206277 -0.556532 0.424964 0.31467 0.370052 -0.319195 -0.431644 0.500455 -0.5461 0.465329 0.351861 -0.394988 -0.391889 -0.555215 0.409354 0.508582 0.229677 -0.572384 -0.440188 -0.577456 -0.40941 -0.358826 -0.559138 0.256014 0.595501 0.578643 0.457748 0.342766 0.357663 0.430324 0.52874 -0.382647 0.204019 0.413058 -0.442087 0.454447 0.487165 -0.29255 -0.272555 -0.351542 -0.269907 0.415417 0.503815 -0.577293 -0.256164 0.228495 0.546522 0.543321 -0.566174 -0.394747 0.546893 -0.459758 0.262468 -0.280361 0.300871 0.403078 -0.562087 -0.298433 -0.576679 0.52738 0.483342 0.217746 0.367018 0.380404 0.317446 0.541453 0.224346 -0.498397 0.353519 0.421837 -0.410661 0.225168 -0.243411 0.238651 -0.399327 0.252933 0.521907 -0.512533 0.231746 0.422117 0.268089 0.413532 0.564782 -0.379249 0.290688 -0.57269 0.226001 -0.274098 0.321459 -0.289502 -0.27878 -0.203456 0.413113 -0.289612 0.208925 0.594052 -0.2753 -0.369449 0.519512 0.358381 -0.549783 -0.511549 0.32893 0.245196 -0.298396 -0.371176 -0.477133 -0.377862 -0.29062 0.535106 0.379203 -0.376559 -0.336741 -0.494584 0.494706 0.266453 0.384037 -0.420272 -0.563649 0.363357 -0.200166 0.43922 0.309164 0.567544 -0.484557 0.499329 0.431807 -0.518264 0.221896 0.224801 -0.465814 0.36109 0.269257 -0.562819 0.44683 -0.294951 -0.260708 0.324294 0.551254 0.569654 0.594489 0.499571 -0.544871 0.394844 0.230683 0.483368 -0.5109 -0.546349 0.22582 -0.213062 0.235343 0.319646 0.242184 0.465921 0.535779 0.429249 0.304559 0.356564 0.546655 -0.216197 -0.371053 -0.473836 -0.544024 0.262109 -0.329352 0.442495 -0.383184 0.460746 0.406081 0.418805 0.562243 0.272128 -0.376874 -0.316232 0.3801 -0.300868 -0.231994 0.233105 -0.394889 -0.545862 -0.370384 -0.288937 0.350497 0.378936 -0.276349 -0.298439 0.245795 -0.305394 0.59926 0.546199 -0.554054 0.330512 0.221771 -0.562065 0.45883 -0.340902 0.296283 -0.582783 -0.379521 0.40336 -0.35946 -0.494462 -0.272367 -0.227925 0.421482 0.450986 -0.221191 0.361584 0.345115 0.459622 0.231576 -0.23316 -0.430362 0.574641 0.377662 0.465753 0.2798 -0.342377 -0.360072 0.423793 -0.344426 -0.35709 0.256277 0.408578 -0.242324 0.405337 0.268723 -0.40176 0.45444 0.508968 -0.554402 -0.569224 0.534937 0.386368 0.481903 -0.276563 -0.284939 -0.391946 0.352328 0.542608 0.268724 0.468552 0.586442 -0.236533 0.446714 0.472984 0.320222 -0.435317 -0.553809 -0.350168 -0.231845 0.462042 0.260385 0.458001 -0.254512 0.207365 0.548554 -0.460684 0.546231 -0.375879 0.442717 0.59406 -0.491071 0.218098 0.451061 -0.280592 0.594998 -0.59969 -0.596622 -0.468096 -0.2583 -0.374371 -0.351379 -0.541851 0.532271 0.490554 0.366592 0.337928 0.31399 0.502543 0.524293 -0.447957 -0.525769 -0.574674 -0.305339 0.573526 -0.318232 -0.370493 -0.382952 0.567221 -0.430073 0.490212 0.34239 0.254328 -0.384167 -0.421431 0.540006 -0.227751 0.517036 -0.388167 0.445195 -0.386014 0.509591 0.433038 0.268851 0.407766 0.258035 0.49559 -0.326119 -0.256804 -0.50679 -0.218746 0.547624 0.312571 -0.248922 -0.487035 0.262432 -0.457544 0.229556 -0.264566 -0.490841 0.597332 0.570311 -0.3493 -0.44284 -0.206716 0.28434 0.596426 -0.27196 0.496624 0.209736 -0.214999 -0.456708 -0.244191 -0.563125 -0.584672 -0.581088 -0.402842 0.474925 -0.247829 0.358246 0.467395 -0.280007 0.47455 0.572817 0.472848 -0.554834 -0.254721 0.360391 -0.297807 0.407667 0.577482 0.264482 0.340155 0.332466 -0.257172 0.442528 0.333298 -0.388387 -0.274501 0.379022 -0.343757 0.435197 -0.545397 0.497389 0.319104 -0.325682 -0.493812 -0.47691 -0.32957 -0.42195 0.500087 0.311308 0.587012 -0.241232 0.260899 0.208864 -0.55411 -0.203134 -0.439649 -0.542711 -0.20558 -0.255339 -0.458557 -0.533359 0.541624 -0.374869 -0.419786 0.475095 -0.385872 0.468312 -0.336582 -0.251428 -0.321237 0.590198 -0.555085 -0.519639 0.201302 0.460057 0.507226 0.447986 0.548724 0.29056 0.509032 -0.575308 -0.481983 -0.541676 0.320796 0.309256 -0.247666 -0.402919 -0.232364 -0.563416 0.297535 -0.493525 -0.216888 0.453611 0.364365 0.334121 0.509826 0.368302 -0.55305 0.410374 -0.303082 -0.515879 0.219085 -0.3535 -0.441355 -0.285115 -0.540388 -0.543651 -0.32015 -0.522887 -0.341432 0.557912 0.366437 0.443068 -0.436193 0.393333 -0.573072 -0.290024 0.428009 0.243606 0.560439 0.208254 0.30736 0.458103 0.349167 -0.312025 0.437998 0.541858 -0.396151 -0.323923 -0.438367 0.571619 0.226467 -0.403597 -0.505166 -0.52384 0.575924 -0.366432 0.483999 0.510794 -0.405525 -0.523765 0.292756 0.247959 -0.250548 -0.521252 0.289137 0.300354 -0.554515 0.57008 0.351154 0.325286 0.426013 -0.410362 0.516253 0.343178 0.343976 -0.365301 0.532565 -0.32564 -0.585142 0.472028 -0.539764 0.389883 -0.476332 -0.353959 -0.253882 0.354564 0.370964 -0.589906 0.286082 0.408994 0.400026 0.266791 0.387555 0.315704 -0.439324 -0.446976 -0.560113 -0.273366 0.396822 0.463931 -0.306571 -0.330598 -0.583421 -0.564751 0.453587 -0.499562 0.348041 -0.386205 0.358784 0.308293 -0.489641 -0.377195 -0.592129 -0.2862 0.277885 0.239654 -0.568626 0.26199 0.490756 -0.22155 -0.400486 0.397957 -0.487464 -0.484123 0.486071 0.244356 -0.547686 0.225467 0.272111 -0.328766 0.261798 0.534452 -0.538673 -0.582472 0.223184 -0.573772 0.525134 0.372197 -0.355892 0.458847 0.248736 -0.417675 0.324752 -0.536238 -0.554809 0.546859 0.433425 -0.247032 -0.477754 0.201527 -0.233526 -0.324607 0.347029 -0.371258 0.553124 -0.544883 0.533307 0.598283 0.205701 0.454922 0.599525 0.577117 -0.283092 -0.205048 0.253653 0.461783 0.581875 0.245838 -0.483195 0.231824 -0.4472 0.438179 0.339266 0.438566 -0.370983 0.305477 0.495269 0.203458 0.306743 0.539207 -0.215082 0.447574 -0.387381 0.32586 0.310507 0.506895 0.334391 -0.338213 -0.581537 -0.218623 -0.270267 0.523028 0.406693 0.543897 -0.534992 0.273831 0.284095 0.54703 -0.414816 0.542052 -0.430574 -0.483029 -0.594022 0.438621 0.598021 -0.328078 -0.581344 0.233823 -0.577592 -0.301473 -0.460825 -0.462658 0.296709 0.416397 -0.482578 -0.436848 -0.207397 -0.278116 -0.341119 0.576977 -0.373981 -0.407428 0.356161 -0.543362 0.418971 0.246336 -0.420139 0.224717 0.318682 0.428374 0.599563 0.314411 0.385099 -0.208378 -0.309264 0.265358 -0.29041 0.23857 -0.314036 -0.580323 -0.226766 -0.212804 0.535653 0.363754 -0.478634 0.255594 0.257349 -0.485156 0.562533 -0.368666 -0.478889 -0.555042 -0.306809 0.415869 0.575543 -0.353852 -0.42285 -0.449215 0.404177 0.412837 0.205097 0.561007 -0.238437 0.504894 0.339697 0.272768 -0.507583 0.587884 0.221422 0.435236 0.599944 -0.599275 0.355745 0.581297 0.461459 -0.242732 -0.262566 -0.529002 0.449903 -0.301974 -0.507456 0.208186 0.402552 0.42943 -0.399823 0.42094 0.253755 -0.222561 -0.268704 -0.369421 0.397992 -0.396719 -0.415893 -0.561561 0.559617 -0.255396 -0.438276 0.282111 0.259652 -0.464803 -0.576207 0.259242 0.505957 0.439462 -0.28566 -0.504825 0.421036 0.34421 -0.427265 -0.302725 -0.369305 -0.253954 0.421703 -0.24841 -0.247606 -0.34083 -0.598955 0.253775 -0.481874 -0.479574 -0.502119 0.451186 -0.485943 -0.360084 0.301167 -0.500089 -0.220929 0.478055 -0.290107 -0.323987 0.439678 0.361526 -0.264888 -0.343546 0.308537 0.514296 -0.407519 -0.333811 -0.360879 0.406669 -0.356704 0.332519 0.2608 -0.220265 0.537039 -0.48862 0.20907 -0.21535 0.465446 0.22072 -0.382016 -0.58464 -0.300499 0.282996 -0.212346 0.323425 -0.596423 0.546683 -0.466518 -0.408131 -0.311202 0.580274 -0.346896 0.39423 0.35452 0.586326 -0.349967 -0.52607 0.289417 -0.311844 -0.498732 -0.470813 0.291214 0.552379 0.384445 0.36129 -0.45726 0.215918 0.337188 -0.216498 -0.225098 -0.428242 -0.57379 -0.225531 -0.363379 0.364969 0.572645 -0.557266 0.453279 -0.22159 -0.270155 -0.53337 0.524444 0.531571 0.359435 -0.553339 0.550893 0.559598 -0.535893 -0.587889 0.322504 -0.361383 -0.388641 0.359007 0.228294 0.279643 -0.563477 0.225863 -0.5623 0.549552 0.505503 0.506269 -0.284472 0.381079 -0.450996 -0.319637 0.521827 0.268649 -0.599669 -0.352387 0.208254 -0.326411 0.445042 0.459652 -0.309708 0.529078 -0.312095 0.471608 0.301214 0.416932 -0.421656 0.525711 -0.417589 -0.45395 -0.422017 0.445221 -0.438366 0.402001 0.323906 -0.490751 -0.470858 -0.448826 -0.255177 0.37952 0.373121 0.308602 -0.533022 0.33826 -0.228673 0.56787 0.598547 -0.28096 -0.384722 -0.520322 -0.544615 -0.342242 -0.230902 -0.398426 0.311501 -0.44247 -0.574399 -0.4794 -0.585385 0.258033 0.209869 0.464748 -0.438993 0.445329 0.42867 0.532342 0.576723 -0.588759 -0.265652 -0.293705 0.365132 -0.261776 -0.487247 -0.246953 -0.558835 -0.48669 0.330889 0.57712 -0.297146 -0.593597 -0.588099 0.299101 0.200523 -0.572448 -0.475045 0.443328 -0.202328 -0.379708 -0.446279 0.362208 0.531647 -0.373818 -0.400336 -0.232417 -0.573387 -0.423298 0.551954 -0.526308 0.210259 -0.218652 -0.56491 -0.525481 0.367083 0.456814 0.53185 -0.418476 -0.267919 -0.526032 0.343233 0.365736 -0.584464 0.278105 0.511433 -0.488895 0.50317 -0.406996 -0.369527 0.435318 0.437666 0.549973 0.311153 0.233013 -0.360744 -0.247327 0.517495 -0.220597 0.402098 -0.438377 -0.303116 0.235223 0.234819 0.474365 0.574696 0.340956 -0.401815 0.581879 -0.459379 0.29204 0.573937 0.5241 0.552431 0.393391 -0.243399 0.468059 0.359039 -0.3528 -0.345501 0.598204 0.336848 0.53256 -0.43009 0.45163 0.52933 -0.309592 -0.283038 -0.394699 -0.578389 -0.389998 0.219857 0.368303 -0.561339 -0.572754 -0.548268 0.427037 -0.310119 -0.223779 0.274035 -0.229678 -0.41908 0.506632 0.372963 -0.537587 0.28942 0.373141 -0.385641 -0.488173 0.462546 -0.45382 -0.431886 -0.49593 0.440454 -0.482214 0.395118 0.517854 -0.251162 0.516315 0.525816 -0.575477 0.581486 0.324512 -0.290061 0.514108 0.473612 -0.363421 0.448785 0.247502 0.57906 -0.203727 0.441607 0.388375 -0.346066 -0.316894 -0.558591 0.287118 0.440988 -0.307205 0.424315 -0.483656 0.389241 -0.403425 0.306428 -0.327265 0.380644 -0.459665 -0.252574 0.51502 -0.352729 -0.470522 -0.324285 0.251399 0.369271 -0.496322 0.379917 0.291514 0.427055 0.207185 0.345867 -0.21897 -0.465443 0.548762 -0.526675 0.316656 -0.495696 0.390725 -0.544819 -0.585255 -0.200728 0.307676 -0.261555 -0.349804 -0.294129 0.422092 0.491439 -0.366506 -0.319698 -0.274898 0.579049 0.325777 0.378734 0.494727 -0.358626 0.437642 0.361559 0.539999 -0.344508 0.311723 -0.446791 -0.278632 -0.374877 0.495111 0.560405 0.540947 0.361564 -0.4142 -0.583227 -0.26385 -0.588909 0.501207 -0.446811 0.573582 0.531007 -0.429955 -0.21912 -0.516028 -0.353724 -0.288572 -0.381148 -0.253583 0.296244 0.48301 -0.57671 -0.421324 0.448353 0.316088 0.563735 -0.286483 -0.374975 0.272541 -0.425024 0.588092 0.399707 0.292876 -0.306183 -0.523568 -0.214242 -0.481898 -0.353439 0.556572 -0.425752 -0.296956 -0.36233 0.28423 -0.299876 -0.331399 -0.345339 -0.503647 -0.396155 -0.525901 0.342982 0.304766 -0.256047 -0.348177 -0.289886 0.411278 0.37741 -0.305125 0.291672 -0.477044 -0.546125 -0.316448 0.327935 0.23651 -0.216618 0.426429 -0.41188 0.516825 0.517859 -0.277413 0.369751 -0.523382 0.396924 -0.4869 0.417862 -0.280145 0.372388 0.455451 0.416689 0.424413 -0.454372 0.592907 0.582036 -0.534179 -0.574734 0.507639 -0.500282 0.291646 -0.459528 0.585803 0.342491 -0.441377 0.462542 -0.415202 0.58879 -0.512538 -0.290456 0.509413 -0.415177 0.572386 -0.455183 0.534397 -0.311045 0.452672 -0.20459 -0.247963 -0.504424 0.26196 -0.586169 0.446197 0.516777 -0.418121 -0.26418 -0.279724 -0.571125 -0.269269 0.532134 -0.581774 -0.229709 -0.213753 -0.272922 -0.381379 0.551056 -0.344312 -0.320502 0.512185 -0.349245 -0.244511 0.457839 0.292782 -0.376344 0.255273 -0.365717 -0.351658 -0.471494 -0.429724 0.427127 0.521761 0.454443 -0.315409 0.256583 0.212223 -0.357899 -0.219252 -0.380968 -0.444702 0.474085 -0.265791 -0.537023 0.435227 -0.58286 0.352932 0.276054 -0.588171 -0.340767 -0.505441 0.331174 -0.203177 -0.574397 -0.504811 -0.334463 -0.312676 -0.249489 -0.24835 -0.595916 0.395028 -0.548527 0.388764 0.222653 -0.555077 0.480515 0.560769 -0.378182 -0.500762 0.586374 -0.507943 0.555086 0.329385 -0.399086 -0.591086 -0.261312 0.373778 -0.334074 -0.23442 0.339477 0.520147 0.450016 0.23168 0.444861 0.380776 0.338015 -0.552073 -0.309338 0.297675 0.459193 0.303425 0.474874 -0.530343 -0.439745 0.365675 0.554261 -0.599214 -0.566737 0.432475 -0.563336 0.242834 -0.301971 -0.394452 0.276364 -0.319732 -0.580887 0.456061 0.300361 -0.464708 0.351169 -0.519329 0.316204 -0.509707 0.549436 -0.49454 -0.355434 0.214124 -0.532281 -0.268713 0.300702 0.544202 -0.211603 -0.537349 -0.586669 0.25207 -0.432441 0.443267 0.489941 -0.231586 -0.495158 0.35215 -0.463501 -0.507997 -0.574849 0.404427 0.365155 0.35714 -0.548893 0.488722 -0.496546 0.2734 -0.512191 -0.277632 0.269642 -0.24151 0.235344 -0.215392 0.559934 0.294627 -0.500099 0.210335 -0.247683 -0.442013 -0.461963 -0.532139 -0.271527 0.487496 -0.522205 -0.385851 0.274345 0.556647 -0.221021 0.208534 -0.495428 -0.515739 -0.202214 0.460781 -0.293548 -0.246474 -0.433528 0.31402 -0.58415 -0.488773 -0.566643 0.498203 0.501985 0.350677 -0.426889 0.503962 -0.462372 -0.517843 -0.345774 -0.514484 -0.481418 0.394833 0.53957 0.220001 0.510368 0.430076 0.583399 -0.517999 -0.583129 -0.408391 0.427887 -0.532335 0.532053 0.554846 0.228802 0.51715 0.430288 -0.225166 -0.220836 0.293579 0.553942 0.408215 -0.251935 -0.422726 -0.394889 0.445082 -0.343469 0.313035 -0.227595 0.353349 -0.537212 -0.566617 -0.382481 0.537359 0.236951 -0.334521 -0.554595 -0.528234 0.268949 0.241594 -0.382077 0.486614 -0.264093 0.201067 0.267531 -0.348085 -0.424915 0.372244 -0.306486 -0.410713 0.340542 0.33433 -0.487969 0.301666 -0.413524 -0.420756 -0.229936 -0.521146 -0.307019 0.385718 0.276629 0.379293 0.248505 -0.50894 -0.26114 -0.498427 -0.264888 -0.496818 0.295321 -0.509775 -0.341744 0.504445 0.437901 -0.46571 0.347804 0.31947 0.58523 -0.325977 -0.4503 0.388726 0.354571 0.313122 0.31991 0.372316 0.208424 -0.324075 0.412622 0.521848 0.454112 0.595444 0.438985 -0.426349 -0.213676 0.45795 0.587244 0.375416 -0.333829 -0.561274 -0.498477 -0.268969 -0.415681 -0.25707 0.421564 0.278827 -0.366476 0.277592 0.389184 -0.429676 0.456269 -0.266837 0.334302 0.585329 0.330791 -0.321869 0.280193 -0.53617 0.583882 -0.524178 0.572157 -0.481123 -0.277277 -0.344093 -0.462657 -0.269322 0.261395 0.562439 0.578411 -0.263828 0.494371 -0.33847 -0.576535 0.470439 -0.267879 0.365864 0.397623 0.378668 -0.205702 0.34136 0.496531 -0.587285 0.54684 -0.353622 0.497492 -0.234454 -0.203147 -0.366427 -0.447564 0.5401 0.431483 -0.555479 -0.352951 -0.504006 -0.256909 0.227013 -0.456048 -0.511366 -0.564022 -0.328141 -0.482438 0.253376 -0.535519 -0.465268 0.456669 0.298526 -0.511332 0.317259 -0.388153 -0.422936 0.266631 -0.398502 -0.464247 0.325568 -0.374856 0.289783 -0.216303 -0.54288 -0.562962 -0.334906 -0.213515 -0.507783 -0.487437 -0.58913 0.246306 0.520652 -0.262015 0.235616 -0.429022 0.354531 -0.214893 0.261172 -0.587472 0.583019 0.412199 0.370066 -0.551356 0.350562 -0.302891 0.514384 -0.551758 0.462135 -0.55419 -0.540034 0.258935 -0.38709 0.538878 -0.305024 -0.452314 -0.476785 -0.405967 0.490228 -0.324699 0.596117 -0.380482 -0.576788 0.345537 -0.346012 -0.336674 -0.482939 0.380611 0.469437 0.518292 -0.245839 0.262504 0.435119 0.569473 -0.225794 -0.366137 -0.521763 -0.532412 -0.278858 0.337474 0.377676 -0.510916 0.269757 -0.330645 -0.411015 -0.513655 -0.419542 0.379477 -0.44463 0.380008 -0.443123 0.492335 -0.492764 -0.263437 -0.502696 -0.396492 -0.275058 0.340987 -0.398933 0.284008 0.520568 0.466802 -0.573822 -0.39477 -0.39523 0.288876 -0.520923 -0.403239 0.405959 -0.385309 -0.267586 0.389027 0.289208 0.487458 -0.401646 -0.498089 -0.56913 -0.462324 -0.41117 0.361404 -0.231872 -0.244753 0.431492 -0.366482 0.314667 -0.346105 0.533592 0.524896 -0.465146 -0.51094 0.38382 -0.389007 -0.573921 0.295902 0.308424 -0.391491 0.307586 -0.293091 0.284235 0.576527 -0.411365 0.581153 0.257765 0.367755 0.318403 -0.589704 0.487725 -0.255174 -0.43004 0.246736 0.208381 -0.278761 0.274471 0.255044 -0.231426 -0.557607 -0.354204 -0.587747 -0.444809 0.334879 -0.434198 -0.465437 -0.503293 0.583569 -0.271685 0.271798 -0.468532 0.396032 0.522411 0.301709 0.482647 -0.396629 -0.598075 0.448819 0.539879 0.406098 -0.308281 0.496 -0.592144 -0.344908 -0.509874 -0.343895 -0.567265 0.32141 0.391004 0.443514 0.482434 0.310501 -0.424518 -0.323393 -0.543019 0.538474 -0.201025 0.262874 -0.314044 0.256999 -0.224487 -0.402324 0.340822 -0.481428 -0.346852 -0.205476 0.365084 0.509794 -0.275297 -0.354 0.562679 -0.269615 0.526949 0.556873 -0.54027 -0.264911 -0.414766 0.556509 -0.390969 -0.487413 0.562879 -0.567107 -0.208866 -0.317566 0.510089 0.302479 0.56404 0.436472 -0.504583 -0.531982 0.407217 0.409611 -0.464128 0.577572 -0.204057 -0.592918 0.357874 -0.294899 -0.436926 -0.450903 -0.284031 0.219783 0.325476 -0.53906 -0.2496 0.474913 -0.467934 0.478801 -0.450644 0.387159 0.321357 0.421636 0.340101 0.245971 0.329 -0.324042 -0.450256 -0.461102 0.200079 -0.205792 -0.271203 -0.506496 -0.565229 0.271199 0.24167 -0.270573 -0.238435 0.242259 0.408745 -0.355563 0.585104 -0.350777 0.223429 -0.411092 -0.41204 0.273186 -0.297588 -0.42238 0.36498 -0.478689 -0.351938 0.569678 -0.441472 -0.568909 -0.300166 0.587963 0.204076 -0.52063 0.350618 -0.251012 0.548605 0.4459 0.303881 -0.309011 0.561859 -0.275512 0.536963 -0.50417 0.257126 -0.428652 -0.59755 -0.442563 -0.555354 0.229131 0.494915 0.268628 0.404341 -0.489714 -0.582808 0.377084 -0.586425 0.258464 -0.497785 -0.301822 -0.435713 -0.312204 0.347088 0.434889 -0.317959 0.408413 -0.544163 0.456394 -0.391569 -0.256727 -0.344832 -0.319044 -0.286407 0.254644 0.340143 0.539103 0.28694 -0.409119 0.206073 -0.53647 0.508029 0.336906 0.221923 -0.200696 0.339407 0.587869 0.491234 0.215496 -0.484423 0.561833 0.426607 -0.200421 0.552243 -0.347575 0.453549 0.282349 0.428927 -0.21377 -0.412554 0.264343 -0.27189 -0.436201 -0.359126 -0.540765 -0.521838 0.268114 0.403535 -0.261992 0.478076 -0.314094 -0.493612 0.493203 0.215697 0.573389 0.521439 0.380213 0.289944 0.556453 0.468111 0.492618 0.399817 0.538394 0.229267 -0.359129 -0.409953 0.238968 -0.269666 -0.426103 -0.439144 0.513614 0.437223 0.353912 0.31024 0.376236 -0.207583 -0.3683 -0.229586 -0.410751 0.307079 -0.566195 0.443103 0.220596 -0.537333 -0.598131 -0.246191 0.537059 -0.205572 -0.410581 0.401336 0.294163 -0.255671 0.216319 0.569157 0.344109 0.39695 0.593268 -0.315467 0.552822 0.460562 -0.429276 0.462698 0.390167 -0.457307 0.584082 -0.587565 0.467562 0.540709 -0.328494 -0.31095 -0.586101 0.582907 0.547953 0.593232 0.351174 0.451728 -0.360547 -0.346785 -0.582697 0.551462 -0.262735 -0.245025 0.582264 -0.414176 0.495599 0.58336 0.433027 -0.46107 0.264642 -0.281755 -0.308097 0.396265 0.24791 -0.419358 0.547143 -0.597386 0.309847 -0.540173 0.228145 0.402867 -0.279476 0.405444 -0.352495 0.293483 -0.520816 0.232952 -0.308721 -0.497557 0.372268 0.387238 -0.487734 -0.329287 0.427035 -0.289691 -0.423811 -0.378923 0.278787 0.41579 -0.250881 -0.248419 0.284512 0.20061 0.510588 0.549864 0.215081 0.402265 -0.521726 0.500397 0.201014 0.20394 -0.482647 0.328112 0.36723 -0.392716 -0.453176 -0.389809 0.522505 -0.330921 0.288586 -0.515948 -0.417887 0.206483 0.249766 -0.488374 -0.496968 0.475604 0.275177 0.341048 0.547618 -0.260519 -0.374898 0.338481 -0.240748 -0.530495 -0.550187 0.433001 0.564656 0.507687 0.346363 -0.265202 -0.288374 -0.422946 -0.544521 -0.205958 0.497759 -0.292933 0.516806 0.37006 -0.300816 0.286887 -0.546998 -0.419076 0.359372 0.526076 -0.522823 -0.549066 0.532083 -0.374749 0.336007 -0.368744 0.447184 0.306422 0.29309 -0.321543 -0.577037 -0.444909 0.328317 -0.435689 0.390748 0.393424 -0.353043 0.324769 0.514503 -0.561731 -0.280224 0.284275 0.592151 -0.291397 -0.26718 -0.479147 0.22137 0.568252 -0.388041 -0.237376 0.565707 -0.292359 -0.57329 -0.403877 -0.316645 -0.538303 0.496082 0.324277 0.413276 -0.573474 0.228614 -0.524673 -0.576677 0.399671 0.296867 0.343507 -0.267847 0.381324 -0.252994 -0.52893 -0.350808 0.566508 -0.489811 -0.535122 0.506459 0.583543 -0.361217 0.585057 0.401141 -0.502613 0.221775 0.560581 -0.481986 -0.330759 -0.327106 0.30462 0.526922 -0.524803 -0.361913 -0.519821 -0.368521 -0.203446 0.41158 -0.267633 0.373231 0.510729 0.216365 -0.484629 -0.213216 0.433331 0.275078 -0.218235 0.209079 -0.418733 0.402963 -0.439364 0.241918 0.501221 0.431313 -0.466219 -0.539099 0.399551 -0.248259 0.453815 -0.299568 -0.401797 -0.225098 -0.376645 0.36307 -0.405169 -0.333933 -0.537516 0.487343 -0.229349 0.407591 0.323199 0.272517 0.302155 -0.206929 0.382251 0.243117 -0.481142 0.40408 -0.302392 -0.253166 0.533182 0.552094 0.56295 -0.309435 -0.558092 0.487866 0.263717 0.20404 0.281159 0.321842 0.317466 -0.447459 0.433174 0.256395 0.218689 0.443127 0.496661 -0.422569 0.234657 0.451908 0.449031 -0.274039 0.300158 0.27862 0.289048 0.244729 -0.565421 0.405121 0.543727 -0.334161 0.571078 -0.514288 -0.372508 -0.327349 -0.268862 0.399914 -0.319033 0.430641 0.552031 0.200508 -0.309723 0.447593 0.537425 -0.473738 0.514231 -0.443569 -0.585187 -0.353048 -0.494714 -0.56486 -0.459655 -0.48147 -0.238726 -0.397878 0.221372 -0.231837 0.443623 -0.406238 -0.532143 -0.2622 -0.287875 -0.331683 0.263626 0.430757 0.365128 -0.521916 -0.560391 -0.203471 0.515497 0.589875 0.599736 -0.267962 -0.50114 -0.224407 -0.554176 -0.279657 0.592377 -0.315113 -0.296071 0.214342 -0.341488 -0.485983 0.339644 0.300996 0.290803 -0.592009 0.312582 -0.533898 -0.534171 0.447006 0.244913 -0.530398 0.338003 0.293293 -0.591381 0.295274 0.243893 0.434748 0.470711 -0.438678 -0.226614 -0.252053 0.490659 -0.352919 0.544257 0.313177 0.526587 0.226461 -0.289086 -0.498664 -0.427388 -0.413336 0.575194 -0.254819 0.583827 -0.407419 0.324185 -0.349638 0.445424 -0.439674 -0.502481 0.378852 0.596426 -0.493658 -0.525066 0.36598 -0.386259 -0.223736 0.2274 0.207359 -0.572053 -0.221669 0.27425 -0.311082 -0.273863 -0.309355 0.503607 0.405411 0.29352 0.585546 -0.491391 -0.371041 -0.330842 0.439104 -0.473332 -0.369469 0.261241 0.541624 0.562444 0.255165 0.203463 0.212651 -0.252728 0.407103 0.517131 -0.364834 -0.544175 0.486172 -0.330651 0.433258 0.571739 -0.449369 -0.393865 0.368471 0.443699 -0.392617 -0.588156 0.354232 0.22333 -0.387131 0.353984 -0.348983 -0.487839 0.373175 -0.360432 -0.222473 0.20916 -0.36515 -0.262834 -0.559333 -0.357256 -0.353696 0.557218 -0.386296 -0.469263 0.521009 -0.525392 -0.321406 -0.305148 -0.431721 -0.501014 -0.59775 -0.326035 -0.313198 -0.296521 -0.295403 -0.424481 0.59919 -0.357026 0.362247 0.358913 -0.249536 -0.353248 0.497537 -0.265523 -0.323976 0.583452 0.476711 0.484626 -0.498356 0.26244 -0.434924 0.442858 -0.268621 0.2196 -0.226173 -0.514123 0.462819 -0.446651 0.525766 -0.489614 -0.478712 0.371468 0.582553 -0.345332 0.237241 -0.474669 -0.294695 0.306279 0.31741 0.594183 0.504392 -0.419292 -0.575676 0.527567 -0.578118 0.551185 0.290248 0.212254 -0.378747 -0.553711 -0.565359 0.288153 -0.545907 -0.423369 0.520311 0.4069 -0.325858 -0.591913 0.292135 0.202976 -0.336661 -0.527083 -0.276813 -0.49971 0.296923 0.271548 0.2818 0.322336 0.554133 0.291024 0.363257 -0.299146 0.524115 0.590648 -0.210539 -0.286503 -0.547785 0.574108 0.552923 0.480159 0.327238 0.312128 -0.311407 0.436745 -0.380168 0.539983 -0.425693 -0.43254 -0.330188 -0.366058 -0.416812 0.487927 -0.466148 0.389197 0.335852 0.468917 0.221063 0.272129 0.415508 -0.39801 -0.436644 0.539102 -0.377123 0.412145 0.59483 0.248038 0.430765 0.57624 0.397999 -0.515984 0.434793 0.396942 -0.365946 -0.588325 0.377945 0.577131 -0.524329 -0.276926 0.287875 -0.208762 -0.467274 0.494347 -0.592764 -0.394951 0.236023 -0.324614 -0.495836 0.326671 -0.390628 -0.243236 0.501332 -0.583162 0.5366 0.527111 0.549158 0.30718 -0.592673 -0.514471 0.472113 0.3762 -0.420357 0.378953 0.422371 -0.377976 -0.22062 -0.581572 0.441579 -0.347612 -0.224822 0.402655 -0.210597 0.390412 0.511361 0.588707 -0.414305 0.29161 0.265722 -0.350855 0.376187 0.501091 0.350043 -0.318759 0.447397 -0.369802 0.541094 0.446198 0.482291 -0.554961 0.341493 0.577126 -0.308575 0.590459 0.539299 0.26239 0.270146 0.512293 0.446144 -0.411812 0.497423 -0.56576 -0.554071 0.390207 0.448568 0.230014 0.288836 0.545859 -0.275876 0.571708 -0.277633 0.330662 0.597579 0.567968 0.274007 -0.537264 -0.361394 -0.409946 0.314982 -0.551826 0.345322 0.553612 0.58898 -0.231568 0.435789 0.280033 0.237373 0.261201 -0.453649 -0.478675 0.408949 -0.499085 0.318963 0.285807 -0.309184 0.397495 -0.219473 -0.288664 -0.250577 -0.273311 -0.323508 0.399787 0.564037 0.395833 0.490158 0.345341 -0.490446 0.26945 0.353457 0.443354 0.39289 0.317147 0.391956 0.420818 -0.526043 -0.328898 -0.247472 -0.410431 -0.389674 0.429195 -0.280771 0.378939 0.218963 0.580627 -0.203646 0.235061 0.46483 0.2089 0.558019 -0.499318 0.323846 0.533613 0.556902 -0.382827 -0.350308 0.426408 0.586559 0.402298 -0.453736 -0.377941 0.206906 -0.253918 -0.56521 0.528522 -0.492536 -0.407292 0.456057 0.3877 -0.484949 -0.559536 -0.582549 0.466337 -0.391291 0.574629 -0.45156 0.502409 0.565571 -0.330203 0.219146 -0.454011 -0.486565 0.528064 0.402207 0.555582 -0.28629 -0.322414 0.301062 -0.237947 -0.257386 0.537381 -0.365146 0.367413 0.396117 -0.261499 -0.55634 -0.326945 -0.576812 0.585528 -0.370772 0.466175 0.456227 -0.525902 0.57734 0.449642 0.576425 -0.543672 0.226813 0.472288 -0.208701 -0.238194 -0.449296 -0.407947 -0.420147 0.205127 0.334584 -0.447982 0.45989 0.548101 -0.337733 0.471956 0.584766 0.455728 -0.526713 0.434509 0.261803 -0.500455 0.237841 0.337206 0.501876 0.448908 0.213635 0.227272 0.470773 -0.310755 0.373116 0.322664 -0.398339 0.369461 0.306408 0.260466 0.476673 0.279309 -0.269322 -0.372502 0.558849 0.207658 -0.318299 -0.446009 -0.210303 0.597578 0.539475 -0.5413 0.298634 -0.462865 0.31473 -0.573252 -0.484252 -0.505917 0.469076 0.524773 0.299828 0.400408 0.567361 0.4072 0.203181 -0.361082 0.52502 -0.280469 0.413142 0.428695 -0.466666 -0.519275 0.454508 -0.304492 -0.503611 -0.55151 -0.561697 0.421566 -0.398335 0.506722 0.433544 -0.344171 0.370185 0.382219 0.367974 -0.5112 0.412862 0.385558 -0.255667 -0.390955 -0.519315 -0.562717 0.494383 -0.41007 -0.413049 0.494234 0.384595 -0.405158 -0.463046 0.538108 -0.598291 0.26566 0.279784 0.478523 -0.341268 -0.294728 0.411942 -0.541596 -0.441728 -0.399044 -0.468457 -0.301371 0.331684 -0.207832 -0.493906 0.22575 0.395249 0.30335 -0.542629 -0.210483 0.251351 -0.34448 0.362657 0.569618 -0.437741 -0.259162 0.46194 0.35925 0.267062 -0.588354 0.313023 0.453166 0.305516 -0.383305 -0.53839 0.332041 -0.499 0.453033 -0.562597 -0.266041 0.591313 -0.506537 -0.485736 -0.446878 -0.432869 -0.513767 0.449337 0.454164 0.32345 0.202997 -0.431256 -0.25158 -0.211559 0.391913 -0.327264 -0.374495 -0.583157 0.571831 -0.346818 0.421692 -0.253942 0.525579 -0.502393 0.458132 0.417211 -0.287683 0.596166 0.378724 0.243875 -0.581881 0.42859 -0.489717 0.437407 0.280641 -0.280258 0.563912 0.237792 0.237479 -0.269233 -0.566028 0.356738 -0.534912 -0.392973 -0.360629 -0.284272 -0.207988 -0.498887 -0.324609 -0.359253 -0.320519 0.307583 -0.573711 0.573922 0.285561 -0.5068 -0.529599 0.3053 -0.416442 -0.578146 -0.335121 -0.319583 0.575279 0.240814 -0.354764 -0.505138 0.239578 -0.559714 0.358097 -0.224479 -0.57679 0.495246 0.594817 0.3709 0.498818 0.388331 -0.411464 -0.377049 -0.526383 0.486632 -0.217929 0.556429 -0.404491 -0.270797 0.449779 -0.406245 0.226555 -0.332959 -0.302037 0.43263 0.252905 -0.234795 0.528874 0.251112 0.229706 -0.536403 -0.329514 0.305143 0.408975 -0.496593 -0.471216 0.485323 -0.404329 -0.519142 -0.52214 -0.507221 -0.372733 -0.439413 -0.353859 -0.556863 -0.428269 0.431199 -0.386098 -0.491788 0.312282 0.253826 0.491219 0.481268 -0.55743 -0.201914 0.552182 0.454614 -0.45115 0.426521 -0.584553 -0.388574 0.276651 -0.370604 -0.556115 -0.457822 0.450772 -0.251894 -0.450797 -0.437539 0.333572 -0.287797 0.348588 -0.410668 -0.236439 -0.204748 -0.420574 0.433813 -0.413095 0.359973 -0.266808 -0.437607 -0.529444 -0.259572 0.422664 -0.588468 0.336565 0.24199 0.218677 0.484891 -0.489848 -0.276107 0.282961 0.207646 0.514336 0.265266 0.385414 0.498725 0.392375 -0.495099 -0.455409 -0.571276 0.559833 -0.477126 -0.465925 0.233624 -0.251656 0.466194 -0.21965 0.230672 -0.241458 0.515131 0.598811 0.54173 -0.372154 -0.406225 -0.320396 -0.219536 -0.390768 -0.258738 0.258679 0.412465 -0.402094 0.444951 0.552498 0.355731 0.57156 -0.420829 -0.484718 -0.361557 -0.599388 -0.284435 0.345284 -0.400014 -0.200633 0.592744 0.551115 -0.369647 -0.483868 0.574953 -0.49022 -0.430323 0.401545 -0.432152 -0.41371 0.343136 0.561491 -0.532883 -0.531541 0.242826 0.591649 -0.591487 0.440778 0.295973 0.375731 -0.561012 0.401609 0.527731 0.442486 0.289418 0.353592 -0.469295 -0.260124 -0.421857 -0.535075 -0.52384 -0.500252 0.469488 -0.27646 0.465676 0.236387 -0.518142 0.218023 0.441151 -0.205757 0.516705 0.363123 -0.474431 0.588178 0.414913 0.560971 -0.449977 0.25408 -0.202254 -0.284926 0.582732 -0.294618 -0.559309 -0.346749 -0.57315 0.331029 0.511854 -0.275855 0.3174 0.482573 -0.587287 -0.271066 -0.304768 -0.55673 0.455687 0.574952 -0.362969 0.339294 0.382211 -0.522738 0.238548 0.245216 0.54792 0.336687 -0.385105 0.597632 0.462804 0.209656 -0.393845 0.274594 -0.208041 0.487951 0.319116 0.493288 0.513288 -0.256688 -0.469794 -0.502237 0.422975 -0.483033 -0.258184 -0.380471 0.549363 0.48856 0.356512 -0.39274 0.2127 -0.535564 0.307937 -0.233143 -0.244878 -0.573061 -0.391735 -0.332385 -0.514222 -0.222789 -0.496084 -0.493393 0.593387 -0.588655 -0.345107 0.514452 -0.462087 -0.489622 -0.278868 -0.591249 -0.212596 0.238418 -0.439608 -0.419041 -0.386222 -0.326235 -0.24509 0.527752 0.401582 -0.388376 -0.297803 0.304495 -0.552844 0.529914 -0.516882 -0.355458 0.485472 -0.333809 -0.564679 -0.478909 -0.39468 -0.433206 -0.224773 0.478247 0.277366 -0.373044 -0.369451 0.335059 -0.471656 -0.354008 0.586134 -0.318016 -0.303342 -0.596685 -0.404674 -0.418922 -0.480738 0.439124 0.413087 -0.331866 0.383994 0.265622 0.382448 0.275741 -0.465652 0.442641 0.339214 -0.323392 -0.412481 0.510578 0.595671 0.216509 0.381628 -0.38192 0.573003 0.485168 -0.418695 0.310442 -0.351469 -0.255246 -0.215931 -0.468908 0.458544 -0.597702 0.312378 0.28818 -0.237779 0.584458 -0.560322 0.414122 0.280164 0.290323 -0.250079 -0.500001 0.586947 0.41867 -0.453134 -0.358024 -0.279878 -0.382703 0.264006 -0.500304 -0.575573 -0.521193 -0.251141 0.469221 0.434605 -0.230162 0.360308 -0.286232 -0.48541 0.350134 0.592479 0.450222 0.263884 0.464612 0.503809 0.429675 -0.249679 -0.415278 -0.486183 -0.432124 0.244042 0.205471 0.392449 -0.551605 0.596604 0.416403 0.209897 -0.26144 0.299551 0.401671 0.290969 -0.482743 0.382214 -0.441468 -0.382519 0.389184 0.535878 0.23091 -0.486358 -0.406186 0.284253 -0.472045 -0.289215 -0.367932 -0.459537 0.392127 0.20095 -0.291154 -0.372889 -0.451562 -0.206214 0.381968 -0.435401 -0.270418 -0.395392 -0.204721 -0.499194 0.573796 0.410251 -0.377176 -0.311331 0.220295 -0.244172 -0.495445 0.244071 0.372469 -0.387753 -0.592376 -0.367315 0.344912 -0.5394 0.442352 -0.226399 0.427004 -0.557876 0.506439 0.573482 -0.381488 0.238183 0.434715 0.423941 -0.332539 -0.561621 -0.234847 -0.387711 0.291642 0.529393 -0.565704 0.350143 0.392442 -0.396888 0.377226 -0.225615 -0.388023 0.235649 -0.346052 0.229921 0.471283 -0.203507 -0.320477 -0.285891 0.518327 0.346113 -0.571076 -0.27674 0.204275 0.462399 0.243997 -0.340217 0.551811 0.454758 0.235455 0.576454 -0.47622 -0.412869 -0.371178 0.408816 0.514044 -0.573537 0.451186 0.248637 0.523904 0.236963 0.39905 -0.399922 0.553045 0.448724 0.539358 0.495239 -0.405139 0.412276 -0.206868 -0.265822 0.576022 0.406031 0.289636 0.282669 0.365704 -0.581442 -0.496812 -0.315615 -0.436042 0.438357 -0.389517 -0.590979 -0.441704 0.570972 0.424347 -0.369483 0.276153 0.227576 -0.430181 -0.379329 0.429877 0.56064 0.542134 0.576546 0.240594 0.553577 -0.548499 -0.424767 0.347811 0.238774 0.432533 -0.372527 0.38377 -0.274476 -0.510349 0.209837 -0.214576 0.466915 -0.246732 0.334888 0.258363 0.517438 -0.233021 0.397064 0.537945 -0.352991 -0.244094 -0.279165 0.325622 0.441815 -0.207445 -0.376196 -0.422129 0.578732 -0.486571 0.556188 -0.402085 0.551795 0.215832 -0.215939 -0.584697 0.324255 0.294448 0.456655 0.55706 0.456039 0.550121 -0.586526 0.275346 0.241112 0.278878 0.50685 0.470927 0.316068 -0.207505 -0.440537 0.500937 0.220993 -0.368211 -0.415453 -0.576117 0.289776 -0.303728 -0.298489 -0.24156 0.34099 0.336901 0.2014 -0.506487 -0.494588 0.449476 -0.506195 0.299916 -0.345796 0.404836 0.593399 -0.232742 -0.307191 -0.359476 0.515544 -0.545281 -0.521475 -0.304375 0.290011 0.240344 -0.524855 0.319724 -0.240232 0.358237 -0.287768 0.347278 -0.344025 -0.364341 0.51649 0.256897 -0.324854 0.488569 0.28436 0.569204 0.203806 0.358971 -0.499367 -0.35971 0.298336 0.325627 -0.481019 0.467271 0.252925 -0.476261 -0.55543 -0.401449 0.535335 -0.326613 -0.282961 0.394067 0.305365 0.215428 0.431734 0.544331 -0.293085 -0.316174 -0.542863 -0.599149 0.215058 0.565202 -0.408567 0.250772 -0.456669 -0.363598 -0.473202 -0.226398 0.510704 -0.5833 0.416964 -0.272508 -0.59759 0.484154 0.372127 0.53624 0.358713 0.357672 -0.268093 0.311183 0.585829 0.464392 -0.432446 -0.437599 0.532615 -0.485587 0.348531 0.259629 -0.346777 0.286573 0.427087 -0.306088 0.524255 0.55308 -0.272205 0.517111 0.539044 -0.517065 0.272292 0.51464 0.575563 -0.354487 0.358322 0.470214 0.3579 0.424002 0.5796 -0.570787 -0.393851 0.496205 -0.58813 0.524089 0.594818 0.298665 -0.595819 -0.272017 0.413532 0.295476 0.240621 -0.476952 -0.522477 -0.383508 0.231044 0.405934 -0.278162 0.290951 0.515454 0.593467 -0.456195 -0.577381 -0.305436 0.423396 -0.475903 -0.490822 -0.484562 0.315046 -0.468728 -0.309117 0.252849 0.324667 0.217189 -0.397304 -0.430658 -0.442914 0.482903 -0.538867 -0.469694 -0.507308 -0.281134 0.262121 -0.565903 0.372736 0.275721 -0.334403 0.396904 -0.459583 -0.274688 -0.346736 -0.447659 -0.5922 -0.409945 0.318902 -0.293329 -0.425236 0.424339 -0.34016 0.264524 -0.224873 0.394749 -0.468816 -0.218346 -0.405747 0.385286 -0.598382 -0.542133 0.363506 0.521648 -0.431717 -0.508617 -0.389441 0.54431 0.523199 0.442497 -0.349079 -0.307348 0.228899 -0.346294 0.418729 0.387129 -0.564523 -0.407692 -0.481341 -0.210437 0.344318 0.370011 -0.252011 -0.46336 -0.323156 0.523282 0.343102 0.49013 -0.356324 0.206648 -0.568003 -0.392164 -0.523039 0.260556 0.329198 -0.517438 0.590049 0.407275 0.401771 0.21727 -0.376492 -0.397162 -0.571182 0.291596 -0.323716 0.302561 0.492021 0.224246 -0.494582 -0.219441 0.355797 0.497296 0.224328 0.387906 0.375206 -0.351025 -0.345728 0.471292 0.235479 -0.444418 0.261133 -0.450914 0.441703 -0.368215 0.559964 -0.360065 0.324534 0.461606 -0.361931 -0.574961 -0.454688 0.488836 -0.274173 0.317326 -0.323017 0.468846 0.508722 0.337303 0.594921 0.48671 -0.293173 0.270646 0.304135 -0.566569 -0.581764 -0.403205 -0.267515 0.436868 0.452169 -0.451339 0.515938 0.359334 0.439946 -0.575085 0.402155 -0.389753 0.50857 0.313035 0.392651 0.478772 0.221133 0.210867 0.374017 -0.430337 0.401928 -0.201371 -0.401862 -0.542526 -0.257343 0.476676 0.379406 -0.354827 0.526827 -0.300681 0.547466 -0.493892 0.261431 0.257248 0.352493 0.461634 0.569261 -0.272287 0.223711 -0.412931 -0.532423 -0.540552 0.356035 -0.399804 -0.563241 -0.402339 0.479939 -0.479307 0.20099 -0.376818 -0.42414 -0.307903 0.501458 0.564523 0.395002 0.206223 0.467061 0.439253 0.242155 -0.305957 -0.539543 0.516103 -0.204526 0.360852 -0.331965 -0.358999 -0.576123 -0.349505 0.247092 0.40275 -0.491483 -0.56952 -0.355749 0.381639 0.44783 -0.4033 0.395891 -0.206855 0.514813 0.405933 0.305378 0.202882 0.431835 -0.559082 -0.466415 -0.321021 -0.570806 -0.516441 -0.499314 0.524459 -0.585675 -0.534518 0.447162 0.581983 -0.309081 -0.408753 -0.352848 -0.49596 -0.564022 0.46361 -0.216875 -0.588335 0.275172 0.314236 0.202856 -0.32163 -0.366454 0.370097 0.597521 -0.375591 0.539996 0.521061 0.395979 -0.277527 -0.272063 -0.590438 0.525768 0.276618 -0.48355 0.575425 0.429548 0.474937 -0.353204 0.209618 0.397114 0.457327 -0.369553 0.429953 0.595408 0.325534 0.448617 0.356408 -0.294746 -0.375324 -0.22388 0.464701 0.447805 0.44943 -0.384672 0.351734 -0.244256 0.318896 0.387449 0.379341 -0.456329 0.450329 -0.220847 -0.47933 0.439763 0.293888 -0.405403 -0.317071 -0.298228 0.254217 0.425548 -0.464686 0.415012 -0.283613 -0.532431 -0.385318 0.367829 -0.493705 -0.242383 -0.504269 -0.427689 0.345789 0.556746 0.286301 -0.42936 -0.537873 -0.546468 0.524712 0.386141 -0.36394 0.471279 0.507331 0.584904 0.427785 -0.574072 -0.509433 0.33021 -0.434854 -0.518082 0.341929 -0.261672 0.40235 0.482361 0.369619 -0.335386 -0.387073 0.482816 -0.245774 -0.495441 -0.495008 -0.205613 -0.271274 0.459664 0.422779 0.427283 0.525187 -0.24451 0.497094 -0.454598 -0.595373 0.200272 0.59665 -0.47685 0.350809 -0.515984 -0.241803 0.450258 0.257421 -0.219206 0.487667 0.444907 -0.335443 -0.540391 -0.416288 -0.29925 0.384974 0.594107 -0.58261 0.42405 -0.243247 -0.379235 0.261631 -0.398129 0.339414 0.599251 -0.263823 -0.439935 -0.333576 -0.431802 0.575315 -0.361525 0.230574 0.541915 0.226588 -0.346602 0.505998 -0.354886 0.555329 0.286681 0.370349 -0.321824 0.530092 0.233437 -0.342084 0.213532 -0.396292 -0.477689 0.530687 -0.440049 -0.585569 -0.227111 -0.512487 -0.459197 -0.335012 0.56256 -0.231811 -0.339532 0.246141 -0.22557 0.238209 0.505625 -0.414158 0.261366 0.202918 -0.30212 -0.488065 -0.480054 -0.511228 0.268369 0.285129 -0.5516 -0.315311 -0.278841 -0.464102 0.549678 -0.343513 0.336812 -0.238617 0.302515 0.299592 0.230023 0.533867 0.388209 0.249327 -0.491334 0.487507 -0.451395 0.534067 -0.364271 0.234648 0.30048 -0.569252 -0.335831 0.235469 -0.249406 -0.242982 0.322718 -0.589505 -0.421943 0.367506 -0.373289 0.556212 0.25783 -0.554921 -0.288448 -0.53605 0.36773 -0.226219 -0.513173 0.341907 0.396749 0.242007 0.361738 -0.430394 -0.270345 0.296959 0.252912 0.468318 0.543449 0.532843 -0.412808 0.420824 -0.374196 0.484098 -0.508732 -0.249947 -0.410894 0.224948 -0.323467 0.556313 0.453242 0.237446 -0.306442 -0.216896 -0.329004 -0.281788 0.418633 0.52235 -0.349656 0.280198 0.432454 0.363869 0.4221 0.215979 0.244159 -0.339378 -0.225564 -0.403554 -0.282588 -0.381898 -0.370189 -0.353404 0.366299 0.581651 -0.482202 0.574343 -0.391994 0.358003 -0.527029 0.559661 0.346275 0.468588 0.475863 -0.503845 -0.492592 -0.370044 0.549428 -0.251603 -0.599201 -0.231682 0.295102 -0.596058 0.344237 -0.501191 -0.528043 0.242454 0.559891 -0.446156 -0.583185 -0.394206 0.435743 0.538558 0.487697 0.500898 -0.223414 -0.368301 0.538605 0.205613 -0.51842 -0.354108 -0.367655 -0.520781 0.307604 0.5633 -0.516938 0.566566 -0.321756 -0.537853 0.495285 0.496352 0.371331 0.237216 -0.429012 -0.392777 -0.549632 0.593895 0.343447 0.444834 0.281613 -0.54184 -0.565641 0.351233 0.413529 -0.296851 0.527838 0.227513 0.257856 0.409104 0.307558 -0.2343 0.548766 -0.374478 0.542871 -0.543264 -0.427447 -0.223036 0.393509 0.480485 0.463356 -0.315852 0.570539 0.490362 -0.408095 -0.515263 0.301347 0.572842 -0.577758 0.342326 -0.366633 0.545114 0.570693 0.387167 0.342419 -0.371239 -0.244989 0.396969 0.230457 -0.243923 -0.386798 0.354203 0.50875 -0.538258 0.474366 -0.407137 -0.366173 0.235078 -0.320401 0.501067 -0.489898 0.468596 0.559397 0.550415 -0.352897 0.428405 0.553524 -0.427839 -0.309654 0.348782 -0.44668 0.225019 0.30817 -0.349719 -0.482342 -0.291392 -0.323092 0.307126 -0.225553 -0.272343 0.251879 0.318144 0.483356 0.467677 -0.312079 0.57703 -0.572378 0.571613 -0.262146 -0.50912 0.372118 0.316728 -0.5605 0.5777 -0.481395 -0.364503 -0.550791 -0.538676 -0.42863 0.427157 0.422811 0.499469 -0.406237 -0.475737 -0.592414 0.412871 -0.385368 -0.259743 0.353453 0.331921 -0.287486 0.568122 -0.379071 0.472424 -0.313151 0.54841 -0.503769 0.331151 0.318961 0.578389 -0.391744 0.475907 0.320859 -0.322981 -0.573092 0.509161 -0.351326 -0.298855 0.38408 -0.538099 -0.270861 0.433193 -0.334388 -0.284637 -0.571231 0.564723 0.454287 0.340088 0.376279 -0.449459 -0.317971 0.40995 -0.235903 -0.399695 -0.480085 -0.317214 0.224302 -0.525578 0.51475 -0.212038 -0.273242 -0.248956 0.41739 0.502676 0.252113 0.343041 -0.510756 0.239381 0.461796 0.366641 -0.57687 0.292828 0.434262 -0.359863 -0.228621 0.234993 -0.348662 0.229392 0.472993 -0.559721 -0.284203 -0.295189 0.255753 -0.541617 0.573647 -0.25943 0.592114 -0.55169 0.370664 0.575388 0.483454 0.501148 0.29433 0.598167 0.462608 0.492428 0.260651 0.541769 -0.322188 0.233952 -0.591645 0.246353 -0.445641 -0.410134 0.309596 -0.41559 -0.395903 0.225165 -0.247278 0.457555 -0.581221 -0.456696 -0.337601 0.358275 -0.281851 0.555625 -0.48561 -0.257254 0.200021 0.347556 -0.25291 0.302666 -0.279883 0.339046 -0.351163 0.237046 0.346584 -0.374255 -0.292207 -0.343976 0.324757 -0.447554 0.301579 0.341617 0.372198 0.411216 0.452318 0.273921 0.241712 -0.259362 -0.409567 0.525258 -0.59015 0.440337 -0.232042 0.456415 0.283914 -0.367165 0.208779 -0.487092 -0.397954 0.206084 0.212188 0.582473 -0.492972 0.446774 0.338244 0.25869 0.471544 -0.410751 0.483341 0.260386 0.371136 -0.352747 0.336333 -0.560891 -0.338146 0.584559 0.246981 0.404234 -0.208868 0.242491 -0.42304 -0.475506 0.20021 0.598171 0.353423 -0.450805 0.486108 -0.304474 0.243391 0.556729 0.232341 0.531871 0.50832 0.219274 -0.387112 -0.2643 0.362947 -0.304736 0.226062 0.246707 -0.361464 -0.304044 0.501064 0.270014 -0.473884 0.325992 -0.568031 0.585546 -0.393967 -0.393539 -0.266585 0.591231 0.397644 -0.592688 0.398875 -0.203192 0.536907 -0.207912 -0.515754 -0.382427 -0.304669 0.295862 0.566281 0.54905 -0.286228 -0.341327 -0.200428 -0.582345 0.428526 -0.221779 -0.214428 -0.587741 0.332206 0.389307 -0.273579 0.437598 0.480152 -0.450948 0.214868 -0.206681 0.542587 -0.453908 -0.480567 0.341088 0.411286 -0.336494 -0.387837 0.377048 -0.319888 0.568004 -0.538089 0.571716 0.339061 0.264674 -0.222662 -0.455024 0.419363 -0.508265 0.545185 -0.409023 -0.41222 -0.582184 0.269752 -0.520101 0.325588 0.583108 0.293707 -0.481918 0.377489 0.586697 0.217947 0.3654 -0.550654 0.53724 -0.323019 -0.25231 -0.291781 -0.535296 -0.393727 0.551174 0.343503 -0.582992 -0.489106 0.269977 0.411501 0.466746 -0.498395 -0.266759 0.305812 -0.344888 -0.350263 0.364069 0.431692 -0.203576 -0.554763 -0.544734 -0.489032 -0.535475 0.392635 0.444733 -0.262127 -0.433585 -0.343625 0.409571 0.504343 -0.278267 -0.351656 0.496649 0.541701 0.208767 -0.454975 0.594729 -0.481227 -0.522145 0.535656 -0.277998 -0.478357 -0.558305 -0.411927 -0.471418 0.322334 0.370876 0.39202 0.457339 0.567751 0.230184 0.419607 0.566732 -0.555117 -0.374695 0.255755 0.488556 -0.364276 0.556093 0.214736 -0.292473 0.377197 -0.21106 0.530874 0.302938 0.334504 -0.321351 -0.358036 -0.254944 0.57696 0.203925 -0.282332 0.566826 0.339341 0.422811 0.350431 -0.491147 -0.378632 0.496845 0.370605 -0.208131 -0.332906 0.459221 0.417565 0.204095 -0.343804 -0.427239 -0.500501 -0.272744 -0.316985 -0.393919 -0.410838 -0.395045 -0.587273 -0.298977 0.291674 0.262987 0.43659 0.315523 -0.436373 -0.448679 -0.327637 0.406313 -0.469984 0.267981 -0.374613 0.454385 0.546966 0.574921 -0.34132 -0.292116 -0.381006 0.257575 -0.277311 0.271751 -0.492715 0.493861 -0.596348 -0.24849 0.579233 0.4533 -0.57837 -0.339296 0.357115 0.459575 0.388115 0.33143 0.306795 0.586717 -0.562102 -0.29779 -0.578897 -0.475168 -0.291827 0.441576 0.240129 0.424904 -0.402562 0.543836 0.278417 0.458113 0.355102 -0.435653 -0.378547 -0.246002 0.480837 -0.595466 -0.335445 0.434979 -0.394292 0.49833 0.371431 0.452921 0.287435 -0.53367 -0.200167 -0.232384 0.381326 0.217165 -0.290406 -0.300523 0.40696 -0.430977 0.566623 0.369676 -0.34251 -0.595337 0.391242 0.487935 0.245014 -0.244529 -0.213389 0.40045 0.54495 0.354588 0.480782 0.206599 0.5511 -0.230148 0.503531 0.278638 -0.467831 0.559984 0.522232 -0.537749 0.269524 -0.212427 0.259191 0.477627 0.230491 -0.239497 -0.487327 0.599016 -0.483672 0.356149 0.428988 0.433245 -0.508761 0.355891 -0.241147 0.398239 0.275918 0.393584 0.223542 0.33925 0.303427 -0.565306 -0.424842 -0.42918 -0.593486 0.495717 0.420116 0.519292 -0.52219 0.559871 0.368823 -0.274009 0.568775 -0.579851 -0.538803 -0.24635 -0.497847 0.232983 -0.575978 0.431202 0.447493 0.391937 -0.455881 0.396487 -0.386412 0.341409 -0.514468 0.399977 0.28301 0.47556 0.498928 0.264043 -0.533565 -0.519463 0.55919 -0.479007 0.477585 -0.474293 -0.382173 -0.511537 0.427138 0.52382 0.468364 0.224849 -0.503625 -0.573187 -0.422318 -0.599328 0.334256 -0.265427 0.269456 -0.500129 0.215377 0.280507 -0.445201 0.366135 -0.244991 0.413945 0.413753 0.464728 -0.339203 0.519931 -0.475144 -0.317406 0.438049 0.302846 -0.327266 -0.454547 -0.377396 -0.540193 0.527098 0.294936 -0.396283 -0.485444 -0.347676 0.327414 0.588087 0.448401 0.566603 -0.472632 0.348639 0.312158 0.578452 0.218548 0.501758 -0.378444 0.265068 -0.400946 0.382262 0.471387 -0.436561 0.416816 -0.246145 0.28788 0.231023 -0.417401 0.53599 -0.255566 -0.496263 -0.270289 -0.232854 -0.226878 0.322113 -0.559274 0.514213 0.434312 0.429462 0.575423 -0.316345 0.488356 0.223816 -0.527029 0.235315 -0.474246 -0.256708 -0.3296 -0.393268 0.387485 0.584302 0.419756 0.577419 -0.249289 -0.305195 -0.282488 -0.288016 -0.568907 0.2766 0.271636 0.478531 -0.243494 -0.490418 0.224802 -0.529572 -0.599067 -0.559045 -0.412388 0.47289 0.343346 -0.48639 -0.399625 -0.396677 0.286237 0.264469 0.585192 -0.303756 -0.47824 0.401779 0.277859 -0.315329 -0.245225 0.495749 0.210839 -0.319291 -0.346723 -0.580018 -0.580086 0.314881 0.249972 0.424196 0.32235 0.263851 -0.522125 -0.503631 -0.596981 0.27691 -0.293334 -0.499819 -0.341297 -0.458357 0.224791 -0.434369 -0.21507 0.271199 0.3286 0.300207 0.423346 0.451539 0.229688 0.345455 -0.37413 0.268875 -0.395025 0.571636 -0.587804 0.424343 0.268367 -0.217472 -0.207962 -0.34848 0.584066 -0.587512 -0.212746 0.552883 0.59422 -0.269103 -0.520704 -0.235813 0.306672 0.252051 -0.437441 0.307072 0.535106 -0.589246 -0.413214 0.27963 0.586414 0.204692 -0.506192 -0.241593 0.255913 0.268762 -0.448673 -0.292346 -0.312024 0.249822 0.22079 0.455273 -0.481437 -0.498964 0.582245 0.491932 0.245736 -0.567819 0.4542 -0.452341 -0.320107 0.48673 0.225678 0.524126 -0.323472 0.287167 -0.330842 -0.300158 -0.386959 -0.306931 -0.577717 -0.337863 -0.495488 -0.575381 0.315093 -0.2598 -0.348825 0.403981 -0.525605 0.512206 0.302056 -0.393339 0.541812 0.445177 0.49262 0.497975 0.550972 0.493789 -0.341519 0.596147 -0.296893 -0.291813 -0.202477 -0.220222 -0.223901 0.577159 0.5318 -0.558854 -0.263996 0.202383 -0.35614 0.426952 -0.536196 -0.553571 -0.589912 0.534328 0.205665 0.532523 0.521934 0.536224 0.485172 0.271792 0.283882 -0.290585 0.434678 -0.304494 0.593326 -0.29793 0.252188 0.207238 -0.20122 -0.328905 -0.567707 0.215026 0.214174 0.435477 -0.464633 -0.316318 0.537915 0.296393 0.499871 0.363411 -0.332333 -0.422719 0.512843 -0.426621 -0.371524 0.520948 0.216955 -0.228872 -0.487225 -0.530475 0.371617 -0.300373 -0.453696 -0.482125 -0.597652 -0.246764 0.506878 0.514506 0.29944 0.333785 -0.296654 0.210194 0.590708 0.344738 -0.503414 0.22979 0.322006 0.384563 -0.526928 -0.329269 0.312224 -0.254566 0.245515 -0.438824 0.310199 0.215919 -0.227342 -0.520463 -0.265179 0.495982 -0.340414 0.243624 0.255936 -0.438122 -0.494875 0.507445 0.343423 -0.226201 -0.531082 0.533893 -0.437634 0.448135 0.575925 -0.483026 -0.433798 -0.209697 0.304781 -0.436632 -0.481508 -0.34358 0.242144 -0.383481 0.213035 0.574504 0.274707 -0.585399 -0.458209 -0.377318 -0.20213 0.475238 -0.439351 0.410141 -0.538256 -0.304848 0.321526 -0.596146 -0.499454 0.549237 0.589309 0.456607 -0.432139 -0.576358 -0.275538 0.524483 0.414019 0.513597 0.284656 -0.597502 0.37051 -0.442677 -0.55078 -0.255707 -0.21845 -0.362723 0.528686 -0.271776 0.461334 -0.451173 0.401811 0.214542 0.575376 0.2692 -0.251877 0.282946 -0.369053 -0.314424 0.364445 -0.570067 0.375075 -0.390655 -0.352119 -0.464585 -0.510566 0.550326 0.491413 0.328206 -0.493007 0.526823 -0.464109 -0.367271 0.535391 -0.352995 -0.251826 0.482731 0.455851 -0.530661 -0.535817 0.221423 0.511004 0.558759 -0.536617 0.269207 0.484372 0.374507 0.205798 -0.381644 -0.423473 -0.241025 0.257701 -0.3022 0.597142 -0.521523 0.428107 0.379342 -0.514696 -0.541528 0.425067 0.280937 -0.206765 -0.45792 -0.397222 -0.553753 -0.574203 -0.495995 -0.518534 -0.545457 -0.231055 -0.448636 -0.409926 -0.598272 -0.366079 -0.575935 0.550535 -0.300584 0.512315 0.569864 0.598068 -0.330233 0.518395 -0.204176 -0.224422 -0.352606 -0.416612 -0.514638 -0.22922 0.35116 0.45271 -0.386444 -0.383966 0.360545 0.445533 0.405818 -0.254026 -0.415872 -0.562279 -0.40935 -0.369681 0.242178 -0.563198 0.212832 -0.469727 -0.387716 -0.491087 0.525682 -0.461189 -0.371334 0.416636 -0.550323 0.513203 0.443083 0.586244 0.462183 -0.214389 -0.342218 -0.461178 -0.570005 -0.519041 0.453342 0.331882 -0.485181 -0.46525 -0.299794 -0.233667 0.552548 0.416313 -0.422353 -0.448065 -0.558482 0.588898 0.440041 -0.455748 0.58098 -0.567768 0.584918 0.213345 0.292722 0.526613 -0.560482 0.442633 -0.507151 -0.308662 0.461503 0.414039 0.41918 -0.520683 -0.253013 0.469268 0.551221 -0.468315 0.536686 0.406237 0.360256 -0.421924 -0.29313 -0.233768 0.323502 -0.329784 0.299156 -0.404988 -0.346761 -0.577557 0.502103 0.433767 -0.283861 -0.389463 -0.583742 0.249956 0.32855 -0.464736 -0.536436 0.421961 -0.240934 0.244942 0.495569 0.258426 0.575602 -0.442103 0.482809 -0.331029 -0.377951 -0.587218 -0.516191 0.505691 -0.509053 -0.46642 -0.268932 -0.505426 0.240126 0.449956 -0.400298 -0.578024 -0.544366 -0.253604 0.495996 -0.393845 0.305124 0.435639 -0.418236 0.266055 -0.511758 0.572778 -0.220857 -0.290555 -0.428572 0.596678 -0.448893 -0.404769 0.394828 -0.220433 -0.243006 0.364771 0.59534 0.369445 0.34174 0.540865 -0.367976 0.234187 -0.391847 0.449816 0.265253 -0.249288 -0.421196 -0.307404 -0.31243 -0.306849 -0.542115 -0.503566 0.472029 -0.351031 -0.508512 0.267267 -0.20554 -0.465321 -0.426196 0.417806 -0.561632 0.405595 0.321151 0.398852 -0.240837 0.589017 -0.37732 0.520406 0.565594 -0.263118 -0.363333 0.550593 -0.43184 0.56626 0.531052 -0.549486 0.25116 -0.275512 0.26808 0.205892 -0.380065 0.291868 0.487491 -0.206734 0.283711 0.32719 0.400238 0.215917 -0.493698 0.290115 -0.366242 0.317433 -0.394681 0.589713 -0.267309 0.571678 -0.590513 -0.404759 -0.275821 -0.33109 0.481345 0.206577 -0.536063 0.313662 -0.204671 -0.25451 -0.443377 0.588316 -0.564888 0.50082 -0.573633 -0.47957 -0.536045 -0.442151 0.495821 -0.371398 0.431521 0.45875 0.40047 0.597345 0.376188 -0.576055 -0.423799 -0.257623 -0.542399 -0.420883 0.430941 -0.480178 -0.384782 -0.378851 -0.29557 -0.45777 0.328224 0.294675 -0.288932 -0.333834 0.343876 0.484686 0.274259 0.356362 -0.500751 0.53269 0.277699 -0.498677 -0.535197 -0.543084 -0.227776 -0.557857 0.517374 -0.284693 -0.344553 0.471427 -0.528417 0.456104 0.298421 -0.219334 0.589711 -0.330864 0.364892 -0.52989 0.307068 0.330855 -0.273828 -0.490844 0.341244 -0.597509 -0.394065 0.374225 0.225049 -0.325158 0.242795 -0.322643 -0.296516 0.299915 0.483047 -0.561496 0.50278 -0.32496 -0.381062 -0.56781 -0.591342 -0.408103 -0.434255 0.507889 -0.212657 -0.582774 0.377539 0.287958 0.558923 -0.335462 -0.417679 0.432086 -0.389308 -0.297066 0.57285 0.492676 0.230195 -0.3496 -0.283107 -0.323753 0.290536 0.351216 -0.411944 0.34213 0.227048 -0.212837 -0.57455 0.565186 -0.401969 -0.334229 -0.327129 0.339011 0.327683 -0.221773 0.5461 0.506554 0.452054 -0.504711 -0.496945 -0.434864 0.524433 0.368721 0.292624 -0.262843 0.396159 0.269411 -0.423976 -0.280611 -0.297034 -0.36245 0.447911 0.27977 0.326774 -0.363962 0.231322 -0.547713 -0.446527 -0.454739 0.45034 -0.433742 -0.314653 -0.569787 0.311576 0.490288 -0.352783 -0.451744 -0.321742 0.300658 0.515994 -0.472235 0.463446 0.503071 -0.536381 -0.249123 0.275391 -0.433221 -0.386019 -0.328672 0.453406 -0.306205 0.271699 -0.206882 0.489462 -0.241956 -0.572161 -0.352771 0.334139 0.545579 -0.413651 -0.457241 -0.477566 0.279086 0.49347 -0.56118 0.426719 0.353065 0.225333 -0.291858 -0.467488 -0.320251 0.248005 -0.275255 -0.528864 0.452664 -0.215535 0.231557 0.400367 0.556687 0.518401 -0.440713 -0.585251 0.243537 -0.353725 -0.525379 0.469209 0.460861 0.518652 -0.299358 -0.55695 -0.590031 -0.261927 -0.465587 0.332231 -0.556132 -0.340139 -0.395752 -0.390622 -0.335974 -0.574684 -0.565559 0.306983 -0.361106 -0.362536 -0.47315 0.412486 0.29197 0.484768 0.336708 -0.37983 0.267632 0.489685 -0.24536 -0.302673 0.224655 -0.442687 0.521249 0.416634 -0.575304 0.54282 -0.298655 -0.311634 -0.229719 -0.348183 -0.213402 0.459268 -0.447983 -0.544417 0.429261 0.274677 0.324446 -0.444129 -0.467033 0.328052 -0.239934 -0.29079 0.426177 -0.529215 -0.398826 0.222324 -0.205411 0.493261 0.230545 0.346737 -0.484768 -0.313722 0.338778 0.25491 0.218615 -0.448148 -0.453833 -0.397137 -0.341362 -0.535906 0.40375 -0.352415 -0.439822 -0.262556 0.483353 -0.330174 0.230707 0.377335 -0.401746 0.375296 0.215206 -0.478909 0.562382 -0.549049 0.402398 -0.243931 -0.443186 0.415309 -0.442021 -0.553375 -0.287158 0.493495 -0.527444 0.487349 0.503075 -0.549551 0.286089 -0.38732 -0.504506 -0.352213 0.221325 -0.313051 -0.592489 -0.547518 -0.406226 0.559885 0.584442 0.211249 -0.52421 -0.241076 -0.561243 -0.345566 0.419087 -0.295802 0.269256 -0.430496 0.24416 -0.555091 0.471908 0.471159 0.403503 0.571518 0.284424 0.299831 -0.481364 -0.435919 0.331535 -0.489939 0.514372 0.274214 0.433758 0.274208 0.448258 0.514567 -0.531909 -0.3983 0.21677 -0.523357 -0.352584 -0.309828 -0.364096 -0.476556 -0.527232 0.446253 -0.352237 -0.425231 -0.425177 0.463912 0.528739 -0.393601 -0.564204 0.596061 -0.361719 -0.282168 -0.542607 0.548251 0.337743 0.202334 0.591301 -0.506579 0.369054 0.329532 0.231249 -0.267666 0.371922 0.420636 -0.453168 -0.3171 -0.336115 0.529189 0.591265 -0.385425 0.302246 -0.393984 -0.236347 -0.437084 -0.432372 0.399632 -0.560059 -0.423608 0.328565 0.468107 0.460942 0.596619 0.384476 0.27578 -0.403248 0.50475 0.248965 0.59904 -0.399296 0.490712 0.40274 -0.495288 0.557642 0.49478 -0.363141 -0.26794 0.348094 -0.22114 0.590367 0.308312 0.558124 -0.299108 -0.311795 -0.2924 0.534271 -0.542758 0.273456 -0.499809 0.556942 0.317305 -0.557476 0.344165 -0.449803 -0.238141 -0.462225 0.233784 -0.359514 0.427438 0.431039 0.382399 -0.502951 0.50232 0.563203 -0.207505 0.596719 -0.240227 0.510053 -0.259766 0.549697 0.200026 -0.444358 -0.232271 -0.366702 0.475181 0.379547 -0.363051 -0.382738 0.258905 0.467501 0.266086 0.391219 -0.418415 0.490705 0.461128 -0.576087 0.252324 0.494963 -0.424317 0.544303 0.259406 -0.357079 0.406348 0.487827 -0.285758 0.531662 0.219548 -0.458156 0.424152 0.316143 -0.589263 -0.546433 -0.512675 -0.326181 0.503062 0.43649 0.394334 -0.384924 -0.533386 0.465935 -0.428079 -0.370986 -0.520478 -0.285589 0.378003 0.42991 -0.493961 -0.408851 -0.21774 -0.543628 -0.205516 0.483269 -0.373687 -0.400533 -0.340945 -0.326217 -0.464066 0.41665 -0.526345 0.529173 0.303971 -0.471613 0.535426 0.404569 0.215497 0.473968 -0.528315 -0.420864 0.425431 0.409076 -0.287866 -0.535399 0.432495 0.336474 0.254289 -0.463188 -0.424731 -0.356193 0.415265 0.313324 -0.308959 -0.451775 -0.34453 0.339276 -0.294036 0.536337 0.483644 0.333833 -0.223786 0.47498 0.535955 0.436336 -0.47297 0.520843 -0.553291 -0.518997 -0.221459 0.299523 0.443412 -0.335949 0.387151 0.31935 0.544022 0.386936 0.32349 -0.245883 0.400085 0.42013 -0.474747 -0.36129 -0.37514 0.490287 -0.45106 0.562587 0.42861 -0.23192 0.370822 -0.286556 0.204452 0.282653 0.535408 -0.387387 -0.210755 -0.408547 -0.348491 0.31354 -0.250125 -0.320229 0.593638 0.595657 -0.381352 0.438008 0.378846 0.267019 -0.398056 -0.511241 0.478208 -0.468957 0.306145 -0.374464 -0.247341 0.378266 -0.491831 -0.598651 0.581311 -0.307716 0.221885 -0.314838 0.470288 -0.58403 0.531529 -0.401809 0.593899 0.298699 -0.34827 0.55468 -0.361168 -0.493077 -0.231442 0.538468 -0.486037 -0.375417 0.591909 0.308654 0.272112 -0.530542 -0.587955 -0.413378 -0.403116 0.281898 0.385241 -0.346996 -0.369524 0.599408 -0.531803 -0.413718 -0.584061 0.325762 -0.47939 -0.438166 -0.5271 -0.555143 -0.501058 0.496909 -0.280599 0.255559 -0.215385 0.412248 -0.44263 0.585875 0.349533 -0.592272 -0.388728 0.309563 0.55245 -0.21962 -0.316437 0.394605 0.343284 0.32167 -0.270322 0.289722 -0.579785 -0.470616 -0.313627 0.596846 0.256085 0.596753 0.307152 0.512931 -0.254045 0.539151 -0.507313 -0.387978 -0.42527 0.474479 -0.286877 -0.581299 0.466171 0.489076 0.308407 -0.442957 0.475041 0.209305 0.546026 -0.241795 -0.454787 -0.370554 0.314702 -0.412697 0.46818 0.435565 -0.251377 -0.221719 0.268779 -0.497346 0.396717 0.541677 -0.580012 -0.253951 0.473218 -0.52611 -0.276692 -0.490104 -0.255196 0.331367 -0.389977 -0.478433 0.383795 -0.358902 0.410947 0.22976 0.39655 0.279422 -0.52242 0.302601 -0.429119 0.523642 0.325374 -0.297205 -0.516547 -0.303946 -0.395503 0.547878 0.482531 -0.431873 -0.363028 0.301142 0.43307 0.33614 0.513937 -0.551127 0.467451 -0.248866 -0.288515 0.373394 -0.574642 -0.311586 -0.459719 0.349444 -0.366244 0.435729 -0.442949 -0.488849 0.317435 0.43151 0.463729 0.374428 -0.257406 -0.324004 -0.569366 0.350983 -0.374739 -0.314154 -0.522032 -0.376708 0.444914 -0.217547 0.549308 0.363882 0.531384 -0.298115 0.378028 0.526293 -0.295839 -0.581355 0.547697 -0.209213 -0.594906 0.356893 -0.586965 -0.205214 -0.546039 -0.519741 0.529157 0.562089 0.279014 0.255655 0.532748 0.292477 -0.232246 0.293792 0.40617 0.302378 -0.426373 0.318014 0.392873 -0.245216 -0.345989 -0.234258 0.24858 0.535688 0.256552 -0.584637 -0.573291 0.217887 0.350947 -0.58548 -0.414685 -0.358193 -0.54713 0.454395 0.599436 -0.478915 0.464568 -0.420572 -0.50952 0.240742 -0.347602 -0.555372 0.302494 -0.326431 -0.284939 0.410557 -0.39977 0.540682 -0.444958 -0.486903 0.294688 -0.58982 0.278991 0.472404 -0.566652 0.554583 0.538526 -0.435148 -0.483215 0.49446 0.27349 -0.467779 0.273768 -0.220161 0.203537 0.36312 -0.272882 0.257481 -0.563332 -0.340385 -0.443032 -0.244238 -0.204924 0.422577 -0.440964 0.456294 -0.422055 0.387715 -0.532533 0.414548 0.31494 0.234296 0.330609 0.539696 -0.221663 0.223926 -0.375049 0.246253 -0.547549 -0.268112 0.585868 0.302968 -0.248479 0.303745 0.298559 0.517083 -0.495962 -0.20132 0.243157 0.320513 -0.221096 0.529515 -0.412602 -0.576118 0.444598 0.548665 0.568635 0.238389 -0.542316 -0.598127 -0.260427 0.454372 -0.466589 -0.582961 0.396709 0.574566 0.447913 0.21395 0.479849 0.420667 -0.234297 -0.554913 -0.420964 0.220047 -0.335435 0.404154 0.533383 0.352252 -0.514219 0.309717 -0.438687 0.528733 -0.588364 0.347116 -0.53275 0.592659 -0.337114 0.569979 0.540874 -0.321358 -0.208199 0.472172 0.584039 0.341553 0.359637 0.209186 0.535554 0.284924 -0.480601 -0.39213 -0.399823 0.380398 0.332362 -0.495016 -0.340402 -0.349546 0.541887 -0.290182 0.246142 0.424184 -0.283006 -0.404103 -0.371289 -0.542478 -0.321068 0.465241 -0.519397 0.457829 0.396016 -0.324995 0.36922 0.285019 0.496259 0.237032 -0.206937 0.34818 -0.294587 -0.308503 0.441311 -0.517765 -0.385589 -0.48327 -0.428645 0.356744 0.493944 0.561079 0.35628 0.37427 0.4213 -0.59494 -0.272519 -0.51818 -0.295403 -0.232981 0.277665 0.499094 0.333752 0.568239 0.523464 -0.587059 -0.206723 -0.480571 0.594236 -0.415541 0.466144 0.243773 0.553601 0.305769 -0.588636 0.585719 0.289496 -0.529555 -0.267177 -0.385646 -0.222777 -0.408048 0.320843 -0.392502 0.343461 -0.530614 0.418524 0.548269 -0.53634 -0.42113 0.392789 0.591277 -0.291662 0.305534 -0.418626 -0.34948 -0.263885 0.470903 -0.246148 0.499807 -0.271448 -0.399216 0.404808 0.262098 -0.401524 0.266124 0.290077 0.476598 0.578234 -0.540579 0.473312 -0.238262 -0.247588 -0.321926 0.57257 -0.483346 0.452154 0.53399 0.430046 0.39811 0.479317 -0.225882 0.521636 0.351134 -0.484612 -0.296729 0.381772 -0.295122 -0.244156 -0.523095 -0.43878 0.260743 -0.489002 0.347896 -0.590822 -0.350617 0.41024 -0.439533 -0.278979 -0.231745 -0.282379 0.321515 0.463465 -0.293511 0.233685 0.524346 -0.423046 -0.563399 -0.579822 0.431096 -0.2573 0.440782 -0.358213 0.599416 -0.270981 0.400784 0.359634 0.217511 -0.338936 0.530719 -0.327628 -0.245086 -0.440154 -0.262722 0.319779 0.39062 0.475532 -0.244619 0.311717 -0.470937 -0.275195 0.536058 0.59402 -0.457928 0.264592 -0.505577 0.243712 0.342893 -0.559147 -0.303841 0.299434 0.456004 0.525863 -0.208711 -0.544657 0.420278 -0.551369 -0.454681 -0.309906 -0.278344 0.501256 -0.566717 -0.534583 -0.428833 0.515226 0.572655 -0.427136 0.589626 0.329283 -0.390579 -0.477985 -0.293792 0.367193 0.374742 0.261083 0.251596 0.437006 0.507306 0.327923 0.265319 -0.268815 0.257809 -0.466633 -0.24895 -0.245772 0.269856 -0.450386 -0.353111 -0.312122 0.494678 -0.380938 0.335543 0.564588 -0.389534 0.378989 -0.335659 0.492826 0.343754 0.440902 0.355375 -0.232234 0.410432 -0.588879 0.5002 -0.491395 -0.474205 0.341153 0.290278 0.252597 -0.398251 -0.334665 -0.27939 -0.327377 0.38695 -0.215848 -0.454954 0.367556 0.530702 -0.228928 -0.457435 -0.22578 -0.592658 0.341387 0.472673 -0.562748 0.22557 0.204833 0.324903 0.528103 -0.300489 -0.454178 0.592034 0.220829 -0.378168 -0.353637 0.570081 0.367243 0.546349 -0.245674 -0.302614 -0.489945 -0.305835 -0.433144 -0.226988 -0.342592 -0.305199 -0.28292 0.218504 0.219968 -0.353506 -0.432276 -0.553022 -0.286325 -0.508149 -0.318393 -0.340422 0.338947 -0.503116 0.276996 -0.333338 -0.257582 0.416359 -0.535769 -0.444251 0.231535 0.329342 -0.321344 0.46333 -0.581736 -0.539669 0.382241 0.308467 0.526349 0.493279 -0.541688 0.422933 -0.465152 0.339771 -0.474155 0.356658 -0.581779 -0.369502 0.568364 0.510791 -0.40431 -0.250228 -0.530551 0.507739 0.370279 -0.460244 -0.427634 0.311237 0.32247 -0.493707 0.435031 0.502315 -0.536365 -0.519932 -0.304648 0.454828 -0.281183 0.495509 0.263753 -0.468633 -0.204266 -0.546 -0.412055 -0.524686 0.508245 0.53115 -0.468758 0.560085 0.505281 -0.309852 -0.310741 0.518887 0.469737 0.403658 -0.217643 0.367522 -0.401168 0.453808 -0.370758 0.547748 0.596888 -0.422279 -0.312363 0.270769 -0.262382 -0.227572 0.345301 -0.565046 0.360854 0.548528 0.440995 0.400407 0.429571 0.255387 0.432709 0.279333 0.482033 -0.295243 -0.283977 0.212039 -0.546634 0.519482 -0.586071 0.306974 -0.253232 0.525423 -0.371552 -0.53639 -0.380044 0.201452 -0.594911 -0.442351 0.582396 0.47134 -0.303606 -0.412732 -0.522991 0.342175 -0.216742 -0.255987 0.504651 -0.564201 -0.307239 -0.277325 0.492367 0.500037 0.359561 -0.364223 0.279982 -0.408331 -0.518942 0.433828 -0.353276 -0.350995 -0.425152 0.439992 -0.388391 -0.406005 -0.304783 0.382913 -0.562107 -0.484428 0.425338 -0.463626 0.284214 0.288908 0.293019 0.44509 0.49874 -0.216313 -0.403066 -0.453695 0.260498 0.487086 0.543031 -0.362431 -0.35295 -0.226806 0.29551 -0.483607 -0.562388 0.382881 -0.495251 0.501702 0.224055 0.517883 0.37432 -0.418577 0.431278 -0.200099 0.375663 0.279447 0.409389 0.506901 -0.596684 -0.284624 -0.363023 0.214478 0.495475 0.452265 -0.434195 0.34665 0.541726 -0.443334 -0.270889 0.547313 -0.205963 0.375165 -0.333012 -0.320251 -0.472574 0.288768 0.27238 -0.293871 -0.219426 0.487385 0.316284 0.462136 0.599261 0.431013 -0.548903 0.516702 -0.405086 0.370218 0.373932 0.267795 0.295344 0.282102 0.459808 0.335579 0.32211 0.332854 -0.256999 0.496403 -0.30046 0.326409 -0.505743 0.204229 0.334977 -0.248928 0.264916 -0.555415 0.473285 0.527985 0.413491 0.212327 -0.286528 -0.373994 -0.340172 -0.399786 0.397814 0.489995 -0.569306 0.414386 0.26867 -0.213192 0.580036 -0.493845 0.206124 -0.586415 0.485394 -0.355215 0.343923 -0.315449 -0.599606 0.324726 -0.441429 -0.500976 -0.508944 -0.515018 0.578675 0.311199 0.496818 -0.412033 0.426874 -0.322557 0.397189 -0.28419 -0.406981 0.425207 0.314873 0.204007 0.564654 -0.367038 0.220344 -0.451212 0.210266 0.557731 0.567455 -0.410026 -0.568211 -0.506598 -0.410355 0.306513 -0.390426 -0.423924 0.481653 -0.461602 0.332913 0.319906 -0.310695 0.352276 -0.533529 -0.228045 0.47977 -0.295313 -0.370655 -0.213381 -0.592698 0.598347 -0.251614 -0.288425 0.250201 -0.379574 -0.578667 0.53637 0.470598 -0.410323 -0.398653 -0.30511 0.276441 -0.526405 -0.402334 -0.428106 -0.25968 -0.578157 -0.248723 -0.244561 -0.216608 0.482038 0.323615 -0.284637 -0.507055 0.398339 0.333329 0.384132 0.303872 0.256865 -0.250323 -0.301238 0.311424 0.421298 -0.345976 -0.459071 -0.289994 -0.357859 -0.559517 0.407822 -0.337455 -0.572281 0.50961 0.280554 0.466949 -0.519687 -0.22239 -0.227276 -0.300319 0.49396 0.314432 -0.208879 0.494141 -0.218035 -0.209233 -0.32023 0.432017 -0.217472 -0.448923 0.355108 -0.435445 0.233145 0.29572 -0.591648 0.508994 0.242334 -0.23864 0.427852 0.41795 0.386439 -0.271744 -0.573871 0.59918 0.245388 -0.289369 -0.563976 0.475292 0.382648 -0.257542 0.367051 0.259904 0.589963 0.460598 -0.231325 0.263702 0.505731 0.324432 -0.239207 -0.470945 0.571716 -0.485092 0.485127 0.532812 0.331396 -0.442071 -0.55689 0.307833 -0.200519 0.364668 0.24698 -0.449606 0.563816 0.432313 -0.297651 -0.287619 -0.263572 0.205058 0.333096 -0.216474 -0.528225 0.36294 0.36052 -0.431968 -0.439204 0.392882 0.425006 0.438894 0.216527 -0.391846 0.374466 0.383545 -0.452177 -0.386737 0.326473 -0.449765 -0.261757 0.539813 0.483477 0.583316 -0.368417 -0.208864 0.418686 -0.382245 -0.518966 -0.549391 -0.453556 -0.53147 -0.521539 0.291006 0.52142 0.30271 -0.553475 0.405454 0.414304 -0.559633 0.564967 0.576143 -0.416256 -0.218866 0.332479 0.428654 -0.301193 0.291769 -0.478332 -0.270744 -0.323545 -0.382929 -0.415976 0.513973 0.377152 -0.213 -0.442104 -0.525772 -0.347531 0.393583 -0.512895 0.466045 -0.382362 -0.23682 0.340588 0.460447 0.481017 -0.541154 0.231758 -0.327273 0.328734 -0.551029 -0.329416 -0.2292 -0.42144 -0.356957 0.44502 0.348423 -0.580815 0.288077 0.492806 0.585537 -0.591899 0.470816 -0.381819 -0.432567 -0.338361 -0.481392 -0.260398 -0.344724 0.333374 0.216173 0.524682 -0.205776 0.54984 0.226901 0.242376 0.216469 0.539129 -0.257932 -0.485373 0.231501 -0.274095 -0.491512 0.423485 0.216332 0.537917 -0.535253 0.397102 0.368097 0.234881 0.589588 -0.407435 -0.311532 -0.493342 0.467512 -0.259963 -0.40245 0.411906 0.468551 0.330197 -0.592249 0.517389 0.530713 -0.468531 -0.461433 -0.493807 -0.580669 -0.457078 0.447807 -0.461665 -0.529136 0.214333 -0.255685 -0.425547 -0.46163 0.40912 -0.223859 0.381381 0.440999 -0.253381 0.553324 -0.553453 0.248431 0.226194 -0.560952 -0.211558 0.409486 -0.221674 0.452129 0.389408 -0.402966 -0.567638 -0.325037 -0.381396 -0.398931 -0.268469 -0.381966 -0.286248 -0.432454 0.326636 0.200301 0.283494 -0.364084 -0.274959 -0.552389 0.329973 -0.462896 0.582179 0.446631 0.553969 -0.598353 -0.397817 0.244359 0.210716 -0.596507 -0.270219 0.475546 0.406596 -0.458881 0.255844 0.345922 0.566625 -0.483427 -0.59675 -0.312379 -0.37562 -0.573157 0.491051 0.457503 0.494329 -0.239119 0.450818 0.318262 0.554295 0.538969 0.388414 0.395955 -0.293708 -0.303843 0.40944 -0.241178 0.526954 -0.558497 -0.23185 0.319773 0.27001 0.490728 0.273557 0.578243 -0.586134 0.237991 -0.202102 0.529587 -0.513328 0.386269 -0.449652 -0.307827 0.441781 -0.594612 0.482324 -0.399811 -0.473276 0.473162 -0.299529 0.574685 0.368616 -0.460211 -0.446621 0.466529 0.423228 0.482716 -0.480245 0.449487 -0.256869 -0.595657 0.558483 0.491527 -0.486007 -0.378592 0.216095 0.2712 -0.365954 -0.55543 -0.321209 -0.372524 0.474757 0.217318 -0.245784 -0.477028 -0.310903 0.241846 -0.268153 -0.501145 -0.298063 0.539696 -0.433015 0.498868 0.542306 -0.211544 -0.276257 -0.207953 0.439308 -0.306017 0.492076 0.587745 0.45573 -0.272366 0.562964 0.478042 -0.253249 -0.375184 -0.428633 0.485233 -0.528351 -0.434455 0.280845 -0.555622 -0.46768 -0.405246 0.244684 -0.362735 -0.422582 -0.424296 -0.408612 -0.446572 0.520076 0.348125 0.295809 -0.519649 -0.530135 -0.228767 0.596513 -0.531134 -0.246028 -0.223948 0.52937 0.591125 -0.221785 0.537497 -0.517759 -0.292258 0.405826 -0.586544 -0.473741 -0.525793 -0.260296 0.414857 0.538949 0.521001 -0.48237 -0.275689 0.331633 -0.563692 -0.482234 -0.583815 -0.285259 -0.237827 0.516455 -0.392719 0.530563 -0.594073 0.273073 -0.247668 -0.554921 0.596999 -0.513619 0.249032 0.339501 0.39867 -0.513914 -0.421727 0.458557 -0.490258 0.483925 -0.565209 0.401489 -0.405347 -0.368213 0.486584 0.421684 -0.560426 -0.556271 0.380556 -0.222182 -0.317507 0.361711 0.535268 0.398788 -0.395281 -0.508502 0.4972 0.319773 -0.584554 0.555562 -0.211121 0.354721 0.51255 0.581004 -0.406764 -0.272332 -0.539281 0.463505 0.454312 0.300075 0.345007 0.410084 0.318569 -0.344754 0.417843 0.57426 -0.477562 0.400511 0.439974 0.483217 -0.384701 0.571009 -0.389592 -0.598531 0.496808 -0.293497 0.307183 0.284022 -0.433438 -0.528874 0.529092 -0.480245 0.232115 0.596764 -0.462271 -0.518827 -0.43553 0.370953 0.324351 0.269025 0.46809 -0.262974 0.266102 0.401025 0.575773 -0.550821 -0.233033 -0.311518 0.511822 -0.537237 0.588263 0.421065 0.3459 0.448914 0.361502 0.49141 -0.280461 -0.204866 -0.301381 0.246103 -0.535789 -0.582018 -0.42799 -0.233971 0.401818 -0.513906 -0.427272 0.213873 -0.326989 0.443424 0.380726 0.518083 0.289219 0.20775 0.328839 -0.467754 0.250777 0.233451 -0.543308 -0.21858 0.23863 -0.535206 0.267457 0.439075 -0.411867 -0.282936 -0.417334 0.45378 -0.523968 -0.297154 -0.515382 -0.317436 0.41468 -0.444926 0.418309 0.503113 0.395992 -0.322841 -0.387398 0.257895 -0.244416 0.591857 -0.341851 0.368302 -0.307167 0.318627 -0.430364 0.588708 0.586951 -0.403031 -0.297141 -0.262199 -0.544463 0.356583 0.346956 0.331125 0.555309 0.253121 -0.56862 0.362979 -0.286879 -0.298336 -0.317669 -0.562286 0.520679 -0.509879 0.471462 -0.510953 -0.357118 0.547785 0.482013 -0.295445 -0.401893 0.534481 -0.56999 -0.4463 0.579065 0.574112 0.23168 0.401353 0.301716 0.570179 0.28331 -0.389102 -0.548667 -0.344502 0.415798 0.268002 -0.588513 0.388204 -0.299942 0.215371 0.57914 -0.375741 -0.525881 0.56318 0.288326 -0.200774 0.41449 0.212064 -0.526762 0.593837 -0.596513 -0.360251 0.264321 0.543528 0.582959 -0.44327 0.548383 0.57292 -0.596105 -0.50186 0.469458 -0.456068 -0.29251 -0.447106 0.224698 0.361832 -0.502782 -0.206237 0.470539 0.331367 -0.508665 -0.415598 -0.593648 -0.331312 -0.324618 -0.274184 0.535806 0.278024 0.398384 0.247588 0.366074 0.444293 -0.331504 0.235959 -0.400295 0.455541 0.341964 0.566008 -0.459657 -0.325365 -0.330492 0.57835 -0.3298 -0.294614 -0.581505 -0.351265 0.551623 0.416434 -0.446088 -0.285169 0.21972 0.355344 -0.211849 0.497296 -0.418672 0.45578 0.422209 0.215463 0.490505 0.480192 -0.45228 0.219589 -0.227016 0.487029 0.288417 0.519488 -0.512909 -0.469821 -0.396184 0.396264 0.389777 -0.56402 -0.486174 0.563995 -0.289561 0.248689 0.475645 0.345743 0.504301 0.375766 0.204971 -0.300856 0.370085 -0.442638 0.337794 0.581125 -0.290945 -0.539557 -0.524628 0.353799 -0.34774 -0.556029 -0.470766 0.526046 0.334544 0.367786 -0.397065 -0.257395 0.439318 -0.533418 -0.538934 -0.504684 -0.459688 -0.206999 -0.347794 -0.398505 -0.563286 0.518918 0.456306 0.20912 -0.546776 0.330366 0.245548 0.310991 -0.287793 -0.461979 0.558952 0.256607 0.210904 -0.202956 0.424404 -0.25423 -0.555995 -0.221743 0.418112 -0.403152 -0.407769 0.508729 0.321279 0.338183 -0.264129 -0.4358 -0.366824 -0.44172 -0.556012 0.536425 -0.246136 0.568106 -0.563803 -0.414432 0.220711 -0.546804 -0.551103 0.281797 -0.475253 0.481454 -0.420142 0.562462 0.209661 -0.364693 0.248857 -0.346089 -0.291772 -0.297125 0.304044 0.437491 0.529142 -0.553236 -0.239829 0.552626 0.455013 -0.454463 -0.551335 0.26212 -0.221107 -0.52667 -0.52793 0.364958 -0.386954 0.275278 -0.37364 -0.215754 -0.297065 0.583026 -0.204022 -0.251976 0.369733 -0.534191 0.323365 0.282065 0.423124 0.414437 -0.281493 -0.370758 -0.441478 -0.359446 -0.358806 -0.317899 0.344189 0.592765 -0.236578 -0.207247 -0.551181 0.527379 -0.53775 -0.419018 -0.218178 -0.511929 0.21285 0.568119 0.528723 0.469446 -0.502765 -0.5434 -0.28827 0.395166 0.580906 0.531159 -0.343852 0.206632 -0.467982 0.442475 -0.459104 0.585831 -0.437091 0.326282 -0.281516 -0.453343 0.583073 -0.231236 -0.332907 -0.396191 -0.228815 0.245901 0.585888 -0.454268 0.478183 0.340029 0.451148 0.209242 -0.279811 0.454053 -0.331252 -0.345608 0.504138 0.385669 0.203246 0.350859 -0.30921 -0.404727 -0.449292 0.548967 0.355739 0.464762 -0.414856 0.295125 0.209528 0.255994 0.256573 0.455106 0.578446 0.597755 0.222635 0.213752 -0.545374 0.426944 0.477475 -0.522142 -0.464907 0.2401 -0.260908 0.57443 -0.284403 -0.411216 0.432025 0.301686 0.307096 0.392162 0.448056 -0.461578 0.224394 -0.588096 -0.464433 0.535082 -0.297141 0.409104 0.310407 0.428485 -0.413958 -0.535785 0.306021 -0.456454 -0.336912 0.542849 0.45453 -0.378397 0.492949 -0.380792 -0.27673 0.486722 -0.291056 -0.531921 -0.479359 0.596272 0.400105 -0.3393 0.569527 -0.319244 0.24437 -0.291406 -0.46652 -0.377823 0.236295 -0.51685 -0.274489 0.486897 -0.499397 -0.567008 0.579223 -0.472073 -0.495336 0.285455 -0.207126 -0.571301 -0.466793 -0.550395 0.532509 -0.492782 0.286834 0.28183 -0.213205 -0.526869 -0.387546 0.291358 -0.457156 -0.546097 0.574803 0.217354 -0.436251 0.233425 -0.251362 0.436357 0.312039 -0.552676 0.538772 -0.560197 -0.203234 -0.464578 0.380943 -0.557548 -0.519366 0.390591 0.535196 0.476099 -0.3966 -0.474491 0.493344 -0.431834 0.439986 -0.404257 0.419016 0.330734 -0.25152 0.213029 0.551247 -0.470561 0.474222 -0.364783 0.469097 -0.580865 0.550406 0.513659 -0.566204 0.449133 -0.530003 -0.584948 0.417844 -0.571268 -0.310994 0.301826 0.554875 -0.532855 0.233539 -0.238515 -0.33852 0.568332 -0.474737 -0.532675 -0.227485 0.247131 -0.435198 -0.306506 -0.347761 0.522406 -0.262072 0.520997 -0.596619 -0.446044 -0.551489 -0.532793 -0.503939 0.378934 -0.383117 0.219617 -0.493417 0.368089 0.298826 0.381657 0.55237 0.305343 0.328295 0.231389 -0.48019 0.355072 0.361992 0.521689 -0.588991 -0.444607 0.412232 0.58271 -0.530972 0.434264 0.225395 -0.476385 0.319983 0.592207 -0.208067 -0.573191 0.501029 0.319937 0.416129 0.328952 -0.342249 0.577228 0.437783 0.26013 -0.310737 0.398553 0.510314 0.313897 0.256666 0.478575 0.3297 -0.55299 0.580029 0.293749 0.314553 0.201277 0.39626 0.411282 0.538442 -0.402798 -0.365805 -0.385311 -0.276289 -0.306416 -0.205312 -0.397688 0.436757 0.365741 0.423605 -0.212944 -0.28219 -0.39496 0.592725 0.512493 0.477654 0.580347 -0.316641 -0.319578 0.264867 -0.525885 0.410985 0.405191 -0.474251 -0.464528 -0.430421 0.236014 -0.491692 0.391061 -0.437216 0.415585 -0.418845 -0.358329 -0.56159 0.328416 0.303903 0.296635 -0.377875 -0.56263 0.472757 -0.349982 0.304629 0.215789 -0.21697 -0.480739 0.510404 0.569056 0.492255 0.264735 -0.205293 -0.4803 -0.447453 0.224083 -0.478761 0.277453 -0.413871 0.454696 0.213431 -0.514822 0.277335 -0.484587 0.491884 0.316988 -0.581028 -0.237983 -0.574875 0.295516 0.495219 -0.447655 0.306313 0.525497 0.352544 -0.438685 -0.250678 -0.396376 -0.549068 0.315753 -0.534605 0.22509 -0.214465 -0.501954 0.581356 0.411667 0.31707 0.250554 -0.584431 -0.343568 -0.356245 -0.502949 -0.33576 -0.534937 0.380288 -0.52578 0.483432 0.230526 -0.213943 -0.487237 0.52995 0.471874 -0.358226 0.470403 0.49848 -0.479631 -0.596224 -0.461647 0.481905 0.416813 -0.447274 -0.377085 0.293462 0.228603 0.34009 -0.302703 -0.214743 0.317059 -0.497005 -0.515625 -0.201434 -0.450209 0.577836 -0.329642 0.508441 0.521933 -0.289047 -0.486421 -0.506628 -0.489914 -0.430864 -0.316758 -0.567194 -0.218576 -0.42128 -0.259684 -0.329456 0.420371 -0.22175 0.567032 -0.496469 0.285905 0.587983 0.368025 -0.487351 0.54133 -0.250555 -0.563821 0.491906 0.481948 -0.516597 -0.5359 0.451525 -0.353346 -0.306285 0.403465 0.209344 0.58827 -0.461697 0.491938 -0.414232 0.467262 -0.491356 0.482536 0.41348 0.496449 0.306116 -0.376131 -0.588621 0.430916 0.249855 0.297661 0.523752 0.256525 -0.442224 -0.534497 -0.381731 -0.521243 0.232842 0.45635 0.568264 -0.576399 0.585148 0.232022 -0.282006 -0.268676 -0.497319 -0.391059 0.452266 0.20652 0.396046 -0.350947 0.342775 -0.250864 0.47597 -0.221938 0.260012 0.518614 -0.350866 0.218929 -0.413574 -0.564732 -0.453941 -0.531964 -0.203374 0.400699 0.479499 0.377197 0.223836 0.397891 0.335275 0.34404 0.418166 0.440448 -0.21329 -0.401904 0.546982 -0.537757 0.522427 -0.507131 -0.408204 -0.325222 0.259476 -0.309978 0.330481 -0.583118 -0.327698 0.261043 0.389813 0.514896 0.360868 -0.229967 -0.483436 -0.508773 -0.437445 -0.331665 0.523735 0.333353 0.359306 -0.266523 0.351199 -0.355543 -0.376799 -0.424762 -0.318077 0.369714 -0.456458 -0.586794 -0.367405 0.545758 0.311472 -0.250498 -0.53431 -0.218418 0.227181 0.583403 0.334581 -0.257278 -0.555531 -0.477992 0.221698 0.552552 0.447387 -0.21805 -0.434914 -0.219641 0.241231 -0.581593 -0.45399 -0.269156 -0.284952 -0.259552 -0.391505 -0.330914 -0.59887 0.420644 -0.256612 0.498724 0.312542 0.518791 -0.480582 0.493842 0.208572 -0.497354 -0.475447 0.343734 0.219069 0.379932 0.520117 -0.55761 0.519751 0.539555 -0.55145 0.480361 -0.355052 -0.211449 0.337585 0.557447 0.380726 0.208719 0.421311 0.216571 0.555739 0.250955 0.307348 -0.394843 0.386819 0.203461 -0.572677 0.402263 -0.282975 -0.363363 -0.319002 -0.566716 0.575612 0.555902 0.327888 0.237303 -0.368976 0.559483 0.296823 -0.503423 0.488724 -0.221912 0.390707 -0.58913 0.237886 0.294242 -0.473304 -0.256617 -0.236394 -0.245838 0.584992 -0.447909 -0.371399 0.230292 0.561718 0.351863 -0.440599 -0.311844 0.59795 0.504988 -0.453467 -0.392725 -0.260189 0.575686 0.46186 -0.460865 0.304665 -0.20082 -0.516166 0.344285 -0.564826 -0.328327 0.269924 -0.436732 -0.541144 0.30371 -0.340951 0.521382 -0.345776 -0.497723 0.518593 0.454488 -0.467361 -0.499322 -0.486419 0.261411 -0.539756 0.256672 0.229908 0.277553 0.235124 -0.365664 -0.277698 -0.577215 0.584114 -0.43111 -0.233525 0.525964 -0.540906 0.284413 0.468893 0.278571 0.535561 -0.418328 -0.228646 -0.536521 -0.277145 0.439845 -0.38923 0.578316 0.291998 -0.276051 -0.495025 -0.226409 0.427301 0.263257 0.456645 -0.504843 0.477071 0.357675 -0.219053 0.569488 -0.396382 0.451041 -0.226393 0.358956 -0.238784 0.443914 0.437022 0.36974 -0.581145 0.360518 0.574825 -0.229997 -0.388533 -0.357613 0.481869 0.503784 -0.536434 -0.263862 0.584182 0.281217 -0.257825 0.556774 0.395453 0.55917 -0.559511 0.214388 -0.385049 0.386232 0.432057 0.381167 -0.270946 -0.392176 0.439776 -0.570206 -0.278856 -0.446923 -0.576553 0.231529 0.530212 -0.548604 0.310387 0.424059 -0.207377 -0.469017 0.554136 0.553359 -0.335136 -0.232461 0.201573 -0.398869 -0.25409 0.41711 0.44949 -0.402649 -0.439338 -0.269425 0.314246 0.44516 0.503776 0.561057 0.364363 -0.482994 0.259951 0.47441 -0.518123 0.341953 0.319072 0.202855 0.407701 0.348264 0.556758 -0.596763 0.311174 -0.392627 -0.556101 0.472862 0.268101 -0.219963 0.271312 -0.389576 -0.567653 0.561647 -0.490591 -0.255287 0.370007 -0.345331 0.221241 -0.397768 -0.584018 -0.347365 -0.34408 0.260584 -0.376084 0.540232 0.57492 -0.43683 0.261336 -0.229298 -0.36298 0.250219 0.488137 -0.259751 -0.537645 -0.241793 -0.447914 0.461783 -0.409386 0.404174 -0.202914 0.432865 -0.474214 0.520406 0.468173 0.487477 0.234289 -0.56414 0.333247 0.431803 -0.48141 -0.592556 -0.262755 -0.321318 -0.376707 0.45761 -0.269898 -0.357455 -0.360171 -0.479662 -0.227565 -0.259498 -0.304836 -0.58428 -0.247529 -0.508976 -0.289679 0.258263 -0.355872 0.224575 0.305073 0.3122 -0.572661 -0.319084 0.547515 0.361177 -0.365886 0.236934 0.444313 -0.308805 -0.437296 -0.42078 -0.519312 -0.279409 -0.258624 0.207763 0.586169 -0.538668 -0.589616 -0.291662 -0.256499 -0.512211 -0.273514 -0.293106 -0.570358 0.409669 -0.41969 -0.334629 0.509492 -0.414186 -0.518022 -0.331813 0.541911 0.463021 0.328234 -0.468658 0.407522 0.207116 -0.330013 0.398864 0.502132 -0.508024 -0.238983 -0.460825 0.456692 -0.516591 0.49696 -0.278906 0.318885 -0.370398 0.49661 0.231851 0.419925 0.58517 0.339189 -0.250309 -0.392567 -0.363144 0.200987 -0.380025 -0.29898 0.232393 -0.34502 -0.434811 -0.253226 0.311023 -0.244266 0.253969 -0.381842 0.414129 0.423173 -0.562352 0.422771 0.44729 -0.349465 -0.281437 0.323931 -0.444385 -0.425128 0.332855 0.284407 -0.42819 0.586752 -0.592863 -0.521298 -0.289625 0.27143 0.36021 -0.377474 -0.317959 0.234815 0.375384 0.513225 -0.227696 -0.298966 -0.216707 -0.204429 -0.512045 -0.327056 0.359776 -0.3119 -0.392824 0.501378 -0.277531 0.560534 -0.205791 0.594886 -0.354094 0.400944 0.246464 -0.542341 0.283283 0.508069 -0.537953 -0.500236 -0.283479 -0.54713 -0.395466 0.429337 0.52736 -0.268487 -0.385219 0.314325 0.571484 0.321103 -0.415178 -0.28112 -0.210215 -0.493788 -0.224315 -0.245897 0.406161 -0.584097 -0.441534 0.474625 0.203305 0.302044 -0.206485 0.327837 0.331637 -0.595918 -0.512385 -0.445276 0.266228 0.470768 -0.533088 -0.398337 0.509692 -0.340876 0.595869 -0.52012 0.558612 -0.387698 0.438533 0.543067 0.364476 0.516986 0.216023 0.599461 0.501325 0.372793 -0.386894 0.573661 0.353565 -0.447812 0.330038 0.348608 -0.390096 0.253748 -0.451842 0.5988 0.535799 0.293178 0.278047 -0.234073 -0.562868 -0.413784 -0.377997 0.446348 -0.501983 -0.280996 0.462091 -0.320671 0.36591 -0.280816 0.371233 0.234069 0.595402 -0.258854 0.419886 -0.25282 0.499793 0.532515 -0.254049 0.209351 0.473022 0.588053 0.519951 0.3873 -0.483142 0.303613 0.547732 0.361406 0.464929 0.216583 0.513186 -0.467568 0.536006 -0.490769 0.578946 0.546088 0.590467 0.58708 0.242864 -0.596279 -0.242496 0.58038 0.437574 -0.533363 -0.562046 -0.387317 0.219348 0.288211 0.454968 0.545409 -0.4791 0.285881 -0.425638 0.379984 -0.447342 0.394508 0.476155 0.480067 -0.516674 -0.416231 0.363375 0.353952 -0.258433 0.338076 -0.421143 -0.347315 -0.574982 0.569809 -0.506158 -0.269121 -0.526056 -0.243338 -0.238517 0.515939 -0.336834 -0.433911 -0.335718 0.282931 -0.430028 -0.307551 -0.504493 -0.351414 -0.288062 0.280094 -0.471017 -0.34772 0.212845 0.599285 0.314461 0.206553 -0.247393 0.351504 -0.428328 -0.577262 -0.255443 0.309526 -0.539679 0.439411 -0.582164 -0.221962 -0.268721 -0.250255 -0.560738 -0.332927 -0.564763 0.526495 -0.579944 0.395267 0.512434 0.466627 0.457342 0.527813 -0.437094 -0.424763 -0.286728 -0.272439 0.216406 0.437014 -0.372233 -0.252344 0.30942 0.349152 0.256837 -0.497635 0.316949 0.537148 -0.340416 -0.371312 0.232184 -0.396768 -0.4428 0.47436 0.591902 -0.43635 -0.281315 -0.50113 -0.467532 -0.480098 -0.594702 0.49364 -0.541996 -0.285942 0.295749 -0.259922 -0.45333 0.446845 0.325898 0.555336 0.432579 -0.481935 -0.28038 -0.304628 -0.433348 0.472281 -0.36246 0.539701 -0.59671 -0.386868 0.482897 -0.420391 0.303482 -0.432357 0.388441 0.54718 0.579379 0.534913 -0.21218 0.207672 -0.224268 0.273577 -0.245875 -0.491185 0.238921 -0.335043 0.524844 -0.258045 -0.222671 0.457705 0.278095 0.432132 -0.234 0.317234 -0.406587 0.491707 0.204859 -0.217583 -0.578562 -0.293318 0.586821 -0.539301 0.383796 0.53999 0.487748 -0.217579 0.202581 -0.223318 -0.216755 -0.282761 -0.465458 0.254197 -0.539753 -0.521049 -0.580548 -0.535799 0.442728 -0.479034 0.472446 0.432991 -0.216721 -0.326037 0.300279 0.255884 -0.489907 -0.540377 0.313113 0.225681 -0.266354 0.571181 0.561097 0.214271 0.38208 -0.430349 -0.31233 0.414719 0.513909 0.348353 0.290111 -0.331223 0.542882 0.335383 -0.266173 0.308861 -0.307794 -0.379429 -0.587022 0.472716 0.287006 0.423627 0.366404 0.528387 0.579103 0.294502 0.480977 -0.249233 -0.497324 -0.479854 -0.545679 -0.296024 0.268758 0.322363 -0.269154 -0.424883 -0.298144 -0.555496 0.286857 -0.544862 -0.560624 0.335175 0.465088 0.265461 -0.569024 0.325909 0.534031 -0.568176 -0.297387 0.25857 0.285618 -0.522701 -0.531963 -0.24831 -0.362081 -0.28478 0.232535 0.564308 0.204362 0.260035 -0.575084 0.488089 -0.207879 0.511904 -0.546804 0.471807 0.453926 0.416184 0.272706 0.404708 0.457666 0.557493 0.309442 0.387825 0.551569 0.28719 -0.233805 -0.435767 0.431544 -0.346949 0.318144 -0.41077 -0.413265 0.357957 -0.491448 0.320757 0.452152 0.239316 -0.20005 0.275398 -0.275001 -0.478271 -0.337868 0.350489 -0.461709 0.347759 -0.516195 -0.551922 -0.585483 0.21543 0.272544 0.226046 -0.414438 0.486291 -0.492503 -0.366107 0.324277 0.27631 0.358417 0.431556 0.324238 0.599979 -0.537844 -0.369893 0.26178 -0.400259 0.521511 0.259021 -0.491668 -0.550437 0.507001 0.351675 -0.360923 0.493423 -0.254784 0.539466 -0.304295 0.419455 -0.491346 -0.565467 -0.374672 0.287451 -0.592031 -0.432133 0.291784 -0.267869 0.499115 -0.230063 0.247529 -0.579378 -0.248466 0.481335 -0.45829 -0.3949 -0.290139 0.302761 0.526092 -0.560996 -0.536684 0.401821 -0.575699 0.227253 0.289234 -0.534852 0.580802 -0.439077 0.433075 0.382028 -0.421203 0.441 0.337294 0.376154 0.333973 0.581509 -0.530278 -0.299125 -0.25302 0.380791 0.383694 0.479018 0.229873 -0.393764 -0.438506 -0.554313 0.55272 0.571051 -0.339075 -0.3534 -0.484354 -0.543705 0.518238 -0.320609 -0.369208 0.313512 -0.217042 -0.317399 0.310624 -0.509864 -0.486955 -0.208838 0.259491 -0.529689 -0.327094 0.271613 -0.417997 0.42608 0.258148 -0.307493 0.448088 -0.380259 0.413535 -0.512046 -0.408821 0.473289 -0.286087 -0.535451 0.462016 0.544143 0.548228 -0.200557 -0.231075 0.502461 0.373325 -0.51658 -0.430959 -0.486543 0.594496 0.568653 -0.220499 0.499093 0.324069 0.452165 -0.299683 0.575194 0.412064 0.414137 -0.402388 -0.532362 0.326552 -0.597126 0.54578 -0.202005 -0.282258 -0.343593 0.4126 -0.409344 -0.47723 0.522753 0.457816 -0.224824 0.473699 0.51302 0.555559 -0.2518 0.294322 0.239622 -0.532596 0.580379 -0.212286 -0.317612 0.366658 -0.361554 0.588464 0.2208 0.582254 0.516161 -0.484586 0.53204 -0.274562 0.522256 -0.232766 0.408987 0.203505 0.580216 -0.513337 -0.440677 0.224784 0.323883 -0.286537 0.459528 0.390308 0.524744 -0.20487 -0.515038 -0.440623 0.448317 0.399172 -0.438752 -0.446669 0.418468 -0.516796 0.440001 -0.261375 -0.554828 -0.308568 -0.416704 -0.590046 -0.57377 -0.598231 -0.274348 0.326102 -0.312244 0.579968 -0.327951 0.369963 -0.586643 -0.205564 0.228339 0.390529 0.414851 0.397523 -0.397974 -0.373002 0.382485 -0.260552 -0.210087 -0.379498 0.311929 -0.273326 0.586104 -0.386299 0.530048 0.399391 -0.458801 -0.541554 0.489018 -0.305207 0.526646 -0.458735 0.249443 -0.565964 -0.305942 0.381861 0.504929 -0.25775 0.298476 0.46378 0.235911 0.586912 -0.253091 -0.568364 0.267544 0.2291 -0.55178 -0.303321 0.407122 -0.260753 -0.414748 -0.330935 0.297801 -0.21071 0.232734 0.424802 0.53766 0.563356 -0.340181 0.53286 -0.205291 -0.401916 0.449795 0.558294 -0.574522 0.569982 0.461661 -0.508946 -0.489602 0.35574 -0.394146 -0.59098 0.392256 -0.322558 0.486056 0.340163 0.217378 -0.448419 -0.447316 0.524091 -0.42576 -0.211107 -0.59499 0.246883 -0.43971 -0.406927 -0.383165 0.365661 0.352243 -0.507859 0.543637 -0.529647 -0.590101 0.428188 -0.584778 -0.259255 -0.246352 0.497959 0.590416 -0.525933 0.347465 0.463981 0.530766 -0.506052 -0.517861 -0.321309 -0.461934 0.422513 0.429021 -0.289453 0.40298 0.224337 0.41907 0.490673 0.467138 -0.239611 -0.549465 0.545234 0.533235 -0.56324 -0.265198 -0.312594 -0.335504 0.379167 -0.585808 0.378324 0.217328 0.23812 -0.324957 -0.245883 -0.345398 0.206698 0.589087 -0.575094 0.403218 -0.373417 -0.222883 -0.395548 -0.421118 -0.322913 0.443335 -0.595714 -0.303898 -0.297061 0.562627 0.420949 -0.428439 -0.402889 -0.379579 -0.339848 -0.316318 0.451214 -0.399276 -0.497589 0.221477 0.427321 -0.521739 -0.325475 -0.45687 -0.454491 0.56548 -0.527523 0.503087 0.211445 -0.508396 -0.265463 0.264558 0.363915 0.563438 0.484229 0.282006 -0.449727 0.534586 -0.229381 0.397737 0.210953 0.559311 0.557136 0.268888 -0.545064 0.319874 -0.201998 0.527204 -0.248267 -0.427417 -0.475558 0.244046 0.513168 0.300486 -0.370087 -0.42642 -0.261441 -0.319516 -0.24813 -0.587159 0.365689 0.203722 -0.491465 0.5336 -0.421569 0.472227 0.27044 -0.42241 0.494904 -0.526156 0.42112 -0.446032 0.538308 0.501138 -0.353952 0.579632 -0.595329 0.287328 -0.51428 0.426526 0.381944 -0.432974 -0.215025 0.435991 -0.578281 -0.574921 0.514723 -0.281962 0.386501 -0.43947 -0.471397 0.460095 0.402457 0.35352 0.56835 0.452585 0.278798 -0.202677 0.340944 -0.203754 -0.200815 -0.518626 0.399628 -0.36857 -0.583688 -0.526583 -0.427143 0.321811 -0.3341 -0.346336 0.455378 0.452743 0.28448 0.228 0.294088 0.544649 -0.210429 -0.210441 -0.463863 -0.396186 -0.387051 0.302637 -0.509447 0.243793 0.29978 -0.345997 0.38905 0.489334 0.45416 -0.298953 -0.549088 -0.243151 -0.506877 -0.369573 -0.432603 0.218292 0.288529 -0.233849 0.545377 -0.241523 0.467771 0.200315 -0.386261 0.53035 -0.406983 -0.588669 0.272905 -0.315588 -0.285413 0.350523 -0.450921 0.537671 0.489744 -0.537425 0.249162 0.480278 -0.366469 0.573754 -0.370242 -0.59315 -0.533407 0.333296 -0.21364 0.586094 0.334044 0.217069 -0.505431 0.524414 0.526259 0.230295 0.440788 -0.492354 -0.391166 0.559986 0.370212 0.538632 0.534956 0.309932 0.520812 -0.247649 0.432643 -0.239821 -0.219457 -0.533249 -0.426075 0.521137 -0.474118 -0.274121 0.2796 -0.226691 0.587243 0.553432 0.237252 -0.470796 0.35939 -0.21292 -0.583161 -0.330106 -0.216977 0.548334 -0.2269 0.509916 -0.282963 0.566301 0.218143 -0.212376 -0.558315 -0.527586 0.229171 0.55363 -0.316826 0.380593 -0.219291 -0.302606 -0.574055 0.47932 0.520412 0.501971 -0.373273 0.365938 0.461263 0.396803 0.344122 0.415145 -0.522772 -0.561854 -0.335324 -0.339585 0.253146 0.390883 0.493131 -0.228155 -0.45944 -0.416918 -0.398398 0.42413 0.36117 0.47924 -0.345323 -0.278585 0.463159 -0.307693 -0.382886 -0.353098 0.28947 0.463233 -0.214185 0.396144 0.421515 -0.506338 0.595918 -0.279575 -0.351401 0.26238 0.2532 0.564819 -0.381404 -0.514842 -0.51979 -0.400322 -0.211921 -0.591861 0.554944 -0.499731 0.401066 -0.396372 -0.536537 0.554072 0.434762 0.584662 0.357416 -0.404321 0.221993 -0.50311 -0.387103 0.551044 -0.366988 -0.42513 0.33091 -0.498391 -0.530931 0.32896 -0.57071 -0.555406 0.299484 0.293434 -0.48955 0.39572 -0.216917 -0.453328 0.402262 -0.203044 0.347277 -0.291182 -0.553036 