19.1658 -70.8974 -76.7107 -46.5986 -139.87 -101.499 -133.326 -34.9387 23.7344 -128.01 -75.41 -73.0385 -50.8274 -68.7218 -34.1867 -34.1815 -37.0176 -39.3367 -61.2648 -57.5224 -29.4467 -33.0042 -71.6664 -34.2081 9.75861 -37.2822 -31.9495 -9.47742 -26.325 -13.3597 -31.0524 -37.6766 -37.4316 5.13997 -35.0018 -30.1781 -89.0005 -18.1922 -39.8174 -34.4697 -10.8835 -35.2018 -34.6558 -37.0789 -36.3981 -17.7793 -35.1072 -69.1715 -32.7849 -36.8566 -93.6663 -64.223 -30.9559 -34.3837 18.4796 -63.6725 -35.2047 -47.5063 8.01287 -61.3845 -34.7474 -72.9323 -32.51 -18.3609 -34.4372 -40.55 -34.4108 -35.4016 -35.2449 -37.2636 -31.878 -34.3825 -82.8719 -60.9151 -73.3006 -105.13 -173.527 -33.1636 -71.0289 -38.6706 5.90625 -11.2454 -44.0966 -82.959 -36.5457 -40.6841 -39.1571 10.7903 -125.268 -34.2345 -34.297 -35.6707 -34.1379 -34.2527 -34.3189 -41.504 -100.398 5.01339 -145.218 -53.3124 -75.3885 -39.0554 8.82547 -31.7537 -35.0227 -27.3526 -36.7403 -37.3487 -31.1064 -101.111 -16.9031 -26.5673 -19.2351 -37.0375 -29.4718 -33.6119 -32.1344 -33.0803 -32.1639 -19.4326 -33.1068 -32.2075 3.36975 -48.8442 -18.7701 -17.4672 -34.2705 -33.8253 -26.6828 -29.4089 -31.0466 -32.8812 102.65 -35.6206 -71.9348 -31.7128 -51.3737 -30.2266 11.4068 -31.3022 -32.4304 -64.876 5.69933 -29.3226 -27.3523 69.4609 -8.34479 -54.9854 -35.0785 16.8124 -74.9935 -28.8372 -32.44 -95.0026 -32.4377 -44.3865 -31.9938 20.647 -32.0038 -33.8704 -34.039 -32.1272 -31.6521 -32.3242 -43.1365 -33.4742 -32.5283 -31.062 -26.9653 -34.2842 -32.2015 -33.0497 -12.1687 -32.6749 -32.876 -31.2957 6.45842 -31.69 -31.5493 6.03572 -20.6225 -31.4851 -31.2253 -33.1157 -32.4312 -31.5273 -31.5812 -31.6524 -32.5018 10.5581 -30.6558 -31.2242 -27.1299 -32.5218 -10.5301 -34.7406 52.9124 -31.6117 65.0486 -32.1971 11.1995 -31.6043 -37.6781 -48.4313 -73.1548 -30.7624 -51.11 -34.9028 -32.4477 -29.5522 -30.8419 -30.6219 -27.666 -35.0581 -79.9793 1.06831 -46.5307 0.828739 -28.9745 5.40566 -58.8115 -34.1945 -32.4839 -32.2395 -31.6416 -29.9717 -31.0141 -32.8049 -37.2403 -31.6748 -33.4968 -31.8254 -41.6902 -41.5297 -49.7877 -35.5543 -35.2732 -32.212 -31.6804 -32.5116 -34.543 58.119 20.4683 -30.934 8.10096 7.22055 -65.8933 88.9026 -37.5072 -36.5237 -49.6384 -44.0816 -45.8456 -33.4281 -38.4467 -31.5768 -27.0603 -64.1169 4.48553 -6.28371 -31.4582 -31.6335 -34.4081 21.7665 -83.1102 -73.0607 -31.6119 -91.7861 -41.7591 -33.0388 -32.8332 -0.542334 -39.7797 -33.622 -10.3772 -33.2231 -32.2757 -33.1758 -51.3528 -34.7921 0.688756 -32.9641 -31.6569 -65.3895 -31.5848 -28.7674 -31.2708 -29.7151 -76.24 -44.8617 -31.3794 -31.3993 -5.05967 -35.199 -29.1774 -30.3043 -38.5253 -34.1633 -36.0151 -32.2141 -47.71 38.3686 -18.0316 -34.7051 -31.4688 -92.9117 -31.2118 -7.52043 -15.9808 -29.4033 -31.8015 -112.62 -43.4439 3.8682 -32.389 -31.4455 -36.6682 -25.6404 -34.2898 -32.1987 -34.9546 -33.8972 -33.3762 -48.8248 -31.392 -28.198 -7.38898 -41.1786 20.1062 -39.5637 -32.3682 -18.8965 -52.8821 -36.7285 -34.3869 -146.513 -36.9279 -32.2242 -32.7905 -37.8542 -6.25834 -34.1664 -35.9853 -36.9289 -32.8278 -33.6812 -32.642 -32.3137 -34.629 -33.428 -34.8508 -33.0534 -31.4974 -32.3471 -29.6533 -29.0644 -74.4479 -28.9957 -31.5401 -27.9827 -32.0554 -32.272 -32.2267 -31.9456 -32.3736 -32.3804 -31.9958 -7.95328 -30.7718 -33.0766 -32.2577 -32.2504 -26.4405 -38.0099 -32.1603 -30.7393 -33.0369 -33.0476 -37.1037 -32.576 -32.242 9.09301 -31.6098 -45.2778 -30.8397 -31.4024 12.3228 -30.5948 -4.45511 -2.04763 -41.867 -1.46292 -38.0036 0.177401 -1.97731 -2.60047 -4.02389 -36.8719 -35.3743 -36.9047 75.2098 -0.971124 -39.6744 -79.0092 33.2656 -3.23998 -1.89635 -37.7313 -39.4099 -37.4995 -1.45695 -4.08851 -2.20906 -0.451522 -1.64887 -10.1502 -36.0857 -9.10881 -7.09113 -13.9384 -61.365 44.3429 6.41319 -1.44682 -63.3049 -2.08319 -3.57475 -6.8213 -36.6975 -4.15536 -1.02242 -1.00875 15.8997 -3.05604 -2.39405 -1.72839 -0.699098 -1.70034 0.445842 24.1181 -1.7222 4.7046 -4.38359 -0.85594 -1.64262 -36.1454 -14.6672 -92.3953 -11.811 -2.20344 4.48487 -18.039 -37.4153 -3.04049 -1.89811 -8.47768 -46.8965 -38.2837 22.6839 -26.9015 -0.950386 21.8649 -29.9662 7.05542 57.8851 -16.3094 89.7815 3.08444 121.44 -39.2972 1.68031 -0.338296 0.66939 -34.504 -1.98667 -3.60644 0.651589 -5.59004 5.66632 -60.2004 29.5516 29.724 -1.51882 13.2498 -5.75409 -51.5366 -1.48532 -60.8294 31.5381 -3.21538 -3.9557 -1.9051 -2.10514 -0.853882 3.81558 -47.6737 -2.11087 -2.00732 -3.81278 45.4683 -49.9874 -0.848335 -1.38102 37.9439 -0.408026 -4.30676 -5.28613 -5.48771 -1.19786 -1.65647 -2.0289 -2.65061 24.7878 -1.02818 -54.606 -1.74716 7.84543 -2.88561 -1.20109 -6.4713 -3.3555 1.22553 -38.6709 -4.3381 -1.99152 -47.3555 -41.2987 -5.5608 -41.2919 10.1181 -5.40268 -0.852419 -3.95795 -1.75918 -2.187 -0.953421 -0.963228 23.5278 -1.53826 -1.89612 -4.66777 -4.90298 -3.67087 73.1836 -1.04641 -1.92951 -5.05703 -1.83992 -6.31072 -6.64648 -6.28223 -26.936 -27.0604 -2.85517 -40.2086 -2.95644 -1.82959 -7.31404 -6.32106 -2.34766 -1.63205 -7.9672 -2.00038 -12.357 -83.676 -4.04359 -3.04372 -10.948 -8.28094 -1.65224 -0.873997 -4.33404 -1.06864 -1.57334 -7.79879 -11.3264 -10.7281 -6.54505 -12.1393 -3.32093 -5.56117 -2.95334 -2.18709 -6.37114 -7.21248 -5.96092 -0.814422 -6.88915 -15.4008 27.5511 -2.43408 39.9836 -7.00605 -2.63742 -6.44626 16.0255 -9.27588 -7.22979 -0.674637 -35.3444 -12.6786 -6.64313 -1.81665 -2.07747 51.1625 -2.76155 -2.80288 23.3521 -18.328 -3.46183 -41.741 86.9054 -4.08518 -1.77473 -4.42376 -48.0856 24.8342 -1.37607 -72.1104 -1.35608 -5.16788 -3.16677 -1.76156 -1.69309 -6.25973 -4.02506 -3.86409 -5.47329 43.8182 -1.35803 -6.64772 -3.70075 -0.707175 1.1522 13.479 -1.87319 1.38131 -2.3491 -0.124063 -1.30781 -14.358 -2.11557 -1.71675 102.221 -2.77189 -1.09476 -1.77075 -1.96246 0.0436643 140.82 -2.13573 -0.970285 -0.895793 23.9799 -3.14504 -1.17504 -2.62635 -1.86113 -2.73277 -27.9762 -3.75299 2.40006 0.176542 -7.929 -2.68723 -1.82904 -2.52432 -1.0104 -1.80691 -1.72328 -2.01186 -1.14088 -6.22204 -5.63767 -5.49206 -1.35258 -3.99186 -1.04846 -1.84091 -0.921284 -1.5608 24.3653 -2.2713 -0.0466057 -2.70365 -23.9816 -1.10939 -37.4152 33.6098 -5.41233 2.62442 -0.814371 -0.827153 -1.73553 43.3869 -2.25233 -1.20567 -2.82927 -0.856551 -1.97976 -0.477284 -1.94341 -11.053 -0.911303 4.29104 39.9935 -1.03184 21.9962 -1.75044 -1.29025 -0.97295 37.2915 33.5978 61.66 -1.63093 57.8503 -1.25348 -1.77001 -1.97414 -1.69108 1.74245 41.2364 -2.94766 -2.91987 10.3891 -3.50975 -1.60466 42.9688 1.22194 7.08888 -2.07771 37.1318 -1.91433 44.1371 -1.29989 -55.2052 -55.5269 34.5388 -50.7025 -59.134 -2.50718 -78.6818 1.74573 -4.7982 -47.2612 -41.0462 -7.0899 9.13969 -1.08842 -1.45505 -1.66562 31.0186 -1.73124 -0.945233 -0.921234 -48.6829 17.6542 -41.8345 -1.68898 -1.70549 -1.77435 0.43658 -1.83639 -3.04234 -0.996867 -4.40606 -39.9283 -7.45057 4.10946 0.00790999 45.9931 -1.27318 1.15227 -31.0502 -14.0982 36.5275 -9.06658 26.5784 -1.55886 -5.21112 -4.99702 34.8439 3.90242 -1.85032 -7.96944 23.2693 -0.23086 28.211 -6.21662 -4.47064 -6.02222 -2.88298 -42.2543 -3.93535 -10.8094 16.617 -53.95 1.0604 -9.72339 -1.59804 -3.07524 -3.01347 -1.79133 -2.52788 -2.78749 -1.81453 6.11504 -10.8418 -6.2195 -1.51636 -2.00164 -6.29324 43.0103 -4.83275 -2.65908 -38.5328 2.24041 -16.178 1.9014 5.27688 -3.16622 -2.59048 -33.767 22.5833 -87.1518 1.48175 -1.65237 1.74938 -1.71081 42.3311 33.4217 3.28034 -3.27046 -49.8248 -4.7101 -1.80109 -0.76404 -2.71543 -21.0807 -0.262567 -50.515 2.92757 -41.6562 45.0969 -14.142 -0.341206 -1.05851 -2.86018 -40.9109 1.2444 -5.92317 3.40494 -5.52621 0.184809 -4.64942 -0.825392 6.12976 -2.46567 -1.20122 -4.17177 -1.16171 64.639 -0.0766609 -0.780945 -0.785962 0.647733 59.2044 -2.99931 -0.353246 7.48479 -0.42636 7.1858 40.9158 0.0980521 -28.3168 -1.12419 -1.8283 -1.24404 -2.32284 -2.26326 -0.929559 -4.90075 1.18282 2.95044 -0.924485 -1.78981 -31.3822 -0.923774 -0.931689 -0.796524 -1.54344 0.401567 -4.68551 -1.55817 -0.544696 6.25139 1.4779 -0.999795 -1.99526 -5.60317 -0.542728 -0.761588 2.30988 -27.9537 -2.89085 0.788171 -21.8816 -0.41598 -1.07564 6.75149 -5.26511 0.396076 -3.59763 -2.98609 -1.85344 -4.22007 -7.77336 -0.564888 -8.03297 35.4553 -40.2425 8.37797 7.17259 8.84492 12.3842 14.8489 2.10863 42.2163 -7.02597 -1.50838 36.3662 -0.820998 -1.03986 21.0964 15.4461 -1.0765 0.039445 -2.43869 1.98191 -1.75795 4.85816 -0.23875 -35.3644 -7.0986 -1.73427 -2.51933 2.49747 -0.933963 -3.83977 -0.902114 -38.8952 32.0718 -0.499162 1.09744 -4.86397 -91.8907 -40.6306 -32.5504 -4.85457 -1.53285 4.80927 -0.130353 -0.463413 -1.84435 -2.17571 -0.374534 -44.5709 -6.4909 -2.77101 -1.99691 -0.243023 13.1262 -1.69239 -1.82846 -1.59741 -0.921983 -2.91966 -5.6313 -0.881055 -1.58264 -0.769201 -0.956733 -1.64929 8.60296 -38.9088 2.75 -0.54127 -1.56193 -3.65434 2.01768 -1.50933 3.43531 9.68308 -0.998452 -1.59602 -0.289395 0.216672 0.80535 0.853781 -1.07051 -2.71162 -5.28882 -1.66415 -1.82342 -0.941163 -0.815753 -1.59732 -0.550767 -13.6101 -8.54691 -6.96851 -2.00405 -1.87554 57.691 -0.501524 -4.12679 -0.981924 -0.801145 -2.88935 3.86389 4.84908 -1.72537 -1.06596 0.0012199 18.8852 -38.2335 -36.7665 -1.16102 -2.52699 -1.5654 -0.608524 -1.61375 5.84423 0.435453 41.2332 3.5281 -0.682132 -3.02574 -36.6587 -2.51259 -3.4997 -16.8959 -1.61717 -2.12752 -36.2326 70.6979 -3.22433 -3.36716 -1.38134 -0.399976 -1.85999 -39.3006 -1.06831 -1.58084 -1.97161 8.83418 11.7461 -2.27266 -2.2576 -0.758219 -4.66056 11.3033 -3.51113 -0.937608 54.8533 20.6591 -7.53344 -7.42459 -3.93533 -9.97539 26.3043 -1.41335 -4.81579 -1.47316 42.47 -30.3792 -4.48235 -7.83602 -7.66698 -1.61723 -44.6784 -40.3971 -53.786 -2.95071 -1.04012 -2.03802 -2.23704 -1.77636 -0.735649 -58.9579 -1.45764 -6.50617 5.6608 1.76054 45.4579 -2.62512 -1.17477 -2.17023 -2.92351 -1.77018 -1.60098 44.6034 -2.59605 41.81 -2.23533 -1.25431 -75.9326 -36.6983 -66.4234 -49.8288 -5.66518 -41.4672 -4.20577 -2.67518 -1.90997 -1.55107 -2.22675 -2.29853 -3.20377 -7.30419 -36.9647 -0.66729 -0.692465 44.8 -4.02497 -7.6698 -3.63001 -3.33129 -5.20732 7.60068 -10.2191 -40.789 44.514 0.638995 -0.82317 -2.8412 -2.72828 -3.49049 -3.22922 -0.710475 -0.583668 -0.583921 -2.07443 -0.812436 26.2617 -1.53288 -4.00916 17.0716 -14.2583 -36.5628 -1.99421 -8.57434 -34.0792 -4.8194 -2.17857 -34.4323 -1.62834 45.4324 -7.93395 -1.56562 -4.58191 -2.79359 -4.76057 -1.94717 -1.34387 -2.49267 -0.585302 -1.33391 -0.929701 -1.10968 -2.07934 -1.17088 10.7503 0.110785 -2.37923 -0.982334 55.1795 -1.61783 -40.6116 -1.68179 -37.1431 -36.1858 22.2445 42.1209 -1.33678 -1.50647 -3.88514 30.6947 -40.8616 2.3391 -5.83973 -3.46208 -2.98776 -32.2365 25.3754 -10.1975 -0.740412 -1.04792 -0.991953 -0.752664 -0.899431 -1.43641 -0.695101 -1.78686 -1.36392 -2.30822 -3.00414 -1.37068 -0.693768 -2.8055 -2.12216 -1.38187 -0.729823 34.8735 -0.809419 1.27825 -0.789941 -0.613478 -5.15864 -56.3994 -0.668994 -1.08748 -4.06461 16.7429 87.9089 -8.69052 -1.21275 -9.12519 -1.59209 -0.429762 -38.8442 -1.63729 -0.779139 -2.69342 10.5881 -1.26149 -2.34646 -4.40093 -53.1398 -2.44095 -1.75203 -2.63753 -2.03829 -15.4556 -1.68951 -0.487722 46.392 -0.704349 49.1595 -2.62401 -1.40593 -56.2 -1.46993 -1.66476 -1.09231 -1.50485 -1.27064 -0.61449 2.47496 0.0132737 -2.15961 -1.40076 -1.41547 -0.428981 -3.12948 -2.12904 -2.4897 -51.5789 0.231053 41.9261 -0.465416 -0.927087 -1.42009 -1.21001 1.32354 -3.9887 -4.87571 -1.96697 -4.52844 -39.3619 -0.141866 -1.82634 -4.1368 -0.441838 -1.38603 -1.45605 5.39374 -1.30685 -1.71844 -2.60087 -0.664799 -0.514287 -1.81091 -1.00604 -1.2578 -8.45623 3.34709 -0.50231 -1.75751 -0.433949 2.6787 -3.61438 1.6839 -0.891193 5.93725 -2.47342 -4.42398 0.0401864 29.9735 32.1198 0.586426 6.84075 48.1598 -1.06732 39.1446 -1.49017 -2.09931 -1.26995 -2.58036 -1.8272 -3.66982 0.434785 -3.1681 -1.00349 -2.63461 -4.33022 -2.1614 56.2997 -2.15625 -4.0588 -0.246781 -1.59546 -1.06873 -1.42756 4.40937 -0.39995 -4.38212 0.622804 17.4167 -0.0537547 -3.69351 -2.66853 -7.46709 -0.645769 -2.03004 -2.80182 -1.46836 -0.422245 -2.0816 13.4389 -2.07617 -4.16711 -2.26622 -1.9211 -0.606779 -38.2662 -0.550159 2.55381 2.23303 -1.6965 -0.624662 -0.676277 -0.116481 -1.60193 5.19542 -2.80978 -3.64058 -1.17922 -3.51274 -2.63253 -3.9446 -1.52748 1.69031 5.69117 -1.19287 -3.2169 3.61665 40.0557 3.24424 -0.48423 49.2544 44.4899 -1.76537 -0.981377 -1.71335 40.6946 -2.66254 47.3096 -0.310284 -1.42288 -43.6652 14.3487 16.7785 0.114489 56.6551 -2.67774 -29.8089 -18.3077 -0.467765 0.260394 2.21672 0.00430192 -0.874733 -35.2547 -1.30305 -0.680282 0.0816608 -4.30634 -36.1107 -0.423246 -0.321917 0.501442 3.1636 -3.27074 -1.27426 49.9176 -1.41239 -1.29127 -1.8796 -35.6183 -1.89346 -1.48428 53.4121 -0.385253 -0.611619 -1.76364 -2.67282 -2.52726 1.67545 -0.701166 -0.391771 -0.6366 -0.187998 -4.29028 -1.2218 0.290171 24.5478 -1.36359 3.51111 85.066 16.1792 0.900652 -0.443852 -1.05722 17.7475 -34.0787 -34.9535 -0.385482 0.216494 10.084 -28.1524 -0.249936 -0.177311 -30.8463 0.486859 -2.81079 -1.11945 -1.01264 -0.846377 -2.40593 -2.0786 -1.70604 -0.828638 -2.3377 -0.860483 -1.90634 -1.62054 -1.59907 -0.638712 -1.06229 -0.299025 -1.19395 -1.61652 -1.04634 34.9104 -1.47528 -1.50012 -2.00561 -1.76613 -0.893302 -1.79551 11.0179 -0.429066 -3.37486 -1.05079 -1.14382 -35.4923 -2.52467 -1.04496 -1.92681 -1.31039 -1.40086 -1.41012 -1.25617 -1.10083 14.3835 -1.04997 -0.0673615 -35.5361 -0.473962 -1.21469 -39.9384 -1.57215 -1.15334 -18.301 -1.26128 -21.1655 -1.83032 1.08228 -1.20454 -2.67427 -1.80326 -1.84328 21.7352 -1.03641 -1.77824 -2.59462 1.11228 -1.82185 0.532724 -4.49498 -0.605553 17.2481 -1.26869 -0.306887 -0.514443 -1.19632 -0.439807 -0.155016 -1.37477 -1.85453 -0.790589 -3.07619 1.49491 -1.39403 0.4084 -0.993813 -1.22461 13.45 1.38804 -1.10803 -4.03756 -1.22352 -0.235662 0.126088 -1.1269 -1.69839 -3.68075 -1.97748 -4.71871 2.89241 10.9936 67.6888 -1.0799 3.86785 -1.39206 -2.05201 1.94681 -51.6648 -40.6047 -1.36461 -33.3253 -3.01277 44.5229 -0.427117 -1.16068 5.61505 -0.475918 -3.92974 -0.939248 -2.91222 4.16019 -0.330096 -0.346203 2.33168 3.21272 -1.604 -0.909538 -1.15088 -1.12831 -0.801673 -1.38421 -2.70597 -3.33622 -1.72085 -0.390408 -1.33781 -1.3123 0.987355 -1.01918 -0.192279 80.6658 3.56459 -1.33289 -0.444836 -0.666102 -1.07601 -2.06977 -0.492523 -1.3671 -2.22277 -0.0675709 -1.14304 -4.2885 1.24752 -3.24002 -2.29863 -2.97474 -38.8758 8.21927 -31.2308 5.42174 4.76222 -1.23492 -0.822923 2.78872 -27.211 -3.67775 26.9028 12.3697 -0.391219 -2.00585 -0.289705 1.75406 -0.539287 -1.37229 -0.354027 -0.546385 -1.55929 2.56249 2.4157 0.69225 -35.6599 3.51189 0.586116 -0.744738 -0.377399 -1.44164 -2.15897 -2.39983 -0.914174 -36.119 -0.312017 46.9006 -4.40287 -1.05712 -3.51293 -2.04094 -39.4991 -0.135402 -1.31132 -1.1377 -0.385688 -0.549458 -1.00127 -0.113008 -1.38955 -0.415054 -1.61607 -2.63815 2.34906 -1.81858 -1.82594 -0.309721 -1.57729 -1.60978 -2.5363 -1.80975 -1.31898 -1.28957 21.4231 -39.7744 -0.225365 -1.50638 -0.862989 -1.35793 -1.84051 -1.55848 7.58466 -1.00638 -0.243888 -0.469781 -0.54767 -1.73233 -0.024324 48.4051 -0.493129 -3.66935 2.31659 -1.03908 15.3762 -2.71913 -2.35447 -0.314729 -52.5103 -0.331432 -1.07307 -2.82359 -0.0650847 46.4514 -0.309966 -3.65779 -0.224433 -4.10567 -1.24205 -0.367016 -51.4064 -1.05489 -1.38865 -1.10015 -0.447551 -0.35583 3.46088 -1.35067 3.3809 -0.48378 -0.361958 -1.20515 -0.524655 -1.0119 -1.21313 -1.44737 -0.448423 -1.35292 -0.33526 2.0606 -0.424767 -1.07433 2.84266 -0.703225 0.122871 -1.16852 -0.423899 2.57942 -1.21513 -0.431412 -0.409468 -33.4699 -0.130943 -1.72313 -0.464858 45.473 -2.58109 -0.453272 -1.09767 -1.37065 -2.73152 -1.45646 -1.88394 -2.83804 -0.63649 -0.203177 -0.530513 43.2263 -0.180868 -0.264621 -0.452662 -5.9619 -1.75217 -1.61752 -2.21357 0.693662 -1.88944 -1.05867 2.05345 46.1216 -1.03608 -0.182142 -1.32814 -0.286358 -0.430902 -0.448134 -50.1316 -50.1839 -50.5537 -49.7224 -50.529 -49.4512 -89.6017 -47.8371 -50.2759 -50.6772 -46.3329 -50.3715 -27 -49.846 -49.7062 -10.0866 -49.6225 -48.2917 -49.8273 -47.3943 -50.3881 -49.7758 -51.4481 -39.6661 -50.0859 -50.6805 -50.1094 -52.609 -50.7808 -50.7912 -50.5895 -47.0906 -49.5126 -49.5927 -49.6569 64.4985 -50.1711 -49.497 -51.0755 -50.7895 12.581 -49.7506 -49.2446 -30.5209 -50.8076 -50.035 -49.9245 6.7713 1.3902 -1.82932 23.5548 -3.11122 1.86675 -0.332845 -1.94869 61.8416 -1.87638 -1.79361 -1.28787 -2.89434 -0.769008 -0.365208 -1.43512 -0.397487 -1.89924 -4.72867 -0.47049 -1.09766 -0.925386 -1.72371 -1.06993 -1.27269 2.16888 88.8933 -1.46809 -0.492029 1.91997 -0.459501 0.165869 -0.862688 -0.285739 -0.443648 -0.601737 2.96368 45.1475 -2.30027 -1.23928 -1.66305 45.474 -0.608814 -1.29568 -1.71105 -1.24709 2.26483 -1.40165 -1.74489 -1.32534 -26.4109 2.85973 -1.1474 -2.22409 -0.288109 -1.33064 -1.1086 -0.238178 -3.21581 1.29223 -2.05094 -1.07229 45.506 0.835065 -1.40118 60.2068 1.3162 -1.02722 4.62733 -0.827218 -1.44815 -1.32625 -0.5708 -0.380521 -1.13424 -1.28095 48.9424 -1.0611 -0.478231 -1.08591 -2.91257 -1.19206 -1.20968 -1.3351 -0.963385 -0.514317 -1.19165 -0.587942 -1.06459 -1.08 -1.01761 21.6923 -0.422378 -2.31994 -1.27055 -1.06689 -18.3298 -1.91581 41.594 -0.456256 -1.82785 -1.03656 -0.34379 -0.00537652 1.73908 -1.58158 -2.01106 15.5273 -1.16367 -1.17862 -2.2566 -1.33648 -1.46651 0.801361 -0.305797 -1.80983 -3.77375 -0.37036 -4.54732 -0.61087 -1.00119 -0.256892 -1.31441 -1.33196 -1.65682 32.5875 0.0548318 0.0273193 -1.39966 4.17204 -1.23738 2.18313 -0.72445 -0.587298 -1.12869 -1.15712 -1.62756 -2.27489 1.55609 -0.568882 -0.240206 -0.325177 -0.253251 -37.3306 -1.12703 -0.196518 -0.310382 -0.475247 -1.15232 26.2312 -2.76087 -1.97335 -2.55073 -4.17685 -1.86426 -1.98702 -1.16182 1.71222 -3.58404 -0.495968 -1.51381 -1.764 42.6881 2.79256 -2.32609 -2.11929 7.30252 -0.429822 7.37859 -0.472876 -1.01135 0.17765 -1.09318 -2.29207 -2.86738 -1.76387 -1.69455 3.40084 3.04972 -1.28583 -1.89751 -1.01532 -1.18231 -0.469571 -0.475763 -1.43671 -1.60598 -0.986927 -0.378486 -0.366517 -39.6631 41.6846 -2.46107 0.391208 -0.357603 23.2937 -0.430432 -0.435037 -1.22863 -1.00225 -2.42427 -2.10136 -0.919796 -0.249861 -1.67084 -0.242319 5.10798 -1.01556 -0.0432915 13.3621 -0.137941 39.9342 44.1198 -0.393148 -0.893526 -0.335652 -1.00354 17.7327 -17.2435 14.375 -0.167992 -0.993313 -37.2768 -0.31071 -0.949913 32.7251 0.512765 -1.04143 -0.960453 59.9831 -0.459404 45.5205 -0.243631 0.335529 -0.4342 -1.15223 88.8056 -2.67211 0.50196 3.94658 -0.132813 -0.393795 3.77186 -37.7345 0.841443 1.47555 -1.25338 24.9224 -1.15522 -38.0578 -0.304084 -1.2692 -19.2651 -0.991177 6.35642 -0.963781 -1.21058 -1.62209 4.8476 4.9948 0.757286 -0.493305 -0.16609 -5.59827 -1.1972 -0.406633 0.109377 4.8108 -0.394599 0.694851 -0.374901 -0.464807 -1.14255 8.24027 -1.15223 -0.129506 11.026 -0.130023 -1.33965 1.9042 -0.346691 -0.894712 -1.23168 -8.09748 -0.894676 48.0576 4.62375 -0.391944 37.546 -0.196864 2.47721 5.63913 -0.989372 -0.311802 -39.6512 0.716449 -0.213382 38.328 4.07898 -0.21821 -1.06335 -1.93788 -1.68598 -1.98019 -0.994854 -0.341439 -1.99181 -1.19864 -0.709093 10.1718 -0.397536 2.78822 3.39435 -0.775054 42.0233 1.12117 -0.423525 -0.243351 -0.21526 -1.53443 1.5523 -0.319289 0.138506 26.582 0.784069 -0.069368 32.0013 -1.05904 -0.0755092 -0.230992 -0.0514179 2.76261 -0.622774 -1.40901 -0.840167 -0.208991 -0.850904 3.65574 -0.928517 -0.973747 1.10031 -0.940421 6.64464 -0.373205 -0.223948 -1.04594 -1.68967 -1.39499 -1.02304 0.312986 -0.237158 -0.308476 45.7937 -0.382712 49.4092 -0.911871 0.0641128 -1.0417 0.566053 -0.171916 -1.43159 0.0259382 -0.327435 -1.0919 1.38204 1.53837 38.9535 0.761403 0.938301 -0.988761 -0.328826 2.13201 40.4642 -0.595087 -0.716723 0.682599 0.32863 -1.65492 -36.9728 0.847476 9.37485 -0.211162 -1.81147 -0.754066 -1.20473 -1.62435 -0.89324 -1.89054 -0.314739 -1.67152 -1.63217 -0.993441 -0.250164 -0.908059 -0.288886 -1.15137 -0.274854 -0.386441 -1.16541 -0.877645 2.17004 12.6881 -0.401571 15.271 1.03254 0.0812136 1.37317 0.162006 -0.411944 -0.377753 -0.414373 -0.882421 -25.1417 -1.645 -3.17836 -0.749479 -0.441672 -0.94131 -0.10105 1.04405 -1.37683 -0.395461 -1.09482 -1.25631 -0.222338 -0.747397 -0.387242 -0.368478 -0.201754 1.36911 3.86029 0.102773 -0.878254 -1.50163 -1.23261 -0.708515 42.2435 -1.21027 -1.04594 9.70231 -0.815169 -0.160617 6.5571 1.37969 -0.424009 -0.0245972 47.8766 -0.273241 -0.64634 0.725735 -0.440614 -0.179969 -0.17414 -0.849158 -0.678224 -0.921621 -0.994168 -0.0685521 1.0192 0.672415 -1.07045 1.64176 -1.18891 -0.88575 -0.19379 -1.22936 -2.65943 -0.960463 0.714812 -1.92837 -1.01381 47.2101 -0.124343 0.0897768 -1.17031 2.36484 -0.400609 -0.374672 5.50545 -1.00266 -1.11177 0.240416 1.23296 25.8699 -2.02229 13.6848 -0.401891 8.8444 2.01734 -1.58083 -1.78425 -1.06252 -0.75884 5.20136 -0.407146 -1.06416 -1.56457 0.0301006 5.60562 -0.991249 -38.7106 -38.427 -39.3601 -39.4068 -38.6753 -39.2157 -38.4631 -34.6073 -37.9148 -38.5477 -38.5273 -39.6922 -38.8369 -39.3998 -38.9166 -39.5617 -38.6842 -30.6398 -36.2092 -38.5347 5.13062 -24.5984 -39.0339 -39.3513 65.7892 -39.3413 -39.1898 -38.6849 -39.2726 -38.0958 -27.4413 -38.5674 -39.1913 -39.3494 -38.3735 32.3361 -39.461 -36.3181 -39.4892 -38.7281 -35.1364 -38.4897 -35.6008 -37.5016 -36.8398 -34.6081 -1.01731 -0.0697826 -2.32574 0.0728418 -0.270959 -0.901226 -0.77435 60.9028 36.0382 1.41322 -0.799826 14.0472 -0.291531 -1.04761 -1.07709 -0.439071 -0.178203 0.488359 -0.981723 -0.446671 -1.19234 -1.62366 -1.37368 -1.10188 -0.788035 -0.957665 -0.414841 -0.239364 -0.31856 -0.240105 4.55929 -0.934079 0.688399 -30.9474 -0.365265 -0.774466 -36.1517 -0.888969 -3.07115 31.0743 16.5896 -1.02575 45.8841 -0.327025 -0.434862 -0.371236 -1.00897 -1.02519 4.86038 -0.328842 -1.20848 -0.941928 -2.12935 -0.684555 -1.34196 15.3593 -3.60728 -0.627605 -1.06713 -1.69795 -0.0171763 22.1198 -1.00261 -1.32903 -1.54244 -0.679098 -0.953519 -0.330762 48.1341 -0.987335 -2.87052 -1.03949 -1.17205 32.1433 5.1254 -0.2665 -0.25603 -0.24747 3.22757 45.8647 0.181689 -0.857029 4.73942 2.81403 0.277384 0.90142 -0.875898 -0.629556 4.01321 -1.06075 1.72399 -1.07778 -0.337371 -0.0964163 -1.08222 -0.920652 0.0838176 6.7841 -1.19774 -6.46718 -1.07573 6.6997 -0.806736 -0.155372 -1.11037 -0.0366732 0.423314 104.253 -1.09244 -32.027 -2.2494 0.503328 -1.59931 -0.469768 0.96262 -0.998771 -0.920799 -1.07979 -0.367519 2.9504 -0.993378 -0.272698 -1.21177 -0.838401 -0.455402 -1.16201 -0.21038 -35.3736 23.4668 -1.00808 -0.0255709 -33.024 -0.0679321 -0.788278 -0.617656 -1.03917 -1.32054 43.4316 -0.165845 0.0746861 -0.398068 -1.386 -0.59271 -0.27702 -0.634345 0.0163565 -1.13588 -0.217894 28.261 -0.686974 3.08575 0.0301167 -0.781362 -0.804556 -0.823216 0.34643 -0.390752 -0.790828 -0.473344 0.316136 1.01711 -0.567154 -0.166534 8.36826 -0.349885 0.909395 -0.34065 -0.874705 44.3414 -0.776385 -0.977572 48.9439 -1.36806 0.0191608 -0.90507 -0.800826 -1.02108 -0.963618 -0.852957 -0.0925788 -0.123664 0.29445 -1.10582 3.52165 31.5137 0.633444 -2.32571 1.54168 -0.612689 4.61327 -0.365182 0.352777 -0.28965 -0.842713 -0.254932 -1.05472 0.308237 -0.522505 -0.258207 -0.0526305 3.81027 -0.323665 -0.874838 -0.00889373 -0.212486 -0.987479 -1.50079 -0.0020567 3.73755 -0.848664 -0.866049 1.24697 6.48604 -0.202748 -0.129896 2.36176 -1.58844 28.884 23.5161 -0.805882 4.5352 -0.207078 -0.66624 -0.0956562 -0.252501 7.44215 0.0265617 -1.05936 -1.21824 -0.912397 -0.265693 -0.477004 -0.846772 -0.92875 -0.292012 -0.971306 -0.460008 1.43083 -0.729581 -0.212497 0.0823237 -0.865724 -32.5557 -27.7569 -30.8492 -32.1214 -31.2886 -29.3905 -32.1639 -30.6777 -31.0169 -8.32232 -31.7671 -30.9939 -31.1314 0.0461685 6.47856 -0.899518 -0.809355 -0.850022 -34.7682 -35.3531 -29.4132 -33.0799 -35.2509 -35.2263 -34.6733 -34.6104 -34.6746 -35.3248 18.7106 -35.0712 -10.9231 21.4549 -32.6636 -34.587 -24.0689 -34.0793 -34.417 -34.2069 -35.3561 0.962162 0.268361 45.7228 -0.804687 1.34633 -0.893435 -0.919637 1.04715 41.6737 -0.00078318 5.80017 0.0511404 -0.706248 -0.18381 0.295271 7.50762 -0.0996862 -0.197766 -0.821566 111.221 -0.793904 26.7346 -0.103195 7.39054 -0.625107 -0.916149 -0.0190713 0.0510155 1.40146 1.11632 1.31212 0.12281 62.8093 0.568613 6.78822 17.8074 0.661463 -0.639109 -0.630433 -0.202852 12.1092 -0.501103 24.1911 0.361013 71.7478 46.6101 -0.0123066 11.1316 24.1036 -0.136885 0.00426222 0.155446 0.193956 -0.917013 0.0427248 -0.137559 -0.138089 -0.392549 -0.817271 -0.569905 -1.05365 42.8613 -0.0269454 -0.504259 0.472035 0.191287 0.190396 -0.794823 0.0510757 1.31111 -0.702277 -0.940757 0.0938889 0.103427 1.38414 -0.810479 0.0867923 -0.614306 0.0631519 0.972236 -1.38521 -0.783011 -0.705426 5.53274 0.0890424 0.360061 0.161671 -1.22242 0.159009 0.633665 -0.896063 -0.136946 0.823875 -1.28034 -0.20884 -0.12437 -1.43477 0.0371161 1.74343 0.509532 -0.396619 -0.0945306 -0.797626 -0.721919 2.40145 -0.497387 -0.90291 -0.208075 -0.843254 -0.968502 -0.205456 -0.489569 -1.28587 -0.708223 -0.814517 -0.861269 -1.79361 0.492591 0.0173726 0.131048 -0.72821 1.64756 -0.649024 -0.0351495 51.7753 -0.688052 -0.907228 -0.947367 -1.0004 -0.0141442 2.21651 0.0267832 -0.633341 -0.0269833 1.56078 -0.646469 -1.14871 -0.882422 -0.178229 -0.941686 -0.0337996 -0.0275385 -0.77479 2.03699 -0.760994 0.100899 3.03019 -1.48485 0.0917348 -0.0540599 0.174846 0.895313 -0.842052 -1.66608 -0.86207 -0.0435444 0.505643 0.172735 -0.70484 0.920962 0.0639484 -1.02004 -0.176668 -0.719469 -0.52709 -0.199587 -0.676516 -0.0251213 -0.0711129 1.56959 -0.196033 -0.199471 -0.90516 0.0968211 -0.178648 -0.825112 -0.793565 33.3162 0.0387437 -0.797893 -0.157728 4.19825 2.65659 -0.234422 21.8406 -0.662206 1.16031 8.38575 0.267988 80.4335 -0.0239211 -0.955599 0.533156 -0.542891 45.3133 -0.550119 -0.08598 0.0784912 -0.457431 -1.74494 -0.0571564 -0.211485 14.2771 -0.815694 -1.00435 -1.43467 -0.821726 -0.993421 0.0613321 -0.297789 0.0538396 -0.705343 0.0621397 -1.09828 0.524331 0.0111898 -0.00132445 -0.594831 0.0758486 -0.855189 -0.667243 -0.184392 -0.214265 -0.924467 -0.0957151 1.37988 -0.116268 -0.15932 0.309995 -0.800142 -0.802214 0.0892952 0.0509658 3.70953 -0.308943 -0.726803 -1.32878 -0.923005 -0.988709 -0.826965 17.5343 -0.770907 -0.641647 -0.2016 5.43239 0.00600685 -0.849804 0.15626 0.0352873 -0.952435 0.655613 1.44549 -0.472395 -0.34882 1.68156 -0.0664911 31.3676 -0.99305 0.321485 4.40273 -0.829922 0.362121 0.0997851 1.90759 -0.044128 5.45938 -0.289743 -1.34488 0.248977 -0.029708 -0.1192 28.3505 8.04409 1.19404 -0.723197 0.558437 -1.0202 -0.459443 -0.926918 -0.784967 0.822724 -0.858302 -0.234031 0.671376 -0.671755 -0.154308 24.0109 51.0227 -0.69268 0.734178 -0.686968 17.0176 0.325222 -0.786665 -0.240221 0.114962 -0.986827 6.87647 -0.932616 0.128937 -0.115116 -0.197332 0.66461 0.113205 -0.89637 -0.835844 -0.793967 -0.936244 -0.730951 -0.694223 -0.184588 0.0599119 -0.840105 -0.108892 0.562284 -0.744183 -0.0516863 2.03997 -0.626072 -0.0716016 45.8982 -1.00289 -0.46813 0.0239911 2.82717 0.574931 0.0749091 0.0482836 0.0171329 -0.0729839 46.0062 -0.45197 -0.576355 -1.00632 -0.786163 -0.168643 -0.152228 -0.0115933 -0.936911 -0.917719 -0.697055 -0.888727 -0.0556895 1.55763 -0.839656 9.68199 -0.234918 24.903 0.0706657 -0.0546493 -0.680735 1.9544 -0.978421 0.866564 -0.787968 0.737874 -0.0980219 -0.0965974 -0.208826 -0.171767 -0.761156 -0.194265 -1.0736 -0.292482 0.0357469 -0.210484 0.0668861 -0.690411 -0.0209209 7.30563 -0.697769 45.5965 0.0114562 0.0150031 43.122 -0.916411 0.0348142 1.71374 0.0669333 0.0749463 -0.882179 -0.764415 2.9626 -0.831327 -1.06359 0.597586 -0.669609 24.737 -0.227963 -0.197541 0.130465 -0.664933 -0.00545792 -0.435648 -0.957728 0.1139 -0.277895 0.749564 -0.0166031 1.91747 49.8588 0.436381 1.3081 -1.046 -0.868941 -0.0862022 0.124291 0.236455 22.4834 -0.857473 -0.1884 -0.00552319 -0.237187 1.86748 -0.775035 0.0900719 0.458039 42.5829 -0.772151 -0.721766 -0.900901 2.68635 -0.223401 -0.68345 -0.736707 0.0554716 0.102985 -0.0277657 0.114698 -0.818755 -0.683435 -0.206183 2.68723 0.00158273 4.93451 -1.15047 -0.0741968 -0.479233 -0.109661 -0.704577 -0.815704 0.0952058 3.14986 0.104293 -0.429511 0.0689656 0.138753 -0.751983 -0.0599008 0.275415 -0.055874 1.85549 1.24239 65.7827 -0.198181 -0.814802 -0.698529 -0.974264 4.64266 -0.655347 -1.3081 -0.762798 -0.882634 -0.895599 -0.00857891 0.00901863 -0.662197 -0.772549 -0.0163352 2.03047 -0.0676988 -0.168249 -0.0816727 -0.311263 0.114097 -0.0709749 -0.683916 -0.769877 -0.434622 43.4624 -0.140789 -0.152336 0.101777 -0.219873 -0.0453203 44.6871 -0.916134 -0.0486736 -0.171561 -0.649747 12.6246 -0.991849 -0.699339 1.28825 45.9968 1.71594 -0.676062 -0.509593 5.38725 0.495572 -0.0194918 -0.00587233 -0.758062 -0.0880908 0.10817 0.0591541 0.130777 -0.91589 -0.965236 0.0401768 0.153331 0.077089 -0.434512 -0.197743 -0.763099 0.790235 0.034365 -0.635926 -0.656823 -0.798125 0.0902936 -0.0651012 0.332072 -0.871281 -0.930127 -0.0749433 35.2369 0.0983788 0.0969866 1.60507 -0.667675 0.988702 31.8524 -0.90429 0.512437 -0.0440484 -0.0697752 1.15652 0.151462 0.0880066 -0.184235 3.89575 8.0042 -0.865008 0.791491 2.57152 0.0890934 -0.958692 31.7189 0.184347 0.125387 0.0716213 -0.3827 -0.714931 0.231582 0.103491 0.0224511 -0.168617 1.23874 0.145319 0.0338847 -0.797237 -0.415784 -0.652836 0.658645 -0.146382 6.89537 -0.995468 50.2824 0.089251 -0.708067 1.76899 0.475943 -0.806712 4.0844 -0.0405416 2.99462 9.2387 3.36945 -0.785004 -0.946738 -0.615681 0.37227 -0.194993 -0.714624 0.17552 -0.106075 0.214276 -0.153822 0.186272 -0.0824722 -0.155464 -0.700465 1.17289 0.00541992 0.0916948 7.07537 0.0942588 0.120246 -0.283593 2.56463 -0.412849 -0.881438 0.0673693 -0.949443 0.0835739 0.420886 1.24824 -0.79495 -0.870247 0.344008 -0.740869 -0.65766 -0.0259912 0.888966 -0.596547 -0.0825263 -0.607994 0.0865936 0.152777 -0.0562934 -0.896165 -0.0663382 -0.782336 -0.747085 0.157109 0.0819481 2.01911 -0.725891 1.6381 49.9059 -0.320608 0.0325913 -0.0729088 -0.0220874 0.138834 0.0611101 0.215174 0.152281 -0.835596 -0.840897 -0.568763 6.06469 -0.0895037 -0.0391925 -0.0148896 -0.917921 -0.804604 -0.820082 0.322431 0.434022 1.55051 0.369555 -0.706312 4.02146 0.207174 -0.782655 -0.622246 14.3345 128.047 19.9125 20.1423 61.677 13.4417 13.2955 14.2642 13.459 16.4821 14.3947 13.6011 14.386 22.3982 48.4418 13.7501 45.3879 13.8764 15.3907 14.3763 17.9747 19.2306 15.2078 13.3502 14.3411 13.4315 13.2937 14.0169 14.1128 14.1252 9.91419 4.87143 13.4866 6.0848 4.85609 4.82669 6.09778 6.12549 15.1401 8.39953 29.3406 5.68222 12.3474 5.73303 10.2008 4.61603 4.96852 7.54434 5.74412 49.8942 4.58851 9.88735 9.04418 11.4229 7.67382 67.5715 9.65274 5.18783 54.1762 51.2381 11.895 5.77448 51.6665 7.57357 6.58557 17.9476 2.30161 8.99045 4.7692 43.9419 6.27551 19.6125 4.66041 22.3854 6.60035 36.2751 4.05752 4.65605 3.80837 3.94376 28.9907 5.99262 12.08 37.0793 9.95609 8.41401 7.769 5.3698 8.04967 11.2328 3.3017 4.92764 14.3486 52.0184 2.01034 59.6554 5.69375 35.2406 6.92914 6.91523 50.1486 8.76927 6.65159 22.967 5.79141 74.0177 5.37753 3.38489 5.25949 15.844 2.28003 2.9931 3.34317 3.70328 3.04638 6.97006 3.09176 3.80222 4.61496 1.99291 3.0142 2.07332 7.98327 2.1362 4.65827 2.95144 24.4874 2.09833 4.20243 2.24307 3.41398 3.58414 4.14317 2.89271 3.4883 4.52203 2.83581 5.39877 3.82718 4.43802 9.40736 12.2913 1.96984 6.25112 2.88734 5.76007 3.36092 4.32477 66.0631 45.3062 6.63407 49.1462 3.03919 3.04201 3.00357 10.7881 2.85357 3.10326 2.00989 2.30492 3.32377 134.293 2.14183 4.51217 3.11383 2.43718 2.29777 9.13811 2.97286 1.99976 45.9945 2.23905 1.992 3.55981 2.24199 3.12482 13.0982 51.2907 5.76813 8.20677 7.91163 28.6908 4.80311 54.0684 2.83755 3.70853 3.07513 2.57234 2.98363 2.16901 2.71903 35.6469 13.0193 2.52376 2.23628 2.32528 3.76867 4.40405 2.38544 2.20835 6.48284 3.68776 3.28481 84.623 3.23617 3.11527 1.96311 8.02156 2.08824 2.30429 50.1138 3.33504 5.81713 3.12844 5.54901 4.48715 6.08654 3.09423 58.814 44.3298 47.374 42.9599 52.4028 48.9336 69.4061 44.9471 46.023 47.155 44.2748 47.0995 45.2467 42.09 48.9706 49.1868 42.151 43.3371 43.6984 42.8627 45.2712 49.2239 47.1155 42.2264 61.3397 53.9055 58.923 42.1584 42.8403 71.2351 74.1435 42.5981 45.7859 48.7329 47.3805 75.7004 45.0157 65.6352 66.0585 45.9569 42.4169 42.456 42.8457 48.4473 49.997 45.5209 42.8189 43.0773 45.8622 121.18 48.0369 44.0961 43.5954 42.3856 42.2999 97.2429 42.7029 43.2804 65.9696 43.3527 43.1924 42.7129 45.7541 43.9914 1.34523 3.28666 6.33982 6.12955 30.7309 5.31283 3.54466 6.58142 2.2869 2.14049 2.4064 1.22184 1.98652 1.37901 2.20107 1.49104 5.28233 1.49084 6.9014 3.82352 5.05116 2.56766 2.43943 2.16138 1.61954 2.80735 2.00856 2.11689 2.66972 3.7464 2.4726 1.70165 1.52491 2.25734 2.29024 1.43793 53.4342 5.6421 1.66327 3.09986 23.5792 1.83964 1.30459 9.02257 2.09203 5.22982 2.30135 9.37615 3.23579 2.31732 7.86803 1.65143 2.99187 2.08353 3.15071 2.07256 1.78815 1.47637 2.25595 1.22 1.21926 1.2446 1.9957 2.11308 2.32924 4.45835 5.09796 2.29061 3.48105 34.8209 3.8645 3.71906 2.73778 2.57495 4.89345 5.99707 3.49218 2.1488 2.61519 4.44649 4.75759 1.97989 2.09329 1.16582 1.87416 2.59434 8.6992 7.48741 2.3763 1.81805 2.00263 7.5436 1.34642 21.2687 3.77736 5.71444 3.01736 2.27286 2.09883 2.36522 1.41469 1.17132 41.2416 5.39264 2.53736 2.30603 1.52456 52.6792 3.96238 24.9517 2.15478 7.49415 5.02235 4.62886 2.59094 4.70878 1.3344 44.5447 2.4937 1.1538 1.39049 1.29008 2.14549 3.54892 1.3708 4.53609 3.44005 3.16432 1.19256 6.00522 7.0838 3.01312 3.87405 1.16576 1.29983 1.78737 1.23545 1.95103 2.95399 1.52586 1.14004 2.77203 1.38963 3.11455 1.45098 2.15487 1.34246 3.29593 1.90841 1.92932 4.81503 2.33877 3.27574 2.24303 11.8874 2.31709 3.28581 2.19793 1.5902 1.80981 7.33215 1.84431 2.4667 1.66096 11.5521 2.43963 1.32833 5.78611 6.46015 3.04377 2.20166 1.86361 1.3845 1.30047 4.87039 2.23268 1.31593 1.94309 5.07166 2.3163 1.54002 1.34363 1.30328 4.24211 2.41905 2.9529 2.18311 1.30424 1.82466 1.75923 1.77255 2.21977 2.14836 1.55205 2.1082 2.26759 1.46057 1.61202 1.48061 2.36512 1.53233 2.93132 1.38275 1.30037 2.40341 43.5351 1.70434 1.28245 2.21209 1.33517 3.53283 1.49021 2.65594 27.1864 1.59942 1.41741 2.82529 2.18527 2.51545 1.47919 1.39136 1.46913 4.23584 2.29455 1.5427 2.14783 1.66251 3.11557 1.30971 3.81661 2.33396 2.03142 1.47965 1.41739 3.29631 2.23697 2.74177 5.94948 1.89751 2.62815 1.5403 1.693 1.41758 1.43558 2.39212 2.0359 2.12611 2.25404 1.61116 1.38022 6.0613 4.87315 1.93585 2.50986 2.24422 3.9359 2.41203 1.34457 1.50752 2.23597 2.07854 2.90735 1.25853 1.88122 2.27244 2.54898 2.40227 2.12996 4.73071 5.43901 2.35432 2.13289 3.15727 1.81468 1.57737 2.05443 2.33233 3.12726 2.61047 3.63888 3.29466 2.34247 1.68683 2.17043 2.02586 1.60892 9.14665 2.4943 2.12675 2.0825 1.22052 1.33248 18.1553 26.7303 1.74437 23.1253 2.11161 2.02692 3.11823 2.76332 2.4399 2.10245 4.95235 45.1096 1.57918 1.51169 2.25502 1.54232 1.95674 1.23721 2.02661 1.81691 1.56165 2.02719 1.57468 2.13501 6.66112 1.87828 2.38498 1.21279 2.4582 4.12209 1.86882 1.56551 4.40455 3.77935 2.02324 1.67367 1.95916 1.45478 10.8602 10.1832 4.25477 3.38002 3.03387 3.47887 7.00264 1.49302 1.34908 1.35303 2.79742 3.91728 2.0736 5.19599 1.47543 7.18781 49.4029 3.54998 3.53392 3.33313 2.34449 3.31015 12.8064 2.21477 2.20746 1.66299 2.2027 3.27013 1.31979 1.46378 14.484 2.47461 2.57138 2.25513 2.33528 47.956 1.65118 2.24718 1.74894 39.0897 1.63448 2.55682 6.48536 2.43255 1.54365 2.23069 1.71707 10.038 1.50199 2.28209 2.36097 3.34509 2.51833 1.39789 1.70041 3.65127 1.68999 1.52008 1.58337 1.71244 2.39841 3.08008 2.32485 6.72618 2.19717 2.19316 31.0027 28.7222 4.6601 2.29442 2.46398 1.34112 4.37954 3.04908 6.9507 1.30751 25.6115 1.3059 2.15249 2.02459 1.72516 1.39819 2.4446 2.11254 3.14955 1.41235 25.7578 26.5162 21.1381 21.324 23.5881 22.1799 21.8068 21.2044 22.0947 23.1111 24.9573 21.257 21.8941 22.3828 55.392 21.3376 45.4519 21.2974 22.0645 44.8487 22.4921 21.1328 22.0689 22.3874 21.9516 4.04228 8.37239 1.60242 4.06659 1.73445 3.44542 1.19651 1.12422 1.79376 2.54731 3.33244 1.01756 0.990512 3.72034 3.18091 1.22121 1.7212 0.912274 2.21461 2.49736 1.90006 3.31205 6.67194 1.02745 1.49688 0.952608 2.02709 13.2586 2.38693 3.33843 1.03345 2.7954 3.30663 1.44151 2.06407 0.860753 2.18497 1.65097 2.33047 4.39547 2.37455 1.9704 4.02683 6.48363 2.61327 1.37907 2.64045 1.76062 1.14961 3.26612 2.48657 1.62853 9.13441 1.96127 1.85789 4.51805 3.41378 2.45263 1.81196 3.01671 0.8223 5.20905 1.34023 8.24131 2.48311 2.0808 2.42301 3.45092 3.52366 2.20757 2.95937 4.45835 2.45915 2.60052 1.02978 2.22559 1.54296 3.73414 6.8523 3.35044 1.00942 1.57718 3.36244 3.46687 3.58922 2.81856 3.20417 2.70037 2.88373 3.57744 3.49489 1.95586 1.30115 3.40582 1.03658 0.858433 5.10727 1.08081 1.6171 1.81249 0.977703 1.77902 1.95404 4.05967 5.73161 1.09098 4.19741 1.55525 2.62733 1.18178 1.60054 0.750347 2.90893 1.0852 0.985903 2.70748 20.9977 5.73287 1.52149 7.31269 4.6163 5.28546 1.04906 3.26362 3.50306 1.10113 1.35265 6.16594 1.33076 1.98072 0.713107 1.78845 3.41034 3.83856 0.77725 0.849599 4.89481 2.8585 1.23174 2.76637 1.73838 1.50679 1.58497 4.86574 0.844302 0.977634 1.74631 2.02692 2.14783 1.43686 2.3973 4.583 2.03975 1.80706 2.1643 43.0121 2.03998 1.70514 3.97983 2.0245 2.51303 0.968303 1.68889 1.5997 1.66322 3.46173 2.11707 1.6727 1.80731 1.73882 2.59543 2.54676 1.61866 4.622 1.49084 1.20375 3.37851 1.94961 1.53563 1.99541 2.10141 1.62278 1.54208 1.106 0.802422 1.56066 1.41887 1.43456 1.69844 1.34453 1.38268 1.22693 1.7121 1.62588 3.49731 2.35114 2.98557 1.63611 1.96662 2.81723 2.87073 2.51258 0.966657 1.67884 2.10366 1.9206 0.634271 1.6478 2.88554 4.22515 4.49662 2.24026 2.10252 0.542127 2.23692 3.65082 3.67025 1.82186 1.33748 1.39114 1.50936 0.604433 1.68555 1.93912 0.826593 41.9891 3.1345 2.50738 2.21346 3.30148 1.10108 3.3533 1.59237 1.42084 5.21234 1.46732 2.38008 0.50953 2.18787 0.487752 0.753128 1.77786 0.95407 0.732294 1.6165 40.934 1.01099 0.84473 2.6151 2.79531 2.47561 2.44989 1.25333 0.458631 1.564 0.811548 1.83205 1.46039 1.75662 1.49737 1.50065 0.604081 2.16602 4.56071 3.74599 2.4418 1.92081 1.52196 4.31873 1.85018 0.780171 1.75283 1.01457 1.57643 1.5227 1.46309 1.38897 1.37182 1.72141 1.2846 1.27095 0.433593 1.21723 0.976088 1.52075 2.1914 1.31038 2.41685 1.21866 1.14651 1.50049 1.54146 0.73 1.57153 5.96957 0.801985 2.38194 0.54806 0.491143 1.22176 0.527615 1.44025 1.4508 3.60666 0.413682 1.60653 1.39134 0.405486 1.55036 1.69795 0.410039 0.408269 33.967 1.60996 1.34963 1.32509 2.07459 0.394792 34.8007 0.597508 2.46225 2.07325 0.531259 1.50368 1.13355 1.17023 1.38296 0.49887 1.31052 2.44534 0.606138 1.11259 1.69672 0.63405 0.317443 0.548295 0.361102 0.349384 2.19369 1.54676 1.20533 2.19267 1.0962 1.27048 0.605713 1.46744 0.267652 1.81452 1.43825 1.25031 1.25925 33.0519 1.21135 1.25131 1.43664 0.629247 1.12521 1.13051 0.536314 0.699029 0.600186 0.257589 3.1691 1.12339 0.641906 0.341609 3.5496 1.924 1.66929 1.38934 1.47377 0.794962 0.285951 2.91668 0.635898 67.0038 1.62937 0.550867 2.27404 1.38338 1.515 0.898816 1.28763 0.861401 0.319746 1.75573 0.333154 0.65183 1.78392 1.86686 1.23075 1.51323 3.29252 1.22853 1.59105 1.19181 2.70382 5.22812 1.36672 1.66606 1.30564 1.97489 1.4041 2.11863 2.03053 1.68374 1.93156 2.88224 0.513427 1.50849 1.25724 1.78137 0.508782 2.14525 0.609147 1.94553 18.9467 2.7048 0.985924 0.257296 1.95173 1.32589 1.61332 1.01454 24.1027 41.7644 0.559726 0.541122 0.565494 1.97416 0.448185 0.265354 2.39098 0.513359 1.26829 0.647061 0.221232 1.34147 0.579868 1.28641 0.552012 0.829269 0.337028 1.24994 1.25922 0.411844 3.74246 1.58873 0.540955 1.44305 1.12068 1.37807 2.591 2.50006 1.04168 0.408477 1.95262 1.1646 0.330823 0.463665 1.5326 0.560202 0.814301 1.32544 0.756191 1.29349 0.343936 1.32975 0.643053 1.26973 1.52196 0.992614 1.74246 1.31594 0.270695 0.505251 0.430044 0.519915 1.03399 0.434304 0.952834 1.79287 1.25089 0.277032 1.20358 0.945584 0.258658 1.2984 0.422882 52.1421 0.451028 1.07144 0.442458 0.431129 1.43031 0.986258 1.81494 1.05912 2.62809 1.11372 0.340638 0.361288 1.25175 0.233059 0.350259 0.977898 0.190461 1.0067 1.50032 1.13701 0.142328 0.996274 1.26368 1.35039 1.59642 1.67227 0.202716 0.787325 0.419628 1.22543 1.18963 1.29403 1.41119 1.1607 1.14482 1.03688 0.284759 0.467061 0.404194 1.81953 1.89166 0.396864 0.392791 1.64012 0.376154 1.07511 1.52378 0.318841 1.07543 1.40307 0.722454 1.3747 0.451868 0.42924 0.955563 1.12692 1.39485 24.1436 55.9884 23.1548 25.7411 24.0161 23.5627 24.4378 24.1387 24.4193 24.4822 25.4055 23.2198 23.745 24.0023 24.5029 23.1724 24.0958 23.9919 23.8775 23.2701 23.9589 23.1635 27.6422 24.0098 24.5623 23.5997 24.389 24.1404 24.7374 23.1778 24.3442 23.9678 24.6852 25.6229 23.2904 23.473 0.333351 0.237848 1.09712 47.2276 1.33299 0.843519 1.32206 1.10536 1.94741 0.976896 0.358498 0.391137 0.898481 0.832824 1.13555 0.913553 0.512417 0.252619 0.835627 1.1502 0.0168685 0.916286 1.24081 1.12322 0.890904 1.47874 0.0060538 0.217648 1.08968 0.879705 1.63338 0.887833 0.300642 0.997135 1.22253 0.378435 0.672522 1.11948 0.351 0.294952 1.63498 0.499713 0.376564 1.14891 46.2807 1.35935 1.73063 1.6967 0.380074 1.55896 1.07699 1.26508 1.13639 1.16652 0.947662 39.235 38.9311 39.3211 39.7725 39.0047 38.7592 39.5652 38.9895 39.6187 40.0766 39.23 39.9411 39.6574 39.2519 39.6095 39.5723 0.243393 0.982114 0.390728 0.54656 0.731064 0.642852 0.913091 1.03675 0.28331 0.00711562 -0.361728 -0.205041 0.416082 0.174496 -0.183127 0.40415 0.485975 0.58673 1.3599 0.155198 -0.0775796 -0.137096 0.753567 1.0934 0.703141 0.725215 0.629517 -0.402123 0.681035 1.01182 0.660794 -0.167206 0.712917 0.745072 0.64922 0.989711 18.0326 1.64263 0.177129 1.27687 1.18522 0.333605 0.209035 0.843896 0.487411 0.766409 34.3562 1.3139 1.07115 0.820197 0.995189 -0.108838 0.728297 0.707698 0.968626 0.528024 -0.0601437 0.191319 0.344146 0.83467 1.22666 -0.124703 1.25051 0.823197 0.913599 1.04459 0.327183 0.999161 0.676291 0.344314 0.489688 0.845005 -0.0177432 0.273693 0.777622 0.860225 1.40464 0.229433 0.992799 0.199552 1.01006 0.98625 0.0273602 0.0787577 0.587128 0.982408 0.016149 0.770033 0.28134 0.0157963 0.79909 -0.102137 0.641345 0.986882 0.88387 -0.0311033 0.114964 0.882929 0.0932879 0.725621 0.74174 0.98779 1.59298 0.744586 0.154534 1.24273 1.03888 0.154244 0.68096 -0.0733385 0.688295 0.145914 0.672935 0.0914401 -0.0696678 1.29176 0.0689473 -0.0688791 1.56605 0.285259 2.29408 -0.0770992 0.0266006 0.902299 0.179023 6.3425 -0.0243064 0.947322 0.468977 0.0738286 2.13903 0.744017 0.382513 0.994379 0.685045 -0.0410714 1.06342 0.00310721 -0.0397314 0.752883 0.441442 1.04054 -0.0968034 1.2289 1.72151 0.826023 -0.0276206 0.245905 0.00464362 1.63104 0.75954 0.893559 0.728976 1.26653 0.720652 -0.102243 0.846013 0.751177 0.700509 0.278033 0.25512 0.250644 1.76524 0.915004 -0.1093 1.03949 1.04756 0.81809 -0.0522592 0.226004 0.772758 0.694995 1.92347 0.974556 0.0303798 1.02918 0.950874 0.0184534 0.366841 0.906315 0.924744 0.887117 0.70375 0.973727 1.37929 -0.0676812 -0.0852014 0.47501 0.240253 0.166172 1.02357 -0.0273532 0.98044 0.732097 0.87625 0.66206 0.370795 2.15921 0.883584 2.03017 0.0468555 0.77129 0.210334 0.805959 1.0233 0.353812 0.15488 1.55803 0.0374349 0.119913 -0.0787989 0.737296 45.9344 45.6106 45.5723 45.949 46.4449 46.6023 46.9011 45.7046 46.2534 46.2314 46.0515 79.2242 46.1786 45.1993 45.8087 45.6681 45.7112 46.3366 45.9545 46.5505 46.6988 46.0534 46.0231 45.7501 0.416385 0.682659 0.0070243 0.994222 0.33166 1.00296 0.857131 -0.0893701 0.487088 0.925261 0.836979 -0.0363233 0.910074 0.110631 -0.0629746 0.763147 0.911353 0.876907 1.00755 0.757496 10.7305 0.896596 -0.103369 1.69726 1.19125 0.620166 0.658987 1.374 0.855387 -0.177842 0.129533 2.37652 0.137494 0.128989 0.194508 0.820512 0.0836083 -0.163947 0.097875 0.735712 0.885589 0.853299 7.63557 34.1468 1.37211 0.962353 0.985627 0.604766 0.971473 1.8537 0.750777 1.5914 0.0961988 0.935331 1.46106 0.96126 0.0514311 -0.325622 0.738382 -0.160084 0.704665 0.748859 0.00406888 -0.159725 0.891149 1.00852 0.847211 -0.0712877 0.0554591 -0.14177 17.2589 0.1014 0.377601 0.764545 0.997895 0.112624 0.160665 0.0605427 0.00958582 0.0613237 0.926887 0.114318 0.178954 0.0983352 0.787034 0.353002 1.16564 0.58083 0.196285 1.19559 0.923883 34.3741 1.36598 1.07691 -0.14281 0.654484 0.715538 1.15075 1.07711 0.226263 0.0147272 0.926772 0.982417 0.0245234 0.745698 34.7463 0.971747 0.971097 -0.0971199 0.711035 0.36169 0.0825785 0.897889 0.651193 -0.0760503 2.00222 0.153641 0.832645 0.0367252 0.192886 0.173645 0.97076 0.683146 0.740389 -0.00728778 -0.0279904 0.993558 -0.113172 0.0969931 0.254269 1.26209 0.136237 0.613125 0.19934 0.223645 0.122422 0.633806 -0.128987 0.520647 1.25591 -0.101087 -0.0536252 -0.0742908 0.334322 1.28189 1.85204 0.837585 1.66245 -0.147703 1.08127 0.962873 0.799161 0.0552232 1.15948 1.29308 0.625137 0.810641 0.384304 0.661601 0.129976 -0.00922433 0.873285 1.35352 0.197175 0.978304 0.141618 0.509251 0.764512 -0.0443456 0.931793 -0.0528402 32.1303 32.0589 33.085 31.9687 32.2009 32.9669 32.3202 32.0143 32.7456 32.2247 31.9858 32.1888 32.1705 32.9581 33.082 31.8942 31.9371 33.2429 32.4428 33.0066 35.0622 32.1417 32.0916 32.0913 33.5682 32.9212 32.8112 32.5731 32.008 32.2524 33.1347 32.2606 32.7823 32.1005 32.1326 31.8959 32.9932 0.444488 0.69692 1.41908 0.304332 1.04044 0.974497 0.704255 0.801174 1.14084 0.864761 0.904759 -0.0870834 0.249263 0.920414 0.0515301 1.23008 1.27682 0.121112 0.0364775 0.0148929 0.394441 1.15528 0.799536 0.827013 0.00389875 0.394957 -0.0723314 0.394472 0.794154 -0.0951402 1.1728 0.820454 -0.130622 0.819945 0.548454 0.816235 0.803213 1.07831 -0.154084 0.795556 0.558015 -0.11975 0.957449 0.80891 0.588668 0.881623 0.831067 1.38256 0.890664 0.0149847 -0.0494548 1.53409 1.57479 -0.0203031 -0.104619 0.287213 0.842519 0.336016 -0.211745 0.140463 0.351181 0.940511 1.57381 0.621947 0.660344 0.794921 -0.0631752 0.923361 0.123921 0.616626 0.71249 0.983253 0.740291 0.0774202 0.728281 0.000517069 0.123757 0.0253111 0.102964 -0.213363 0.556565 0.906069 0.736062 -0.0531496 -0.0282707 0.651738 0.0940559 -0.23687 0.07061 0.951237 0.706397 0.0828599 0.84368 -0.204117 -0.241431 0.651063 0.02127 0.770702 0.755814 0.0260334 0.10391 0.877811 0.340248 -0.0458066 0.93303 0.139196 0.277671 1.4354 0.829522 0.727079 -0.0487464 0.821916 0.590451 -0.0952342 0.969983 -0.0816149 -0.0478718 0.106541 0.0788587 0.573483 -0.209716 -0.0346994 0.321671 0.689934 1.17775 0.82701 -0.0542368 0.35852 0.792808 0.634402 -0.163974 -0.22549 0.0739381 -0.22923 0.637162 -0.0470306 0.393996 -0.213651 0.0716662 -0.0251777 0.782936 1.1596 -0.0610449 0.61023 0.404776 0.556572 1.71851 0.488651 0.86152 0.829683 -0.0978804 0.0795083 0.620344 0.0982986 0.0218881 -0.0214098 0.805928 0.909073 0.825559 0.657829 0.731367 0.833603 0.656079 0.129971 -0.258965 0.586567 -0.233187 0.321106 0.00879931 0.683606 0.9195 0.937384 0.82498 1.18167 0.539179 0.841744 0.261093 0.852538 0.081803 0.845537 0.901527 1.01761 0.0660493 1.16531 0.307947 0.0825829 0.743997 -0.173748 0.546699 0.0634625 0.775341 -0.0790959 -0.0413121 -0.143715 0.872156 0.872333 0.674054 -0.110783 -0.0705399 0.538026 0.841448 -0.218743 0.6354 0.752764 0.605568 -0.00172211 -0.131354 0.849821 1.00044 -0.0406057 0.0467411 0.067663 0.671615 1.16387 0.888837 -0.104438 -0.260805 -0.210848 0.0868096 0.738334 0.079592 2.21226 0.818393 0.879496 0.670549 0.791071 -0.249115 0.770227 0.756584 0.866035 0.0335286 -0.2163 0.036091 -0.0658785 0.57392 0.130519 -0.219226 0.104617 -0.100064 -0.214977 0.0337936 0.0373224 -0.000681369 -0.0648252 0.614963 1.10916 -0.0312699 -0.172193 0.653398 0.882579 0.305449 -0.168895 0.0446946 -0.123105 -0.151145 1.08219 1.73111 0.542973 0.786304 0.0739474 0.580002 -0.0389096 -0.0507346 0.0731673 0.651081 0.0262967 -0.0959067 0.736598 0.80199 0.702522 0.758929 0.631632 0.901458 -0.199021 0.0426813 -0.097248 -0.180546 -0.102279 0.535706 0.883097 1.07725 0.871758 1.10425 -0.260375 -0.127169 0.595288 0.119648 -0.187556 0.847173 0.550318 0.693304 0.796867 1.21785 -0.0255124 0.875941 -0.278915 0.635283 -0.206642 -0.0147425 -0.0202966 0.0605965 0.565628 0.34477 0.554776 0.684048 1.02352 0.0742174 0.648089 0.726753 1.17147 0.792114 0.523888 1.11471 0.769701 -0.0976169 0.096669 0.719233 -0.00552432 0.0915076 0.926757 0.437875 0.669823 0.607606 0.833797 0.856787 0.582519 -0.151333 0.768877 -0.268824 0.77294 0.0395388 0.998377 0.549325 0.610796 0.0209127 -0.0738049 0.732885 -0.280135 0.00353214 -0.100567 0.474804 0.753791 0.84113 -0.159485 0.699921 0.637718 0.901214 0.660518 0.520555 -0.221228 0.906603 0.708422 0.544139 1.0159 0.595007 -0.0734197 -0.200465 -0.246324 0.629437 1.10195 -0.230753 -0.0842631 5.887e-05 -0.172241 -0.0826949 0.000415942 1.09955 -0.0906971 0.374845 0.877818 0.0407092 0.0366122 0.806277 -0.10783 -0.134961 -0.232674 0.446411 -0.00416065 0.581158 0.0029967 -0.0893102 -0.0403697 -0.0140959 0.565749 -0.265497 0.902661 0.0758921 0.0960165 0.0117131 0.853574 0.705025 -0.0084018 0.0842893 0.344932 -0.102536 -0.248375 0.883476 0.627187 0.551854 -0.196495 0.844457 0.313381 0.88342 0.799384 -0.166075 -0.289699 0.258528 -0.0457776 -0.224058 -0.133136 -0.271502 -0.0435692 0.811011 0.556007 0.316147 -0.246375 0.766849 0.858065 0.0537659 -0.188134 0.0303486 0.101398 0.101959 0.85407 -0.282219 0.0110413 -0.302627 0.812088 -0.0126085 0.154067 0.811271 -0.0495615 0.700202 0.500416 0.831165 -0.0870908 0.699922 0.724128 0.00167541 0.91772 0.880664 -0.197374 0.57291 0.781668 -0.0741684 0.843101 -0.223298 0.765364 0.170429 -0.285196 0.669591 -0.0270782 0.877687 0.921874 -0.0271796 0.77822 0.883813 0.0170252 0.893216 -0.293555 0.273041 -0.155793 0.0788407 -0.0416377 -0.284712 0.825348 -0.206909 0.621219 0.506228 -0.117733 0.704684 0.743847 0.774143 0.666762 -0.188869 0.324463 0.59957 1.15823 0.0934982 -0.22432 0.0901472 -0.0481125 -0.199499 0.568865 -0.054372 0.063461 0.885147 -0.20443 -0.116162 0.607312 1.52211 0.011633 0.0572852 0.540257 0.706511 1.05923 -0.134751 -0.178263 1.14809 0.0574266 -0.131131 1.19542 0.844185 0.549871 0.64459 0.750065 0.811956 -0.222492 0.0747034 -0.30907 -0.0426239 -0.228398 -0.138306 0.781024 0.610201 0.590797 0.887397 0.637104 0.848477 0.843871 -0.294104 -0.0101601 0.798335 -0.169685 0.860829 0.638777 0.778388 0.00746815 0.741797 0.359282 0.783132 -0.235609 0.871223 0.734149 0.763576 0.544806 -0.246171 -0.0777611 0.93423 0.651529 0.763425 0.027583 0.87409 -0.203265 -0.0243747 0.281486 0.485563 0.78462 0.119783 -0.249287 -0.026602 -0.27021 -0.0680912 -0.203094 0.617767 0.0176949 -0.287156 -0.103187 0.739488 -0.121731 -0.289232 0.849966 -0.0865711 -0.278764 0.0567637 0.548258 0.760413 0.652729 0.21324 0.828293 0.586566 -0.208097 0.398409 0.511087 -0.0657049 0.838042 -0.176202 0.246677 0.933266 -0.320013 -0.251151 0.835669 0.567762 -0.163787 0.667941 0.57602 -0.126398 0.851949 0.739552 0.81144 -0.159902 -0.233017 0.701537 0.862477 0.0450898 -0.172513 -0.101767 1.20176 0.817929 -0.0157441 0.688097 0.504425 -0.0972289 0.832832 0.259496 0.384021 0.657801 0.815418 -0.257306 0.506769 -0.0837427 0.539632 -0.0111306 0.688673 0.134663 -0.0789769 0.574831 -0.272782 0.654223 0.851249 0.664333 0.045743 0.551829 0.84552 0.0587285 0.857304 0.75292 -0.0464765 0.0501404 0.867125 0.713685 0.557788 0.803519 0.684345 0.807984 -0.22272 0.525389 -0.0239638 -0.216135 0.61687 0.53869 0.552908 0.516225 -0.240156 0.606334 0.689252 0.525284 -0.240365 -0.262108 0.564344 0.514387 0.868342 -0.238108 0.699224 0.631425 0.573121 0.572498 -0.100252 0.855778 0.685171 0.861026 -0.0206597 0.986498 0.0463582 0.190434 0.605579 0.574735 -0.198361 -0.155006 -0.143271 0.00187481 -0.143111 0.564118 -0.24591 0.000676245 0.666455 -0.0899507 -0.0311071 -0.228562 0.822727 0.709718 0.665105 0.693785 0.832557 0.889082 0.745728 -0.0190478 0.867616 0.696197 -0.19608 0.0328021 0.819151 -0.28637 0.754764 0.64199 0.748754 -0.26029 0.831344 0.611879 1.19839 0.836825 0.196725 0.548021 -0.303371 0.0309748 -0.125924 -0.237352 0.740075 0.91839 -0.0469094 -0.327868 0.8461 0.537472 0.548784 0.73031 -0.0453395 -0.049389 -0.0802534 0.84152 -0.0305923 -0.29411 -0.0215986 0.28717 -0.0617337 0.586167 0.664897 0.706371 0.0274617 0.581891 0.586644 0.472313 0.804683 0.544881 0.784972 -0.138906 0.00511832 -0.242426 0.0312149 -0.046256 -0.122139 0.0494525 0.807482 0.873002 -0.0964544 -0.0473962 0.705558 -0.0488968 0.69344 -0.206945 -0.175871 -0.10766 -0.183173 0.509754 0.729957 0.0132153 -0.338321 0.650091 -0.248197 -0.0216115 -0.155166 0.79991 0.771225 -0.180815 0.692695 -0.078465 -0.119926 -0.307421 -0.0728226 -0.241374 0.641288 0.67963 0.0552711 -0.0643881 0.816347 -0.318694 -0.0366547 -0.173091 0.82276 -0.175059 -0.118986 -0.210459 -0.21697 -0.319331 -0.19167 -0.000743683 -0.163692 -0.15346 -0.0376381 0.598109 -0.331434 -0.166392 0.0286843 0.790676 0.586394 0.655409 0.592823 0.717854 0.757311 0.722853 -0.052013 -0.122832 0.674033 0.622115 -0.272689 6.6527 0.044627 0.0511196 0.972985 0.502419 -0.0430792 -0.218654 -0.24403 0.700935 0.828934 -0.290602 0.908457 0.727234 -0.0688882 0.818512 0.538992 -0.324861 0.577166 0.600215 0.788484 -0.286003 0.474988 0.890407 -0.307199 -0.0732642 -0.16757 0.464176 -0.152486 0.126878 0.0195101 -0.338137 -0.339302 0.840346 -0.311926 0.529823 -0.265169 0.779068 -0.192829 -0.214067 -0.258337 -0.0812689 -0.0117703 0.633951 -0.124863 -0.146204 -0.297676 0.73159 -0.107912 0.00144665 0.0509166 0.468194 -0.0990951 -0.205829 -0.0901035 -0.146212 0.564327 -0.128606 0.527186 0.494614 -0.196561 0.691065 0.0234213 0.588315 -0.33749 0.761428 0.766665 0.757926 -0.219784 0.511944 0.73791 -0.012588 -0.137058 0.626915 0.658012 -0.0648724 -0.0080871 -0.200229 0.527172 -0.223416 0.626833 -0.00265572 0.563046 0.607837 0.575756 0.846979 -0.0253932 0.0394808 0.753306 0.825544 0.0452964 -0.115061 -0.150345 -0.1034 0.0430622 0.788485 0.659123 0.71905 0.803142 -0.257538 0.692409 0.540548 0.81095 -0.132795 -0.23596 -0.324213 0.605256 -0.304283 0.0966566 -0.180576 0.582492 0.791253 -0.11558 0.716321 0.689728 0.650688 0.522997 0.0469297 0.841477 0.747967 0.547541 -0.117804 0.461688 0.657572 0.678852 -0.277431 0.659719 -0.253875 -0.0304351 -0.051693 0.786382 0.0405573 0.631963 0.490946 -0.150759 -0.0130524 0.660826 0.586275 -0.303739 -0.171244 -0.345755 0.579113 0.635708 -0.130507 0.65345 -0.150598 -0.123458 0.609804 -0.161961 18.8787 0.939408 13.2924 18.9986 19.0496 7.86757 4.68638 16.0908 1.82395 0.756085 0.0324319 9.00698 11.4629 15.1402 6.57067 11.2731 19.4157 17.3448 5.45933 3.24046 4.47387 0.039592 3.2115 7.4665 0.817053 1.86175 4.35435 0.398983 0.0305086 8.38503 3.41626 8.21978 2.83285 3.86469 2.60859 4.84973 3.77522 0.90009 3.21691 0.189076 1.22268 0.484642 1.65013 0.910743 2.42314 14.1771 6.75885 4.17988 8.12524 0.97738 2.43932 7.56836 8.17673 18.2807 1.64899 5.60165 14.7732 4.67846 13.4942 3.58885 1.57401 0.831288 2.7403 3.58251 5.00256 2.65071 7.63442 4.36596 8.05108 -0.295339 10.7768 1.837 7.68586 1.48424 2.44099 0.962469 0.633 13.3374 5.71993 5.75647 6.45937 0.889067 1.72732 1.40779 1.27073 10.6246 9.0392 1.15588 5.56804 3.7045 8.94107 5.40871 8.81727 2.30018 1.47968 2.79066 1.18654 -0.0919951 0.458038 0.691057 0.613334 0.830264 -0.296598 0.869382 1.50171 0.767798 0.240907 0.531421 3.39159 4.50217 0.907449 4.16734 2.46207 0.860118 3.17613 6.22459 2.54217 7.56536 0.991899 2.07537 1.76349 1.84413 0.73826 -0.117499 0.169905 4.70566 2.53906 1.31143 4.55747 4.69586 3.07984 6.93725 1.91758 -0.321891 -0.219634 0.801515 2.00849 4.83017 1.11035 0.691601 0.538598 0.473621 0.927287 1.1426 2.71099 0.698787 0.699013 1.49982 0.85895 0.831143 4.39535 3.76607 4.05626 -0.0610021 4.63601 1.66338 1.08353 2.79772 0.280107 2.25716 -0.351903 1.11012 -0.0810221 3.57744 4.23725 1.50529 3.14862 1.2136 0.400911 1.3479 2.49074 5.07224 1.56523 0.547038 -0.31293 0.949077 -0.019612 -0.325683 -0.301632 2.47007 0.871863 -0.275266 1.75107 1.25636 1.08223 0.538531 0.436362 0.870632 0.199566 -0.234857 0.795043 0.350291 0.814871 0.652191 1.16818 0.644216 -0.118877 0.816767 -0.0683035 0.328009 0.470119 1.06002 8.43576 1.08597 1.87006 1.67833 0.134863 2.36791 1.05717 0.805123 0.846269 0.824287 0.96139 0.970832 -0.000775162 -0.0451401 -0.0872038 -0.0870985 -0.119636 -0.153891 0.710539 -0.102427 0.105482 -0.0305356 0.748422 0.610338 1.61292 1.07693 1.06658 2.55025 1.65579 0.925178 0.856155 0.726723 -0.167556 -0.108094 0.51557 -0.239327 -0.0353753 -0.117686 0.00832326 1.09364 1.36888 0.525773 0.323485 0.418191 0.129198 0.412666 0.10186 1.61556 0.63675 0.546802 0.243879 2.02676 -0.282078 1.10698 0.51244 0.638623 -0.0873564 0.632143 -0.370426 0.305618 0.142621 0.751241 -0.208977 0.561424 0.753502 1.13243 0.688583 1.65729 -0.0694314 0.411407 0.388216 -0.10562 -0.0884585 0.495139 -0.306101 0.5018 0.662609 -0.0329061 -0.314199 0.522053 0.69199 0.524743 1.86333 -0.332882 1.04134 0.975559 -0.171908 0.793978 -0.0580491 0.754295 0.65251 0.724879 -0.0770371 0.579926 -0.152732 -0.0864009 0.186704 0.365648 0.717457 0.764123 -0.0887634 0.670553 0.501999 0.738973 0.733485 -0.13742 0.699218 -0.278121 -0.219426 -0.0583387 2.52237 0.424336 0.477535 0.150652 -0.217543 -0.175987 0.781186 1.50536 0.044755 -0.242787 1.846 0.60801 -0.0421719 0.853655 1.2396 0.840982 0.636254 -0.211302 0.690424 0.864305 0.858267 -0.14808 0.920131 1.42805 0.00174777 -0.0584846 -0.153977 0.656436 1.8038 0.814739 -0.339556 -0.193169 0.563254 0.268857 0.0996107 0.73327 -0.0864853 -0.375404 -0.179199 -0.073226 0.458607 0.682736 -0.362583 -0.0198133 0.527387 0.600882 0.765656 -0.0524655 -0.404296 -0.0124642 0.722655 -0.382589 0.420628 0.409056 -0.247649 0.535814 0.530715 0.511663 0.760577 0.172849 -0.215535 -0.211148 0.599491 0.707993 1.37144 0.623339 0.831001 -0.120526 0.940725 0.654414 -0.057041 0.04438 0.661307 0.594689 -0.219324 0.762083 0.411859 1.06988 0.783094 0.608127 -0.214513 0.646761 0.180646 -0.375628 -0.113868 -0.341856 0.357051 -0.206683 0.360136 -0.250843 0.104948 -0.0542332 -0.195676 0.460972 -0.124005 0.72233 0.605827 0.0265502 0.5559 -0.0923797 0.523739 0.726471 0.420203 -0.235066 0.691553 -0.201935 0.637649 -0.211678 0.588668 0.590067 0.772805 1.03503 -0.379402 -0.202319 0.738996 -0.029767 -0.271247 -0.167842 0.469395 -0.236294 -0.0297345 -0.197103 -0.0603798 -0.32426 -0.259754 0.476407 0.642926 0.428066 0.49015 -0.380886 0.460278 -0.0296421 0.696073 0.599027 -0.311362 0.612674 0.409041 0.534274 -0.406166 0.642455 0.882301 -0.076963 -0.238407 0.636105 -0.359723 0.769005 -0.216927 0.720767 0.642801 0.492333 -0.0797383 -0.13995 -0.403277 -0.125506 0.471424 0.708793 0.703599 0.686152 -0.186011 -0.0998487 0.296158 0.967693 -0.273468 -0.333888 0.758408 0.695402 0.750225 0.417608 -0.281696 -0.344494 -0.144189 -0.260169 -0.337215 -0.222572 0.692307 0.219236 0.68865 -0.154729 -0.0318354 0.470509 -0.0792991 0.72199 0.605804 -0.420679 0.517682 -0.0758664 0.742823 0.671596 0.372544 0.469864 -0.394343 -0.303631 -0.167753 -0.0788975 0.369829 -0.0831662 0.5382 -0.120584 0.368851 -0.147302 0.721564 -0.0677629 -0.0531291 0.584015 -0.0761694 0.718846 -0.157219 0.628577 -0.25193 -0.178951 0.413304 18.3158 -70.8174 -76.7363 -47.3113 -138.918 -101.638 -133.423 -35.1955 23.8928 -128.013 -76.5601 -74.0484 -50.8718 -67.8085 -34.1234 -35.2371 -36.9386 -40.1314 -60.2013 -58.2272 -29.4631 -32.0298 -72.143 -34.2286 8.96702 -37.2397 -32.1066 -10.4137 -26.3335 -13.3374 -30.998 -36.8892 -37.3862 5.82271 -35.5612 -30.0751 -88.393 -17.4032 -39.7741 -34.414 -10.8267 -34.258 -34.4992 -37.8291 -36.2181 -17.5684 -36.1187 -68.9842 -32.0104 -36.9191 -94.8025 -65.356 -30.0827 -34.4638 18.7118 -64.1825 -34.4665 -48.1407 7.00899 -61.3405 -35.8804 -73.0153 -32.5401 -18.1348 -34.0955 -39.6054 -35.1264 -35.0692 -34.5847 -37.2036 -31.7113 -34.4212 -83.9632 -61.9326 -73.3455 -105.139 -174.408 -33.1261 -71.1112 -38.6125 6.52215 -10.3968 -44.1824 -82.8552 -37.1798 -40.4309 -38.3158 9.99643 -125.128 -35.2652 -35.0135 -35.6905 -35.2704 -34.1746 -34.0886 -41.4002 -100.465 5.56628 -145.991 -54.3458 -74.541 -38.3071 8.16396 -31.7455 -35.1046 -27.9383 -36.8362 -37.6959 -31.7859 -101.218 -16.8901 -26.7276 -19.3507 -36.4991 -30.5077 -33.0559 -32.6508 -32.3108 -32.6174 -18.7376 -33.0764 -32.3725 3.1531 -47.8756 -18.702 -17.2021 -34.1488 -33.0956 -27.009 -30.2769 -30.5439 -33.3815 101.915 -34.7062 -72.1911 -32.2974 -51.4878 -29.3208 11.2724 -30.4337 -31.7169 -64.7886 5.67851 -29.2215 -28.1147 69.3434 -8.19426 -56.0135 -35.0946 16.0441 -75.0767 -28.0334 -33.0336 -95.0419 -32.2762 -44.3029 -32.2261 20.4289 -32.1029 -34.5938 -33.2931 -32.685 -32.2928 -32.3749 -43.9883 -32.6823 -32.2829 -31.8375 -27.0081 -35.1318 -31.6194 -32.8226 -11.4712 -32.4159 -33.7896 -32.0637 6.39138 -31.3692 -31.4687 5.97672 -20.8667 -31.4413 -32.2546 -32.3547 -31.6391 -31.5332 -31.6401 -31.3849 -31.6336 11.4356 -30.7445 -31.8687 -27.0178 -31.4787 -9.79324 -33.9894 53.1388 -31.4997 65.1264 -31.7297 11.5315 -31.7249 -37.8364 -48.2068 -73.1612 -30.85 -50.0542 -33.9728 -31.8384 -30.2512 -31.6999 -30.3218 -27.3117 -34.8911 -80.19 0.0629731 -46.7249 0.950764 -28.8337 5.50828 -59.8693 -33.2961 -32.1756 -32.3 -31.0308 -29.8828 -31.3177 -33.4321 -36.4003 -31.5078 -33.0997 -32.3468 -42.604 -41.7065 -49.8239 -35.4217 -35.2688 -31.9117 -32.1899 -32.3385 -34.7264 57.4673 21.1971 -30.797 8.02908 6.2334 -65.0285 89.6101 -36.8461 -36.5407 -48.888 -44.7371 -47.0046 -34.2101 -37.5317 -31.5571 -26.526 -63.1634 5.06068 -6.8487 -31.4308 -31.3988 -35.3413 22.5689 -82.9722 -72.3926 -31.4755 -91.58 -41.9828 -32.2158 -32.6855 -0.414541 -38.7998 -34.2826 -9.43292 -33.5529 -32.9853 -32.9458 -51.3265 -35.2264 1.2952 -33.7925 -32.5867 -65.2958 -31.6836 -28.5811 -31.9544 -29.9773 -76.2353 -44.5928 -32.3894 -32.2736 -5.3785 -34.6517 -28.4014 -30.3687 -39.1221 -35.1047 -35.7734 -33.0856 -47.8338 39.226 -18.0989 -34.5421 -31.4187 -92.8245 -31.9534 -7.65445 -15.6559 -28.3643 -31.8035 -112.861 -42.5333 3.38566 -31.6766 -31.4811 -37.2903 -25.722 -34.2797 -31.7372 -35.0181 -32.8856 -34.4469 -47.9492 -32.4617 -27.6349 -7.17365 -41.123 21.1451 -39.5725 -31.576 -18.8587 -52.024 -36.7146 -34.4266 -145.99 -36.2406 -32.2762 -32.029 -38.1594 -6.90853 -33.5882 -36.5003 -36.9542 -32.9405 -32.6702 -32.6383 -32.4112 -33.7596 -32.262 -34.8962 -32.2898 -31.4675 -31.6394 -29.4567 -28.3109 -74.7889 -29.2397 -31.4988 -27.0206 -31.8857 -32.5124 -32.2617 -32.8215 -32.3673 -32.4143 -32.9943 -7.22402 -30.6849 -33.9454 -32.8588 -32.8648 -26.2563 -37.7661 -31.6043 -31.2405 -33.9897 -33.2495 -37.2118 -33.1424 -31.2502 8.90783 -32.3362 -45.2254 -31.0552 -31.7572 12.6472 -30.7268 -5.11146 -1.25339 -40.8917 -2.2471 -37.9767 0.309083 -1.93631 -1.88913 -4.02559 -37.6744 -34.5638 -38.0175 75.5683 -1.00104 -40.5148 -78.9669 33.4242 -2.4966 -1.9788 -37.1547 -40.2017 -37.3268 -1.52086 -5.12527 -2.57225 -1.29711 -1.72219 -10.9006 -35.0927 -9.69878 -8.02531 -12.9175 -60.6276 44.347 6.47594 -2.49233 -63.3052 -2.77587 -3.3345 -6.5417 -37.4896 -3.97172 -1.77118 -1.76249 16.0696 -2.53844 -3.14479 -1.402 0.121128 -1.71161 0.483976 24.1036 -1.94162 3.8228 -4.48523 -1.11489 -2.0185 -36.0417 -15.2493 -93.4043 -11.8168 -2.47206 4.53203 -18.1594 -37.2984 -3.04994 -1.90775 -9.30297 -47.1494 -38.4805 22.8979 -27.0261 -1.04741 22.7326 -30.5628 6.49348 58.3804 -17.1173 88.6717 2.77899 120.822 -39.1603 0.884032 -1.30698 0.717671 -35.0873 -2.05115 -2.85001 0.617568 -5.75407 4.61512 -60.8453 29.3215 30.7061 -0.927946 13.2561 -4.86665 -50.6627 -1.32883 -61.0732 32.5697 -4.1643 -4.57714 -1.02546 -2.3381 -1.72193 3.19744 -48.7422 -2.08473 -2.01286 -3.73174 44.6879 -49.8604 -0.842954 -2.07765 38.5481 -0.546862 -4.55566 -5.47989 -4.35486 -1.80943 -1.99565 -1.89464 -2.57767 25.5432 -1.22397 -53.7677 -2.42455 7.77303 -2.63807 -0.470668 -5.45984 -3.8673 1.22499 -38.4737 -3.43147 -2.01787 -47.451 -41.6175 -5.34489 -42.2311 9.25907 -5.4535 -1.73437 -3.86059 -2.02822 -1.62932 -1.0501 -0.906719 23.4091 -2.23535 -2.72199 -4.75809 -4.58781 -2.81738 73.8219 -1.90971 -1.15916 -5.58058 -0.885536 -6.1748 -6.72091 -6.40116 -26.1233 -26.093 -2.65733 -41.2001 -3.04357 -2.49272 -7.30787 -5.38479 -2.4566 -1.71061 -7.83528 -1.78731 -12.3166 -82.9343 -4.17895 -2.0231 -9.9194 -7.38822 -2.61952 -1.6172 -3.18848 -1.99298 -1.34962 -7.80059 -11.0218 -11.0145 -7.28955 -12.1645 -2.70462 -5.62236 -2.09723 -3.22842 -6.46967 -7.03377 -5.35367 -0.795159 -7.62678 -15.5114 26.6242 -2.60739 40.7242 -6.03398 -2.67659 -6.61959 15.8567 -8.62246 -7.96752 -0.874771 -34.5184 -13.5726 -5.8456 -1.0297 -2.87723 51.1967 -3.38292 -2.19599 23.2265 -17.48 -3.51587 -41.8046 87.8049 -4.79731 -1.81839 -4.99462 -48.0982 24.714 -1.69868 -71.8843 -1.38423 -4.64588 -2.97168 -1.78725 -1.04601 -5.42666 -3.97571 -4.9523 -5.52916 43.9027 -1.27447 -6.64584 -3.72949 -1.56559 0.203679 12.6298 -1.84046 0.481294 -2.27756 -0.421779 -0.399153 -14.5376 -1.88683 -0.766964 102.145 -2.22102 -1.20436 -1.15431 -0.879967 0.0180975 140.497 -1.32466 -1.18859 -1.98607 24.6625 -3.21313 -0.894263 -3.30521 -1.13876 -3.07433 -28.0394 -2.86813 3.26307 0.883793 -6.89367 -1.91071 -1.9053 -1.85958 -1.8417 -1.77502 -2.59086 -0.890178 -1.64881 -6.51596 -5.50074 -6.17708 -2.37408 -3.44995 -1.27144 -1.21091 -0.866535 -2.42197 24.5382 -1.99183 -0.0426135 -3.65121 -24.2932 -1.69338 -37.306 33.7268 -5.38878 2.844 -0.813163 -1.16066 -1.7082 44.176 -2.22409 -1.97099 -2.46885 -1.76197 -2.49662 -0.60131 -2.01604 -10.9672 -0.86956 4.04518 40.1897 -1.79653 21.1325 -1.76724 -1.19978 -1.88053 37.3514 34.2572 61.8854 -1.50262 58.4749 -0.118918 -0.821406 -0.842069 -1.86445 0.737699 41.1349 -3.18301 -2.96535 9.52573 -2.42059 -0.748144 43.6127 0.98256 7.06742 -1.43368 38.1495 -1.89853 44.0748 -0.528644 -55.9991 -55.6075 34.6376 -51.4188 -58.3186 -3.11315 -77.7312 2.00459 -4.21963 -47.2071 -41.7224 -6.85661 8.27819 -1.94972 -1.61128 -1.94162 30.9469 -2.41604 -1.63082 -1.60402 -47.6951 17.0474 -41.1422 -0.962982 -1.16748 -1.589 -0.0930241 -1.79343 -3.17476 -0.986547 -4.52957 -40.6019 -7.66668 4.25517 0.767567 46.8934 -0.334571 2.02437 -30.0845 -15.1773 36.6825 -8.3557 26.6057 -1.66699 -4.15027 -5.06097 34.831 3.02403 -1.65478 -8.26215 22.5742 -0.341842 27.0596 -6.09305 -4.60052 -6.10048 -2.13017 -42.4756 -3.38149 -11.4196 16.5526 -54.888 0.150929 -9.57973 -0.794278 -2.51654 -3.09676 -1.60139 -2.49106 -2.85377 -2.61423 5.99731 -10.0324 -7.28016 -2.04229 -1.42373 -6.98842 43.8651 -5.64922 -2.42646 -38.4947 2.16593 -16.2233 1.98162 5.001 -2.54713 -2.36682 -33.6609 22.6048 -87.4157 0.828701 -0.844097 1.0672 -1.80359 41.7469 33.6086 3.05729 -2.88165 -49.9692 -4.94225 -1.55027 -1.86834 -3.71968 -21.9021 -1.3484 -50.5657 3.78952 -41.7933 44.7659 -14.1477 0.455301 -1.55508 -3.08176 -41.9869 1.26167 -5.83268 4.10767 -6.20697 0.66584 -3.91532 -2.03127 5.74924 -1.76548 -0.448434 -4.93114 -0.861275 65.2187 -0.205376 -0.779001 -1.55843 -0.360095 59.147 -2.11976 -0.331534 6.6895 -0.483598 6.3691 40.106 -0.691272 -27.3402 -1.0814 -1.77868 -2.3339 -1.52401 -1.55628 -0.911522 -5.05652 0.0982786 3.74028 -0.0912607 -0.795246 -31.4175 -1.12562 -0.752716 -0.843217 -1.80918 -0.644181 -3.60851 -0.731499 -0.685786 6.95895 1.98546 -1.69171 -2.15155 -4.82602 -1.66874 -1.90503 2.19895 -27.7975 -1.99288 0.120484 -22.8224 -1.48225 -1.13279 6.60439 -4.57936 0.421496 -4.46617 -3.01478 -1.56128 -5.28838 -8.66027 -0.338666 -8.1562 36.1672 -41.1961 9.114 7.006 9.35467 12.3255 14.7519 2.59941 42.3923 -7.01627 -0.745186 35.922 -0.0455576 -0.855976 21.0446 16.1806 -1.91585 0.116355 -1.43392 1.90341 -1.89792 4.92794 0.806949 -34.6134 -6.21981 -1.60717 -3.30766 1.65327 -1.73091 -4.13717 -1.74522 -38.9929 32.236 -1.29782 1.23498 -5.73196 -92.0696 -39.9329 -32.5716 -5.68185 -1.05827 4.80933 -1.19367 -0.827765 -1.55864 -2.21754 0.406098 -44.9516 -5.62805 -1.91888 -1.26917 -0.458471 12.3161 -1.60852 -1.76241 -2.5437 -0.76172 -2.21207 -5.04385 -1.82335 -1.41099 -1.82338 -1.76954 -1.09926 8.17103 -39.2218 3.53148 0.158479 -1.84255 -3.16865 1.07115 -1.56913 3.50232 10.5895 -1.15899 -0.773395 -0.453208 1.0669 0.871339 0.700699 -0.911123 -1.59179 -4.65872 -1.0521 -0.90558 -1.82717 -0.756941 -0.767739 -1.51894 -13.4746 -8.49465 -7.02124 -1.78334 -2.70678 57.6388 -0.558372 -4.84146 -1.75875 -1.03758 -2.69274 3.19835 5.00085 -1.82454 -0.847377 -0.832654 18.0609 -38.4394 -37.5602 -0.929123 -2.76064 -0.771329 -0.802312 -1.85405 6.02489 -0.38297 41.2924 3.74479 -0.921376 -2.36127 -37.6093 -2.35258 -3.54251 -16.9379 -1.06317 -2.36359 -36.5184 70.5304 -2.32083 -4.26453 -2.47061 -0.435563 -0.957493 -39.2436 -1.77596 -1.91912 -1.1873 8.45879 10.6936 -2.28287 -2.25746 -1.76795 -4.53088 11.2581 -3.4125 -0.952301 54.668 20.937 -7.51736 -7.00086 -3.71197 -10.7773 27.4746 -2.19693 -5.36202 -1.48453 42.451 -30.123 -4.54079 -8.68168 -7.74894 -0.964721 -43.6835 -39.8455 -52.9961 -3.83753 -1.74276 -1.90802 -2.18919 -1.45477 -1.70737 -59.1245 -0.964968 -5.62443 4.89648 1.69848 45.655 -2.54353 -0.495053 -1.05489 -2.75979 -1.6277 -0.710091 45.3925 -1.80169 41.677 -2.84 -1.23441 -75.9802 -35.7052 -66.1961 -49.8359 -6.56075 -42.3958 -4.99083 -1.63026 -2.19297 -2.26577 -2.31469 -1.59998 -2.48116 -7.24923 -35.9815 -0.672542 -0.578381 44.9643 -5.07191 -7.53206 -2.83471 -3.36212 -5.19575 7.46013 -9.61381 -40.7019 44.4872 0.452974 -0.902462 -2.73241 -2.77627 -3.64735 -3.16404 -1.49505 -0.748386 -0.817749 -1.9218 -0.868348 25.6899 -1.47285 -4.89124 17.2659 -15.2303 -37.3624 -2.10063 -8.43934 -34.998 -4.90039 -2.06042 -34.5904 -2.44094 44.8108 -7.8102 -1.52506 -4.94788 -2.87046 -4.11078 -1.92204 -1.61257 -1.98853 -1.62049 -1.46594 -0.843758 -1.88299 -2.09564 -1.96479 9.95868 -0.707483 -2.1774 -0.29726 54.5599 -2.39842 -40.4783 -2.57297 -37.9008 -36.3001 21.3755 43.0716 -1.63541 -1.32052 -4.54911 29.9744 -40.7332 1.42635 -6.70126 -3.36758 -3.69896 -31.9697 24.9915 -10.9688 -1.37732 -0.903418 -0.973752 -0.736963 -1.22231 -0.840438 -0.565115 -2.7437 -1.08834 -2.23452 -2.98009 -1.55286 -1.35196 -1.65927 -2.47796 -0.749236 -1.60359 35.4244 -1.51307 1.02862 -0.811375 -1.65322 -5.19454 -56.1096 -1.33518 -1.63546 -4.30159 16.7383 87.8123 -8.67183 -2.20263 -7.94495 -2.4617 -1.31299 -38.3418 -2.35027 -1.51379 -1.52429 10.0388 -1.46922 -1.53895 -4.53512 -53.1279 -1.53648 -0.997465 -3.5074 -2.28119 -14.6476 -1.59194 -1.356 46.37 0.190271 48.2255 -1.80561 -1.24843 -55.5012 -0.70727 -2.57022 -1.1075 -0.599715 -1.24993 -0.711472 2.32721 -1.06569 -2.07683 -0.710628 -0.686977 -0.4584 -2.28098 -1.91967 -1.4801 -51.3629 0.930463 41.6027 -0.383096 -0.928717 -0.805474 -0.554009 0.715234 -4.84308 -3.9935 -0.885457 -5.2577 -39.1911 0.128162 -2.62367 -4.19573 -0.689118 -0.486978 -1.50535 5.22213 -0.422227 -1.02683 -2.83248 -0.421633 -0.404046 -1.1197 -1.97455 -1.93917 -8.38438 3.41814 -1.4917 -1.16651 -0.376335 2.0845 -4.31701 0.870037 -0.0310619 6.00203 -1.66803 -3.32484 -0.171152 30.1044 31.3158 0.501694 6.74432 47.347 -2.02353 38.1485 -0.604516 -1.16967 -0.663924 -1.80485 -2.09018 -3.67 1.14164 -3.137 -0.736225 -1.8367 -4.31957 -2.19371 56.2161 -2.05646 -4.78692 -0.436014 -1.11392 -0.824561 -1.30466 3.44744 -1.4809 -5.15948 0.699877 17.6245 -0.612278 -4.41058 -1.84532 -8.07858 -0.644473 -1.0477 -1.80386 -1.34838 -0.120507 -2.64867 14.338 -2.98703 -3.07398 -1.29844 -2.01448 -1.38815 -38.1339 -1.3696 2.49184 1.96567 -2.43412 -1.25132 -1.16731 0.200342 -1.13437 5.06808 -2.52 -3.09401 -0.387463 -3.5231 -3.3706 -3.74393 -0.468393 1.65255 5.8178 -1.01407 -4.16653 3.5042 40.0718 3.343 -1.49334 49.9848 44.6185 -1.05726 -1.77273 -0.619114 40.7074 -3.20758 48.1999 -0.438353 -2.32616 -42.5599 13.5653 15.885 -0.629692 56.0115 -2.31544 -29.3435 -17.665 -1.12017 0.921219 2.19744 0.540306 -1.89067 -35.3402 -2.35158 -0.597556 -0.452735 -4.14329 -36.2831 -1.39028 -1.29046 0.475646 3.1994 -3.212 -2.20667 49.922 -1.40236 -1.3592 -1.67412 -36.5368 -2.57402 -0.67091 54.2315 -1.42818 -0.326448 -2.47006 -2.78331 -2.76113 1.83434 -1.23425 -1.16938 -1.30888 -0.974801 -5.23782 -1.50818 0.939256 23.8045 -2.15134 4.6662 85.2905 16.0769 0.975119 -1.49973 -1.67776 16.6129 -34.9385 -35.0717 -0.674259 1.04172 10.0935 -27.2721 0.640313 -0.14723 -31.0842 0.219502 -2.94261 -1.41878 -0.785927 -0.885056 -1.75795 -2.22354 -0.847961 -1.86848 -2.11742 -1.59969 -1.61891 -1.8004 -1.1558 -1.58948 -0.882879 -0.403015 -0.185214 -1.91541 -0.569649 34.1996 -0.728897 -1.63667 -1.76519 -1.90594 -1.63065 -1.66704 10.1298 -1.2217 -3.11354 -1.17615 -0.996074 -36.3647 -2.29213 -1.80945 -2.98889 -0.407799 -1.32213 -1.53631 -2.06349 -0.878439 14.6543 -1.7145 0.0697323 -35.3535 -1.27454 -1.30321 -40.1104 -1.68506 -0.339239 -17.4579 -1.42987 -21.2601 -2.05091 1.23075 -0.164748 -2.96954 -1.57108 -1.09381 20.7726 -0.95616 -2.34932 -2.39172 1.23659 -0.80515 -0.228426 -5.03461 -1.42751 18.2012 -1.43592 -1.31408 -1.18683 -0.584128 -0.389371 -0.155579 -2.11619 -2.15726 -0.71805 -3.93196 0.867096 -0.364748 1.34071 -0.946166 -0.631425 13.2786 1.49458 -0.431421 -3.89452 -0.16639 -0.886121 0.924683 -0.447231 -1.56517 -3.68253 -1.21554 -4.56232 1.95136 11.0849 66.7518 -1.78115 3.19133 -1.28031 -1.50289 1.31309 -51.4896 -39.7384 -1.09424 -33.4441 -2.27069 44.7349 -1.48076 -1.11736 5.56611 0.263332 -2.92103 -1.83016 -2.95698 4.78215 -0.4736 -1.23106 3.27154 2.91105 -1.78215 -1.09655 -1.0134 -1.39771 -1.91179 -1.1244 -2.0121 -2.59787 -1.85749 -0.272079 -1.45473 -2.22598 0.773888 -1.72709 -0.337971 80.7476 2.67396 -1.28504 -0.540788 -0.642971 -1.12364 -1.81566 -0.557479 -0.502911 -1.34233 -0.214493 -0.910927 -4.20581 1.98229 -2.34031 -1.78552 -2.24346 -39.5979 8.00406 -32.0774 5.46048 5.62555 -1.20185 -0.708191 3.06598 -26.944 -3.69086 27.147 11.8378 -0.598157 -1.92687 0.254602 1.72521 -0.486078 -0.637515 -0.271663 -1.36654 -0.462128 3.2463 1.77957 0.753355 -35.6258 4.36115 0.703695 -0.633671 -1.1901 -2.45688 -2.13797 -1.77643 -0.961912 -37.1263 -0.3549 46.8343 -4.52216 -1.09593 -4.54449 -1.70942 -39.247 0.531123 -1.38335 -0.356946 -0.498827 -1.32917 -1.68585 -1.2127 -2.15086 -1.20968 -1.80866 -2.57551 1.40815 -1.70828 -1.62457 -1.0855 -2.40334 -0.644918 -2.56396 -1.7968 -1.29901 -1.10375 21.2807 -40.6026 -1.38472 -0.724407 -0.734272 -0.406229 -0.969755 -1.61192 7.70909 -0.363231 0.00553455 -1.29829 -0.498193 -2.56514 0.00814828 48.7059 -0.579916 -3.67543 1.54425 -0.857351 16.2044 -2.76048 -1.94253 -0.464182 -52.3304 -1.10222 -1.19818 -3.49247 -0.951668 46.6954 -1.39714 -4.23752 -1.01604 -4.3563 -1.25974 -1.25193 -51.2839 -0.933289 -0.220675 -0.253931 -1.36132 -1.02463 2.64458 -0.539767 2.54154 -1.19903 -0.263962 -1.24591 -0.229829 -1.11673 -1.17342 -1.66833 -0.150794 -1.15746 -1.09254 1.96343 0.149338 -1.10218 2.84813 -1.79653 -0.876137 -0.440396 -0.472067 2.70815 -0.46164 -0.272233 -1.2904 -33.4357 -0.0514464 -1.82783 -0.244556 45.4184 -2.69919 -0.291624 -1.09652 -0.55867 -2.21365 -2.26133 -1.16415 -3.60799 -1.44602 -0.343922 -1.36996 44.1071 -0.872624 -0.337764 -1.02497 -5.79636 -1.54214 -0.98666 -2.38081 0.915609 -1.7218 -0.936109 2.07751 46.3837 -2.10532 -1.12877 -0.740942 -1.1154 -0.553811 -1.27035 -50.1799 -50.3616 -49.7777 -50.4781 -49.8863 -50.1335 -90.5606 -48.7655 -50.9952 -50.5662 -46.0647 -50.3074 -27.1131 -49.2855 -50.42 -10.847 -49.7854 -47.4337 -50.3566 -46.5826 -50.4622 -49.6083 -52.2661 -38.6332 -50.2848 -50.4269 -51.0122 -53.2152 -50.0318 -50.9606 -49.6402 -46.8786 -49.8288 -49.7163 -50.3606 65.4401 -49.8984 -49.685 -51.7408 -50.495 12.0456 -50.3712 -48.1462 -30.6414 -50.0142 -50.9453 -50.2379 7.43709 1.20285 -0.789467 23.8134 -2.40303 1.59991 -0.537452 -1.83751 61.9222 -1.01205 -1.60669 -2.01711 -1.88411 -1.02764 -0.451419 -2.49783 -1.28278 -1.22948 -4.61096 -0.504949 -0.879457 -0.278482 -0.910207 -0.315547 -1.06479 1.37102 88.6404 -1.56584 -1.14183 1.40775 0.560387 0.812336 -0.999242 -1.31606 -0.42126 -1.04121 2.9797 45.3381 -2.30824 -1.11605 -0.980201 45.2633 -0.47502 -0.439614 -1.43723 -1.19824 1.32161 -1.26004 -1.44816 -1.2179 -26.4743 3.54693 -0.307996 -2.76554 -1.14917 -2.1733 -0.422765 -0.383265 -4.04318 0.360126 -1.21834 -0.611192 44.4009 1.6239 -0.245783 59.2325 1.17325 -1.12072 4.50668 -0.629528 -0.773734 -0.262971 -1.34685 -0.604854 -1.23131 -0.74325 48.9047 -0.516826 -1.37012 -1.15174 -2.76936 -1.03958 -0.366176 -1.08028 -0.991395 -0.494206 -1.28268 -0.427198 -1.02056 -0.255917 -0.582307 22.5526 -1.18297 -1.83596 -0.532875 -0.567119 -18.4229 -2.57986 42.2159 -0.554075 -0.98429 -1.89265 -1.26879 -0.914234 1.80965 -2.3544 -1.31633 16.3991 -0.525972 -0.470816 -1.40878 -0.587941 -1.68567 0.752517 -1.16812 -0.876882 -3.54938 -1.36442 -4.28014 -1.11619 -0.692475 -0.218788 -0.40315 -1.23694 -1.83407 32.7246 0.193638 -0.199096 -2.08511 4.25579 -1.20647 1.32949 -1.58816 -0.222253 -1.0049 -0.244549 -0.670673 -3.19198 1.50597 -0.396984 -0.546034 -1.22917 -0.515421 -36.422 -0.480579 -1.24403 -1.2354 -1.32053 -1.33722 26.0484 -1.86343 -2.21939 -2.7673 -4.23258 -0.958201 -1.12887 -1.43196 1.72067 -3.21362 -1.49102 -2.47357 -2.32429 41.5443 2.85819 -2.32796 -1.32722 8.11277 -0.263882 6.6975 -1.15826 -0.373249 -0.00698219 -0.187508 -2.40703 -1.8672 -1.61973 -1.55366 3.62636 3.7948 -0.197492 -0.793645 -0.516024 -1.04258 -1.28533 -0.416811 -2.0634 -1.59887 -0.455855 -0.985883 -0.445878 -38.9081 41.4986 -2.66336 -0.411549 -0.145479 23.28 -0.30508 -0.250008 -0.51434 -0.232768 -2.51534 -1.60124 -1.02659 -0.323241 -0.894157 -0.463475 5.04918 -0.956658 -0.0163004 13.3252 -0.970439 39.2617 45.0645 -0.306479 0.0917486 -0.150781 -0.929661 18.2935 -17.1831 13.4423 -0.510116 -0.206519 -36.5211 -0.168135 -1.1505 32.0305 0.715467 -0.138096 -0.165644 59.7644 -0.233448 44.8897 -0.165245 0.120526 -1.04717 -1.03968 87.9665 -1.95296 0.20586 3.96907 -0.927543 -1.03051 4.71196 -37.1419 1.02696 0.760558 -0.980535 24.164 -0.217789 -38.1135 -1.30068 -1.08322 -19.3204 -1.63516 6.59035 -0.124166 -1.29812 -1.64441 5.46398 4.44468 0.916055 -1.4051 -1.17698 -4.62262 -0.115806 -1.10536 -0.682436 4.7391 -1.25017 1.21235 -1.24815 -0.264341 -1.09411 8.20231 -1.87479 -0.973059 11.0235 -0.263359 -1.55878 1.83877 -1.02243 -0.309772 -1.19784 -8.17272 -0.86751 48.9267 3.6745 -1.0833 37.7074 -1.02939 2.73431 5.09713 -1.01725 -0.126285 -38.9207 1.28037 -0.925268 39.2004 4.24846 -0.280889 -1.01849 -1.87287 -0.781128 -1.7399 -1.1679 -0.273828 -1.21893 -1.08016 -1.53715 10.0883 -1.13909 2.9312 3.39443 0.0445986 42.5857 1.87339 -0.253368 -0.0982306 -0.333348 -1.4801 2.29789 -1.09191 -0.684289 25.651 0.750416 -0.878786 31.1989 -0.0957059 -0.445982 -1.04254 0.627329 1.68448 -0.728969 -0.527002 0.0630695 -1.16017 -1.6918 3.30229 -0.3028 -0.775721 0.21798 -0.889631 7.34283 -1.24806 -1.07423 -0.16795 -1.3916 -2.25197 -1.12183 0.109218 -0.455613 -0.895724 45.1251 -1.12062 48.7549 -0.223557 1.04053 -1.87664 0.426488 -0.949302 -2.0278 0.664811 -0.187163 -1.35589 2.21682 0.577887 38.853 0.873214 1.84879 -0.408129 -1.26158 1.41711 39.6098 -0.754963 -1.57636 0.635304 1.14516 -1.44228 -37.7381 -0.0108283 9.26328 -0.879525 -1.58977 -0.876008 -0.991302 -0.575796 -0.0845915 -2.00108 -0.0769464 -0.880882 -0.754256 -1.1403 -0.364051 -0.385582 -0.303307 -0.0950726 -0.230547 -0.278201 -1.30718 -0.434525 2.36361 12.6674 -1.25669 14.9633 0.332521 0.0201587 0.343653 0.207176 -0.391908 -0.150834 -1.19001 -0.300883 -25.012 -0.70369 -2.97567 -1.46871 -0.368299 -0.233186 -0.232238 0.344428 -2.11082 -1.2262 -1.20232 -0.572506 -0.365752 -1.47348 -0.880113 -0.268763 -0.154826 1.35155 4.43486 0.337877 -0.0465276 -0.719741 -0.0876101 -0.847863 43.166 -0.918316 -1.01131 9.89949 -0.742372 -1.1034 7.23653 1.61463 -0.0803057 -0.984281 47.3419 -1.08024 -1.33641 0.604533 -0.175051 -0.175208 -0.238712 -1.14651 0.196475 -0.224881 -0.250213 -1.01734 1.24085 0.668119 -0.119502 1.55083 -1.14314 -0.433511 -0.110342 -1.22783 -2.59104 -1.13718 0.830848 -2.60393 -1.1824 46.5992 -1.13617 0.0743528 -0.937019 2.25646 -0.350028 -0.849433 6.10676 -0.0683593 -0.18151 0.413819 1.85724 26.0953 -1.23713 12.8604 -0.568877 8.26136 2.14219 -1.57473 -1.74394 -1.00029 -0.62702 5.21643 -0.209668 -0.897675 -1.00404 0.102917 6.35903 -1.11714 -37.8194 -38.653 -39.2979 -39.2622 -39.3864 -38.4602 -38.7283 -35.445 -37.0403 -39.3951 -38.8567 -39.0398 -39.0895 -39.2505 -38.9239 -39.3525 -38.5614 -29.6654 -36.4841 -39.2695 5.20404 -24.6515 -39.7018 -38.5959 66.0252 -38.7006 -38.4186 -38.6521 -39.3547 -38.1115 -26.5295 -39.2288 -38.2658 -38.7402 -38.6086 32.2147 -39.3039 -36.0709 -40.2876 -38.5581 -36.2294 -39.4146 -36.1791 -37.4924 -36.6287 -34.7768 -1.16774 -1.21574 -2.43952 -0.0910205 -0.970087 -0.387653 -0.829132 60.2591 36.0981 2.36765 0.165213 14.0972 -0.369571 -0.954627 -0.619111 -0.796083 -0.0844485 -0.355497 -0.730639 -0.360482 -0.0939094 -0.505626 -0.680864 -0.236381 -0.593876 -1.0043 -0.914121 -0.39462 -1.10137 0.484102 4.33996 0.0825547 0.614883 -30.8268 -0.269273 -0.763742 -36.0148 -1.10925 -2.95527 30.465 16.6354 -0.970922 46.7165 -1.23133 -1.28261 -0.148542 -1.12037 0.067191 3.91085 -0.113387 -1.20999 -0.219677 -2.0244 -0.777657 -0.509326 14.8613 -3.39093 -1.37527 -1.13489 -0.862979 0.863312 21.3187 -1.06605 -1.24199 -1.58169 -1.27482 -0.598924 -1.19662 47.4714 -0.847926 -1.98487 -1.04208 -1.77816 32.1167 4.91501 -0.41479 -0.337468 -0.813851 3.93883 45.161 0.967704 -0.111862 4.60516 2.50879 0.638284 0.879624 -0.0713957 -0.0887672 3.21862 -0.162581 1.62803 -0.123624 -0.870073 -0.418683 -1.81218 -0.912053 -0.689658 6.05453 -1.21439 -5.79633 -0.85314 6.51371 -1.00508 -0.00966998 -0.0790956 -0.0359171 -0.379221 104.161 -1.84907 -32.0525 -2.22092 0.418619 -0.573267 -0.71539 0.928545 -0.777973 -0.0224503 -0.817285 -0.844423 1.94285 -0.173701 0.018881 -1.22583 -0.873566 -0.702678 0.00676078 0.556315 -35.0535 23.1708 -1.17225 0.0425858 -33.1655 -0.159375 -1.07732 -1.34876 -1.02763 -1.92864 43.0834 -0.302518 -0.741161 0.469028 -0.450671 -1.54865 -0.903551 0.329473 -1.13584 -0.235496 -0.135525 27.8713 0.144729 2.82133 -0.0476188 -0.024386 -0.25677 -0.0301299 1.2918 -0.584769 -0.296855 -0.033731 0.34549 1.78996 -0.647988 -0.0161232 7.66745 -0.322828 0.976047 -0.175792 -0.875197 44.9648 -0.09977 -1.14918 49.0661 -1.30093 -1.05288 -0.872574 -0.831349 -1.0168 -0.860096 -0.804182 -0.185682 -1.09426 0.0559752 -0.80168 2.84106 30.8036 1.51356 -1.74653 1.58611 -1.34021 4.54162 0.246855 -0.529965 -0.237796 -0.203331 -0.91301 -0.0853981 1.03515 0.15327 -1.04126 -1.08327 3.0967 -0.289508 -0.207246 -0.0661537 -0.729743 -0.875999 -0.732153 0.0451527 2.82099 -1.02015 -0.862792 0.977754 7.1966 -0.876434 -0.0843133 2.45524 -2.00353 28.676 23.3987 -1.12157 5.35034 -0.0251096 -0.556 -0.0616761 0.045205 8.52152 0.122371 -1.11901 -1.19484 -0.00826662 -0.0607485 -0.448315 -0.796887 0.0757398 0.0632301 0.0155718 -0.559966 2.23413 -0.818154 -1.07929 -0.108386 -0.746451 -32.4421 -27.0393 -30.8196 -32.0065 -32.0081 -30.3291 -31.8983 -30.9035 -32.0424 -8.52839 -30.83 -30.9848 -31.7763 -0.762459 6.55338 0.059525 -0.113995 -0.256217 -35.6665 -34.5308 -30.5289 -33.9448 -34.9886 -34.262 -34.7924 -34.4866 -33.815 -34.7925 18.8623 -35.0206 -10.6408 21.2658 -32.7283 -34.9129 -24.9402 -34.2389 -35.0297 -34.3037 -34.7724 0.868246 0.459792 45.7838 0.0604944 1.3775 -0.799843 0.156488 1.58236 42.3144 -0.662347 5.74174 -0.147964 0.0135909 -0.682538 -0.549325 6.57381 -0.10247 0.0519972 -0.782078 110.977 0.120656 26.487 -0.952571 7.94496 -0.724095 0.0305297 -0.269074 -0.829939 1.99111 0.494797 1.10006 -0.802305 63.7977 1.25838 6.82335 17.7889 0.709267 -0.999871 -0.109476 0.0111857 11.9715 -0.57295 24.4582 0.442545 71.8225 47.4611 -0.17453 11.0217 24.1957 -0.730431 -0.941875 -0.371785 0.134289 -0.851342 -0.701776 0.0452601 -0.118303 -0.570709 -0.82366 -0.362867 -2.10104 42.8897 -0.152911 -1.38966 1.01737 -0.70117 0.10114 -0.746717 -0.0934485 0.602197 0.182936 -0.0633748 -0.667452 -0.723897 2.16916 0.0806601 -0.0168097 0.0903143 0.0970378 0.708755 -1.13141 -0.647215 -0.071471 4.70757 -0.0772938 0.142184 -0.80069 -0.461569 -0.452498 0.37111 -0.744732 -0.965886 1.75751 -0.454868 0.110558 -0.0649148 -0.673219 0.15966 1.88318 1.31323 -0.594874 0.00982848 -0.759193 -0.106934 2.40566 -0.454508 0.0287548 -0.618718 -0.137763 0.00723452 0.160006 -0.25674 -1.13656 -0.167774 -0.800455 -0.825144 -1.89826 -0.313739 -0.162038 -0.212238 -0.658257 1.72523 -0.397099 -0.981183 51.7643 0.117643 -1.63731 -0.0882369 -0.655594 -0.19944 1.47278 -0.144408 -0.880154 -0.363776 0.613362 -0.938669 -1.28247 -0.932196 -0.132737 -0.627126 -0.678824 -0.798936 -0.827034 1.4773 -0.130887 -0.686855 4.09507 -2.2772 -0.941893 -0.073528 -0.630213 -0.182219 -0.684658 -1.80349 -0.753336 -0.716503 0.330366 -0.625407 -0.0299562 -0.138533 -0.877389 0.0587805 -0.115786 -0.674957 -1.21886 0.121806 -0.885268 0.163434 -0.772849 0.94998 -0.800013 -0.702252 -0.168235 -0.151568 -0.0205714 -0.108312 -0.963642 34.1143 -0.0299275 -0.702496 -0.768236 3.54287 2.80855 -0.963348 21.9421 0.378121 1.80142 8.21131 0.498765 80.2202 -0.858367 0.147282 0.448157 0.244793 45.2831 -0.746635 0.0582675 -0.236041 -1.28136 -1.80626 -0.932885 0.0994949 14.922 -0.959028 0.135963 -0.443024 -0.849472 -0.786645 -0.742383 0.364865 -0.672378 0.0342734 -0.711122 -0.885622 0.490282 -0.679903 -0.0464487 0.0628039 -0.138897 0.110575 -0.230044 -0.916276 -0.666194 -0.00232776 0.152297 0.857763 0.0114672 -0.990157 -0.489561 -0.0546356 -0.707837 -0.916137 -0.844595 2.77034 0.506622 -1.02255 -0.666423 -0.838157 -0.732851 -0.0570334 16.546 -0.749752 -0.791873 -0.713213 5.33781 -0.0680187 -0.156085 -0.172193 -0.651059 -0.8392 1.56368 2.60017 0.100132 -0.585108 1.53518 -0.858859 31.1736 -0.00210074 1.22629 4.39658 -0.819743 -0.715788 -0.794848 1.85606 0.0990924 5.46014 -1.20522 -1.37907 -0.424569 -0.931939 -0.0165747 28.6071 8.33142 2.00374 0.310937 -0.350394 -0.812913 -0.681134 -0.70021 -0.174799 1.01121 -0.766785 -0.964657 0.719167 -0.884904 -0.871446 24.8454 50.0924 -1.00164 0.532396 -1.0212 16.2003 0.815665 -1.5536 -0.994613 -0.127405 0.0833371 6.95017 -0.941404 -0.228958 -0.831077 -0.059621 -0.115251 0.0946128 0.021938 -0.661801 0.017407 -1.02798 -0.0565077 -0.173389 0.618696 -0.151342 -0.701221 0.0742495 0.45064 0.0844442 -0.852985 1.72451 -1.28105 -0.0881623 44.8794 -0.821094 -0.597839 -0.202199 1.84696 1.03117 0.0810894 -0.100159 0.103516 -0.97303 45.8662 -0.547665 0.228973 -0.895331 -0.067856 -0.802231 -0.838437 -0.130098 0.145485 -0.0511375 0.0547254 -0.242637 0.143394 0.841169 -0.903361 9.82179 -0.780098 24.0468 -0.732834 -0.465463 0.111538 2.06648 -0.00565022 1.37601 -0.836853 0.578427 0.60904 -0.991266 -0.255836 -0.701326 0.0664826 -0.739931 -0.560564 -1.41581 -0.815255 0.148996 -0.511658 0.0313451 -0.944053 6.49915 -0.82571 45.6259 -0.0231813 0.119457 43.9526 -1.0395 -0.845828 2.74489 -0.936731 -1.03527 0.00644163 -0.833355 3.05413 -0.212848 -0.00448501 0.468293 0.079599 25.3505 -0.789402 0.0900137 -0.681142 -0.0144719 -0.237364 -0.306839 0.0783607 0.101607 0.266801 0.569233 -0.842698 1.71733 49.2235 0.77883 1.27877 -0.868785 -0.653196 -0.757922 -0.738225 0.433588 22.3236 -0.884614 -0.188405 -0.770112 -0.165692 0.717248 -0.561494 -0.702518 0.723323 41.5962 -0.230171 -0.23823 0.121712 2.78515 -0.700839 -0.0856758 0.0272678 -0.210463 -0.139981 -0.966659 -0.727463 -0.68513 0.115215 -0.0588163 3.26816 0.0107096 5.24837 -0.4564 -1.00138 -1.3932 -0.0967901 0.181276 -0.917738 0.0414047 2.86127 -0.531164 0.392608 -0.874831 -0.944863 0.153232 -0.812547 0.236634 -0.821412 1.90784 1.13147 65.9241 -0.0458824 -0.896284 -0.949122 -0.687663 4.73486 -0.819786 -1.06307 -0.139221 -0.691193 0.155695 -0.93098 0.161352 -0.715547 -0.665603 -0.123901 2.18609 -0.928912 -0.988304 -0.729359 0.422938 -0.0993618 -0.155331 -0.69007 -0.84189 -0.519942 43.5006 0.127611 -0.746228 -0.00767458 0.0443066 0.0499517 45.6771 0.102618 -1.01383 -0.0323173 -0.154935 11.9734 -0.912976 -0.91981 0.955474 45.1705 0.845681 -0.97208 -0.482545 5.45474 0.526023 -0.745782 -0.810931 -0.682106 -0.120076 0.282452 0.0751432 0.0818623 -0.0306141 0.075847 -0.937169 -0.618792 -0.660867 -0.308848 -0.0693428 -0.737188 0.894823 -0.749224 -0.935692 0.160192 -0.680669 -0.779447 -0.872477 -0.501393 -0.86343 0.0419179 0.0461572 34.2887 0.0174645 0.277039 1.00284 -0.81311 1.72926 31.6167 -0.764194 0.353842 -0.638425 -0.0287937 0.825014 0.123296 0.130543 -0.619455 3.28514 7.55333 -0.0380022 -0.250867 1.73405 -0.984119 0.181329 31.7795 -0.687419 0.160917 -0.780624 0.0851948 -0.668073 0.385206 -0.085285 -0.750105 -1.00187 1.1301 0.171419 -0.655614 -0.928217 0.326998 0.0738563 -0.185148 -0.686247 6.23077 -0.764746 50.0417 -0.196111 -0.826164 1.42879 0.493553 -0.723502 4.19718 -0.80853 2.86227 9.23279 3.31201 -0.00829401 -0.678702 -0.0934155 -0.336416 -0.815876 -0.698879 -0.500162 0.14364 -0.63528 -0.768583 -0.764219 -0.716425 -0.0490833 -0.702571 0.154904 -0.0773579 0.0361447 8.18657 -0.938979 -0.803688 0.517085 2.74941 0.467359 -0.798096 -0.0308073 -0.726811 0.128953 0.322709 0.451862 -0.121201 -0.0495392 0.451519 -0.959502 0.127001 0.205312 0.0619402 -0.608537 -0.899589 -0.958555 -0.967756 -0.688957 -0.634911 -0.968602 -0.0937237 0.157884 -0.928357 -0.912098 -0.140173 1.17531 -0.809157 0.842361 50.6304 -0.451217 -0.932109 0.197435 -0.650547 -0.642446 -0.0722152 -0.65063 0.101192 -0.899723 -0.658365 -0.144579 5.93602 -0.646077 -0.0413081 -0.886561 0.074503 0.113322 0.0686928 0.224275 -0.652852 2.27482 0.466211 0.0371573 3.42532 0.189614 -0.56835 0.210279 14.6403 127.284 19.9762 20.1431 61.5965 13.4539 13.3422 14.2401 13.503 16.3478 14.424 14.297 14.4531 21.3987 49.0269 14.4091 44.575 13.5948 15.4309 13.4882 19.0559 19.3323 14.5615 13.5623 13.6134 13.4169 13.5741 14.0187 14.333 13.5067 9.95652 5.50861 12.7874 5.50635 5.68804 4.72537 6.24738 5.56582 15.0208 8.50388 29.5218 5.65647 11.6204 5.67812 11.0317 4.63507 6.00077 7.56749 5.81703 50.0783 5.46693 9.62308 8.9556 12.2226 6.55632 67.6454 10.4998 5.93251 54.205 51.7984 11.0511 5.01336 50.8215 8.38115 6.48507 18.2524 2.80521 8.77923 4.80696 44.0138 5.29629 19.5548 5.36664 21.7851 6.8093 36.1691 3.92635 4.8543 4.01817 3.97938 29.1329 5.82086 11.3136 37.8705 10.0295 8.44589 7.54224 4.27193 7.73027 10.5906 2.44296 5.82461 13.4856 52.8113 2.22081 60.5532 5.94247 34.9282 6.95983 6.13387 49.3464 7.798 6.66712 22.9176 5.95259 73.6809 6.16674 2.3555 4.28813 15.2268 2.90041 3.57667 3.99801 3.82921 2.91467 7.20223 2.16139 4.60147 4.75056 2.097 2.42275 2.86898 7.95861 2.3304 4.75228 2.24272 24.5464 2.09118 3.17086 2.92512 3.9669 3.5654 4.4661 2.00411 3.23735 5.47088 2.33247 5.3985 4.13002 4.26417 10.1929 12.1195 2.25053 7.22155 2.15203 5.15626 2.46455 4.16728 66.9867 44.4603 7.3924 48.1773 2.95782 2.98795 1.99673 10.761 2.75716 2.16037 2.07812 3.20598 2.55798 134.928 3.00737 4.58664 2.44715 2.17663 2.01205 9.0822 2.99644 3.05106 45.1127 2.3782 2.79272 3.57121 2.33238 3.13373 12.9068 51.2639 5.88963 8.08506 7.96172 29.1831 3.93 54.8706 3.56581 2.89724 2.86168 2.73962 2.80795 2.81925 2.78419 34.7388 13.3352 2.55635 2.78616 2.10294 4.09729 3.7108 3.11981 2.82683 5.53379 4.36049 3.21479 83.9904 2.56556 2.096 3.047 7.21963 3.07689 2.99552 49.2443 3.29661 4.89102 2.15632 4.79503 5.22667 5.05798 3.09466 57.7094 44.3669 46.3856 42.9919 53.2819 49.693 69.5958 45.9534 45.8887 47.9485 44.273 47.7075 44.2904 42.2581 49.2292 49.152 42.194 43.1858 43.1073 43.12 44.18 48.2859 47.0868 42.1847 60.6239 53.8815 57.9399 42.3469 42.1714 71.2378 74.4109 42.6282 45.8212 48.3977 47.476 75.6428 43.9931 66.5581 65.9039 46.9061 42.9812 43.3232 42.2536 48.5842 49.8514 45.4798 43.0416 42.1869 45.2983 121.26 48.8015 44.0443 43.82 42.2789 42.8592 96.3902 43.5017 43.3158 65.932 43.4868 43.3512 42.6743 46.7107 43.1181 2.02571 4.29243 6.07585 5.29728 31.2385 5.28216 3.63366 6.56686 1.17899 1.41991 2.32585 1.28614 1.26453 2.14469 2.18469 1.17349 6.3354 2.13843 7.18132 3.28813 5.11817 3.24239 1.5808 2.04569 1.46083 2.01589 1.78343 2.27339 1.82881 3.78321 1.94142 2.26708 2.16604 2.32208 2.26641 1.98704 53.4303 6.63139 1.41183 3.24591 23.8503 2.40251 1.58837 8.75667 2.15332 5.38347 2.02663 9.59777 3.54303 2.65772 7.92769 1.32483 3.12632 1.31766 2.96 2.59763 1.85441 2.16409 1.27861 1.38055 1.13753 2.31634 2.27552 2.35359 3.10253 3.62218 6.017 1.45982 2.58269 34.788 2.75506 3.72343 1.67727 2.63611 4.98536 5.9492 3.47856 3.20513 1.77787 3.85055 4.30145 1.5158 1.97249 1.38406 2.76569 3.25416 9.43312 7.57139 2.35397 1.70917 2.2804 7.40323 2.24407 21.1384 3.78051 5.62365 3.69832 2.10119 2.14691 2.23704 1.31923 1.48719 41.9616 5.32546 2.55185 1.26627 1.81366 52.56 4.52665 25.5039 2.18798 7.45485 5.94618 4.66015 1.70087 4.99182 2.01747 44.5198 3.10654 1.21603 1.44091 1.97336 1.33797 3.44704 2.26146 3.37674 2.4127 2.90659 1.52322 6.37421 7.03529 2.67671 2.99942 1.20203 1.48046 2.05626 1.959 2.18045 3.82367 1.43502 1.16543 2.04202 1.38554 3.06781 2.08596 1.48031 2.29556 2.75833 2.98251 2.84453 5.43846 1.66541 3.03387 2.21424 11.9091 2.02694 2.64267 2.28229 1.29818 2.00312 7.37228 2.594 2.26694 1.53334 11.6343 2.61214 1.50968 5.71413 6.59159 3.19591 2.30692 2.79927 1.59271 2.42558 4.74186 2.2817 1.50626 1.9776 4.96476 2.2029 2.21902 2.2018 1.40691 3.47219 1.70029 2.08395 1.55183 1.46228 1.66033 1.58965 2.4534 1.54201 2.40585 2.28051 1.59497 1.23539 2.31771 2.40358 1.3085 2.03865 1.47465 1.89554 1.59777 1.26293 2.2699 43.5202 2.45302 2.25778 2.29699 1.30146 4.32594 2.07582 2.72862 26.4227 2.13807 1.49826 3.15359 2.46735 1.68464 2.21232 2.19993 2.33575 4.53581 1.46331 1.34048 2.14335 2.71054 2.32647 1.29417 2.89902 1.25894 2.32178 1.57758 1.33977 2.27879 3.13955 2.52968 5.8355 1.74897 1.74362 2.37843 2.39694 1.41669 1.34426 2.27449 2.17642 1.52858 1.49214 2.05692 2.35194 5.76187 4.80196 1.88603 1.62869 2.27205 3.09156 2.12938 2.15621 2.14884 2.96282 2.70594 2.73557 2.27645 2.67538 2.34375 2.69699 2.37277 1.43862 5.01111 6.02656 1.81611 2.19795 4.13742 1.8933 2.35164 1.55395 2.00111 4.15385 2.56198 3.42137 3.1188 2.14536 2.50671 1.22713 2.32581 2.29434 9.17269 2.68318 1.22586 1.31816 2.1747 2.4093 17.3982 25.9683 1.85045 23.7612 2.15938 1.28111 3.27267 1.9924 3.25986 2.06232 4.10868 44.5841 1.2399 2.13141 2.29438 1.33922 2.55671 1.44299 1.31293 1.58374 2.20678 2.3852 2.44455 2.11758 6.45743 1.90851 2.23668 1.54874 1.57023 3.32125 1.5951 1.27481 4.24209 3.58938 2.3907 1.67804 2.64839 2.20928 10.9539 9.33424 3.55578 2.58161 3.32804 2.71611 7.26112 1.51902 2.42667 1.52592 2.11576 2.94772 1.50829 4.23893 1.48241 7.56902 48.679 3.57337 2.74988 2.58424 3.04534 3.21983 12.718 2.41005 1.44159 2.68253 1.53519 3.25505 1.6604 1.44629 13.6833 1.58374 2.77169 2.48984 2.10954 47.1049 2.45926 2.20524 2.67249 39.2398 2.42254 2.46989 6.33148 1.34416 2.29354 1.64709 2.1938 9.82102 2.14639 1.49422 2.39388 3.31088 1.71704 2.20842 2.67602 3.64885 1.44339 2.33932 2.58718 2.12151 2.63925 2.17584 1.4577 6.83598 2.44061 1.3898 30.9008 28.8999 3.81023 1.54103 1.35835 1.56531 4.28804 3.80412 7.06851 2.37566 26.1682 2.26538 2.29642 2.1985 2.67325 2.27326 3.23505 2.18695 2.95852 2.07817 24.6328 27.2123 21.8014 22.0741 22.973 22.9587 21.2162 21.8003 22.1397 23.2129 25.8275 21.8786 20.9994 23.2837 55.9816 22.1029 45.5248 21.1285 21.152 45.5132 21.5806 21.3368 21.2873 22.5489 21.1247 4.16463 8.31338 2.16011 4.63961 2.01809 3.45648 1.00857 2.03488 1.80719 1.84714 3.88321 1.01079 2.10438 3.92891 3.16871 1.17003 1.83891 1.68742 1.3969 1.8112 1.89419 3.06455 7.23077 0.888556 1.9816 0.849584 2.91327 13.364 2.71653 4.09684 2.038 1.91597 3.18919 1.15382 2.66682 1.64858 2.10437 1.17679 2.53505 5.34513 2.16886 2.23922 4.02526 7.29277 1.97507 1.13365 2.38028 2.67774 2.05177 3.48242 2.49671 1.71582 9.06511 1.73661 0.923617 4.85831 3.56421 1.58635 1.83942 3.19273 1.06746 5.28434 1.29052 8.80279 1.74739 1.42303 2.16141 3.38034 4.67886 2.526 3.02507 5.00501 1.83379 2.42905 2.11815 2.92643 2.18167 2.9348 7.16788 3.33107 0.821352 1.6512 4.53191 3.33271 3.48103 2.81702 2.74403 2.12944 4.05748 2.94794 3.68659 2.07592 1.13595 2.67055 1.79018 0.93466 5.78491 1.13342 1.61833 2.38427 2.01634 2.06233 2.02737 3.07541 5.50673 1.67356 3.65333 1.72424 3.19614 2.20457 2.19896 0.865599 2.18886 1.80836 1.52169 2.71655 20.3168 6.40605 1.78634 7.32301 4.41777 4.49921 0.838171 3.37291 3.69593 0.995415 2.18918 6.02487 1.10817 1.94697 1.09555 1.73567 2.6766 4.73229 0.955841 1.02731 3.92236 2.11121 1.02785 2.21174 0.788056 1.80027 1.61451 4.67811 1.53775 0.989235 1.46731 2.97176 2.09597 0.91292 1.91693 3.75237 1.91193 1.79597 1.44898 43.0991 1.60085 1.81844 4.11281 1.78148 3.57065 1.47527 2.34344 1.74782 1.69822 3.34646 1.19856 1.62194 1.00782 1.50005 2.45583 1.7663 1.44755 4.40937 0.861913 1.19791 3.49143 1.86572 0.818637 1.76472 2.16776 1.8264 0.797783 1.27421 0.711431 0.902059 2.14923 1.6077 0.826411 1.31241 1.34124 2.01443 0.633262 2.14429 3.5895 1.34794 3.19156 0.953088 1.808 2.69288 2.86802 3.05214 2.1253 1.58772 2.14635 1.18897 0.655311 1.66043 2.8518 5.27382 5.18779 2.32455 2.40071 0.65171 2.09794 4.20724 2.70844 2.54711 1.55373 0.84002 1.45621 1.51371 1.79425 1.8602 1.29947 42.615 3.19723 3.53549 3.18574 4.06873 1.55265 3.14712 2.41202 1.48807 5.98262 1.64949 2.56162 1.43483 2.73046 1.65255 1.56175 0.798349 1.0377 0.765241 0.799551 41.0076 0.952913 1.92662 2.60415 2.95492 2.68693 3.02588 1.51501 1.49659 1.57468 0.489074 1.50773 0.681375 2.73787 2.15978 1.49548 0.823972 1.30106 4.70708 2.98168 1.52502 1.93014 1.29515 4.18671 1.83407 1.55424 1.06234 1.50436 1.2544 1.42486 1.42762 0.565092 2.06912 1.75645 0.502361 0.53377 0.474037 1.59601 1.03969 2.33927 2.31682 0.484426 1.6567 1.48198 1.02518 1.48917 1.20564 1.52196 1.59574 6.95942 0.833502 2.27178 1.51961 1.17754 1.33714 1.39676 2.13778 0.508118 3.62472 1.44088 1.43566 1.21659 0.41516 2.3587 1.61921 0.536777 1.53364 33.0871 1.63349 1.19881 1.24531 2.05431 0.477118 35.1009 0.482196 1.43328 1.96807 1.29684 0.375454 1.2436 0.598051 1.15005 0.352453 0.316054 2.12828 0.680875 1.88872 0.885705 1.44457 1.34542 1.25289 0.463143 0.49322 2.01341 1.82289 1.29493 2.10575 1.09857 1.11204 0.368075 0.655108 1.46104 1.73843 2.42336 2.09892 1.92081 32.7903 1.10808 0.308344 0.359289 0.583041 0.615247 0.319137 0.517545 1.73772 0.316867 0.638281 2.52962 0.355993 1.61324 1.17928 3.6829 2.25855 2.38657 0.550867 1.63069 0.604455 1.15266 2.77749 1.2491 67.0309 1.7145 1.09668 1.37453 0.406848 0.985772 1.60255 0.565735 1.9157 0.415491 1.58033 1.18489 0.841412 1.87266 1.62089 1.39878 0.691864 2.37183 1.3366 2.27145 2.08286 3.77596 4.32006 2.1176 2.49106 1.96077 1.77166 1.895 1.95321 1.25274 1.65535 1.14519 2.59456 0.586724 0.781223 1.04986 1.63254 1.32188 1.41549 1.51295 2.11251 19.7767 2.89724 1.56392 0.34909 1.96737 0.575297 1.54702 1.88849 24.9832 42.4914 0.264259 0.777966 1.07556 2.26661 1.22071 0.326754 2.54624 1.03673 0.538554 1.3913 0.391254 0.264323 0.407179 1.3105 0.26059 1.43169 1.27288 1.11944 0.567446 0.293281 3.89087 0.921935 1.21216 0.763807 1.19489 0.466869 2.60971 2.56792 1.26267 0.185501 2.37547 1.0639 0.9864 0.296616 1.27846 0.557152 1.91131 0.509775 0.77667 0.970738 0.224543 1.28766 1.51175 0.295842 1.63969 1.20234 1.801 1.48049 0.392864 0.268711 0.212833 1.55359 0.422797 0.951729 0.408588 1.09383 1.41632 0.285891 0.236266 -0.0981914 1.30952 0.305081 1.13001 51.3993 0.463289 1.03078 0.423832 0.466194 1.73492 0.911535 1.63904 1.1412 2.8038 1.88595 0.346781 0.357414 0.970884 0.434443 1.06431 1.0905 0.27031 0.311975 0.582696 0.330269 0.177206 0.489861 1.08035 0.500714 0.683143 2.3367 1.24063 0.594373 0.296991 1.10191 1.32231 1.30761 0.688489 1.15231 0.451047 1.2981 0.227045 1.01735 0.507241 1.68629 1.26979 0.2418 0.475557 0.582757 0.436571 1.18922 1.47946 0.193742 0.501977 0.46491 1.37965 0.670274 0.222492 1.06983 1.16208 0.180638 1.38778 23.2073 56.9054 23.8381 25.0256 23.1565 23.3709 23.8248 23.3283 24.1892 25.4436 26.0732 22.9985 24.0586 23.1238 23.7471 23.1929 23.1271 23.9413 23.9135 24.0069 23.9922 23.7812 26.6823 24.2462 23.6666 24.5949 25.3728 24.3624 24.7318 23.8294 24.3928 24.0741 24.867 24.8092 24.3247 23.7488 1.24554 0.901685 0.578715 47.725 1.3425 0.257951 1.37535 0.972722 1.98653 0.310296 0.583042 0.434803 0.928012 0.171779 0.176631 1.0898 1.13656 0.484473 0.0118867 0.193639 0.229646 0.368626 1.05524 1.41438 0.294996 1.42005 0.0360052 0.0910953 0.982213 0.965521 1.43448 0.365643 0.302534 0.90485 0.316584 1.17256 0.430181 0.945137 0.0409436 1.29795 0.768844 1.3584 0.952452 0.160658 46.1793 0.44022 1.54868 1.32586 0.557514 0.839245 1.12662 0.413284 0.280762 0.0492923 0.268777 39.2736 38.8204 40.07 38.957 38.7029 38.8138 39.8034 39.8062 38.9656 39.1961 39.966 40.0667 38.9759 39.3401 39.54 38.8533 0.991799 0.908513 0.910224 1.3809 0.827446 -0.108293 0.987 0.218458 0.282669 0.791869 0.440035 -0.361065 0.446554 0.135515 -0.110856 -0.40801 1.21821 0.450849 0.33501 1.18269 -0.321573 -0.107999 0.960104 1.91233 -0.417939 0.842518 0.494537 0.603987 0.387572 0.868288 -0.0282704 -0.237772 0.101878 0.814609 -0.416286 0.337574 18.096 1.61251 0.168587 0.213494 0.441993 1.27252 1.01746 0.817898 1.52054 0.778973 34.2946 1.38852 1.08896 0.0778109 1.07661 -0.002721 0.0693563 0.0858229 0.998531 0.790091 0.953467 0.679312 0.322489 0.640015 0.23645 0.264162 1.14086 0.231101 1.00442 0.51943 0.454579 0.316576 0.516396 0.549008 0.426629 0.878202 0.803056 0.899047 1.02863 0.0984163 